booster[0]:
0:[f0<-0.0314613059] yes=1,no=2,missing=2
	1:[f0<-1.56378794] yes=3,no=4,missing=4
		3:[f16<4.32699108] yes=7,no=8,missing=8
			7:leaf=-2.61520267
			8:leaf=-1.10640943
		4:[f7<-1.17697167] yes=9,no=10,missing=10
			9:[f4<-0.332632095] yes=15,no=16,missing=16
				15:[f1<-0.0479194149] yes=27,no=28,missing=28
					27:leaf=0.926974535
					28:leaf=2.35228968
				16:[f1<-0.0479194149] yes=29,no=30,missing=30
					29:leaf=-0.554854393
					30:leaf=0.841193318
			10:[f1<1.10153019] yes=17,no=18,missing=18
				17:[f2<-0.232170418] yes=31,no=32,missing=32
					31:leaf=-1.65207827
					32:leaf=0.614472628
				18:[f5<-0.179552004] yes=33,no=34,missing=34
					33:leaf=-0.348889261
					34:leaf=0.827313602
	2:[f5<1.00389516] yes=5,no=6,missing=6
		5:[f1<-0.96747911] yes=11,no=12,missing=12
			11:[f0<0.990089774] yes=19,no=20,missing=20
				19:[f10<-0.186954424] yes=35,no=36,missing=36
					35:leaf=-1.78471124
					36:leaf=-0.310936332
				20:[f4<-0.381780148] yes=37,no=38,missing=38
					37:leaf=-1.16039062
					38:leaf=-0.291715324
			12:[f5<-0.539032757] yes=21,no=22,missing=22
				21:[f0<0.990089774] yes=39,no=40,missing=40
					39:leaf=-0.33614409
					40:leaf=0.263525575
				22:[f1<-0.0479194149] yes=41,no=42,missing=42
					41:leaf=0.313158333
					42:leaf=1.06079364
		6:[f1<-0.96747911] yes=13,no=14,missing=14
			13:[f0<0.990089774] yes=23,no=24,missing=24
				23:leaf=-0.829091072
				24:[f4<-1.27663863] yes=43,no=44,missing=44
					43:leaf=-0.549170971
					44:leaf=1.37420762
			14:[f4<-0.566607118] yes=25,no=26,missing=26
				25:[f2<-0.232170418] yes=45,no=46,missing=46
					45:leaf=1.18484604
					46:leaf=2.28759766
				26:[f2<0.669908404] yes=47,no=48,missing=48
					47:leaf=2.30090547
					48:leaf=1.70136762
booster[1]:
0:[f0<-0.0314613059] yes=1,no=2,missing=2
	1:[f0<-1.56378794] yes=3,no=4,missing=4
		3:leaf=-2.37943912
		4:[f6<-0.810411036] yes=7,no=8,missing=8
			7:[f1<-0.0479194149] yes=13,no=14,missing=14
				13:leaf=0.842006385
				14:leaf=2.07262778
			8:[f1<-0.0479194149] yes=15,no=16,missing=16
				15:[f2<-0.232170418] yes=25,no=26,missing=26
					25:leaf=-1.65653765
					26:leaf=0.53727895
				16:[f4<1.56348741] yes=27,no=28,missing=28
					27:leaf=-0.0544702001
					28:leaf=-1.72916353
	2:[f7<-1.17697167] yes=5,no=6,missing=6
		5:[f1<-0.96747911] yes=9,no=10,missing=10
			9:[f0<0.990089774] yes=17,no=18,missing=18
				17:leaf=-0.816836178
				18:leaf=1.12292171
			10:[f2<0.669908404] yes=19,no=20,missing=20
				19:leaf=2.18486285
				20:[f0<0.990089774] yes=29,no=30,missing=30
					29:leaf=2.12230611
					30:leaf=1.44304347
		6:[f1<-0.96747911] yes=11,no=12,missing=12
			11:[f8<0.0878433883] yes=21,no=22,missing=22
				21:[f7<1.69649601] yes=31,no=32,missing=32
					31:leaf=-0.889302671
					32:leaf=-0.00673900777
				22:[f4<-1.27663863] yes=33,no=34,missing=34
					33:leaf=-0.771473885
					34:leaf=-1.85412002
			12:[f16<-0.126747429] yes=23,no=24,missing=24
				23:[f0<0.990089774] yes=35,no=36,missing=36
					35:leaf=-0.305950403
					36:leaf=0.275519282
				24:[f1<-0.0479194149] yes=37,no=38,missing=38
					37:leaf=0.447523504
					38:leaf=1.04669333
booster[2]:
0:[f0<-0.0314613059] yes=1,no=2,missing=2
	1:[f0<-1.56378794] yes=3,no=4,missing=4
		3:[f16<-0.531081438] yes=7,no=8,missing=7
			7:[f0<-2.0745635] yes=15,no=16,missing=16
				15:leaf=-2.52582502
				16:[f5<-0.64092201] yes=31,no=32,missing=32
					31:leaf=-1.55954289
					32:leaf=-0.887905836
			8:[f7<-0.306122839] yes=17,no=18,missing=18
				17:leaf=-2.73047566
				18:leaf=-1.57708669
		4:[f5<1.00389516] yes=9,no=10,missing=10
			9:[f1<1.10153019] yes=19,no=20,missing=20
				19:[f11<-0.390389651] yes=33,no=34,missing=34
					33:leaf=-2.15353274
					34:leaf=-1.07856047
				20:[f12<-0.323500305] yes=35,no=36,missing=36
					35:leaf=0.201256245
					36:leaf=-0.629238725
			10:[f1<-0.73758918] yes=21,no=22,missing=22
				21:[f2<-0.103302017] yes=37,no=38,missing=38
					37:leaf=-0.829421401
					38:leaf=1.08376253
				22:[f1<-0.0479194149] yes=39,no=40,missing=40
					39:leaf=0.34651944
					40:leaf=1.06049013
	2:[f5<1.00389516] yes=5,no=6,missing=6
		5:[f1<-0.96747911] yes=11,no=12,missing=12
			11:[f12<-0.303153127] yes=23,no=24,missing=24
				23:[f4<-0.360400677] yes=41,no=42,missing=42
					41:leaf=-1.17417073
					42:leaf=-0.499565095
				24:leaf=-1.47115433
			12:[f5<-0.539032757] yes=25,no=26,missing=26
				25:[f0<0.990089774] yes=43,no=44,missing=44
					43:leaf=-0.36174643
					44:leaf=0.24921611
				26:[f1<-0.0479194149] yes=45,no=46,missing=46
					45:leaf=0.263835758
					46:leaf=0.845558286
		6:[f1<-0.96747911] yes=13,no=14,missing=14
			13:[f0<0.990089774] yes=27,no=28,missing=28
				27:leaf=-0.965461552
				28:[f4<-1.27663863] yes=47,no=48,missing=48
					47:leaf=-0.161524892
					48:leaf=1.21729028
			14:[f4<-0.566607118] yes=29,no=30,missing=30
				29:[f2<-0.232170418] yes=49,no=50,missing=50
					49:leaf=0.969106793
					50:leaf=2.22178698
				30:[f2<0.669908404] yes=51,no=52,missing=52
					51:leaf=1.99627268
					52:leaf=1.56156743
booster[3]:
0:[f0<-0.542236865] yes=1,no=2,missing=2
	1:[f0<-1.56378794] yes=3,no=4,missing=4
		3:[f16<1.49965024] yes=7,no=8,missing=8
			7:[f6<-0.813814878] yes=15,no=16,missing=16
				15:leaf=-1.33418179
				16:leaf=-2.18055987
			8:leaf=-1.06990707
		4:[f7<-1.17697167] yes=9,no=10,missing=10
			9:[f4<-0.332632095] yes=17,no=18,missing=18
				17:[f1<-0.0479194149] yes=27,no=28,missing=28
					27:leaf=0.843374431
					28:leaf=1.61355305
				18:[f1<-0.0479194149] yes=29,no=30,missing=30
					29:leaf=-0.33560589
					30:leaf=0.494434446
			10:[f1<-0.0479194149] yes=19,no=20,missing=20
				19:[f2<-0.232170418] yes=31,no=32,missing=32
					31:leaf=-1.5627768
					32:leaf=0.604773462
				20:[f4<1.56348741] yes=33,no=34,missing=34
					33:leaf=-0.0712756366
					34:leaf=-1.62785625
	2:[f12<-0.664475024] yes=5,no=6,missing=6
		5:[f1<-0.96747911] yes=11,no=12,missing=12
			11:leaf=0.603589237
			12:[f6<-0.813814878] yes=21,no=22,missing=22
				21:leaf=1.04007328
				22:[f2<0.669908404] yes=35,no=36,missing=36
					35:leaf=1.85630786
					36:leaf=1.44776285
		6:[f1<-0.96747911] yes=13,no=14,missing=14
			13:[f7<-0.287106842] yes=23,no=24,missing=24
				23:[f4<-1.27663863] yes=37,no=38,missing=38
					37:leaf=-0.697545648
					38:leaf=-1.72800398
				24:[f11<0.446285337] yes=39,no=40,missing=40
					39:leaf=-0.342672944
					40:leaf=-0.968760192
			14:[f16<-0.126747429] yes=25,no=26,missing=25
				25:[f7<0.242891699] yes=41,no=42,missing=42
					41:leaf=-0.485849053
					42:leaf=0.214342073
				26:[f1<-0.0479194149] yes=43,no=44,missing=44
					43:leaf=0.466596037
					44:leaf=1.06846988
booster[4]:
0:[f0<-0.542236865] yes=1,no=2,missing=2
	1:[f5<1.0748421] yes=3,no=4,missing=4
		3:[f15<-0.261236638] yes=7,no=8,missing=8
			7:[f13<-0.576561034] yes=15,no=16,missing=15
				15:[f1<-0.0479194149] yes=31,no=32,missing=32
					31:leaf=-2.20191598
					32:leaf=-1.53680336
				16:[f1<-0.73758918] yes=33,no=34,missing=34
					33:leaf=-1.0457902
					34:leaf=0.162525862
			8:[f0<-1.56378794] yes=17,no=18,missing=18
				17:[f5<-0.526503742] yes=35,no=36,missing=36
					35:leaf=-1.35632634
					36:leaf=-2.08110309
				18:[f13<-0.580565095] yes=37,no=38,missing=37
					37:leaf=-0.155067101
					38:leaf=-1.02191675
		4:[f0<-1.56378794] yes=9,no=10,missing=10
			9:[f0<-2.0745635] yes=19,no=20,missing=20
				19:leaf=-2.40672445
				20:leaf=-1.10317683
			10:[f1<-0.0479194149] yes=21,no=22,missing=22
				21:[f4<-1.27663863] yes=39,no=40,missing=40
					39:leaf=-0.529883385
					40:leaf=0.714753509
				22:[f4<-1.27663863] yes=41,no=42,missing=42
					41:leaf=0.81423223
					42:leaf=1.64015019
	2:[f5<1.00389516] yes=5,no=6,missing=6
		5:[f1<-0.96747911] yes=11,no=12,missing=12
			11:[f8<0.0878433883] yes=23,no=24,missing=24
				23:[f0<0.990089774] yes=43,no=44,missing=44
					43:leaf=-1.01828158
					44:leaf=-0.241632476
				24:leaf=-1.48892164
			12:[f5<-0.539032757] yes=25,no=26,missing=26
				25:[f0<0.990089774] yes=45,no=46,missing=46
					45:leaf=-0.294185728
					46:leaf=0.221784875
				26:[f1<-0.0479194149] yes=47,no=48,missing=48
					47:leaf=0.144965425
					48:leaf=0.751607001
		6:[f1<-0.96747911] yes=13,no=14,missing=14
			13:[f4<-1.27663863] yes=27,no=28,missing=28
				27:leaf=-0.980234265
				28:[f0<0.990089774] yes=49,no=50,missing=50
					49:leaf=-0.753348351
					50:leaf=1.19992495
			14:[f4<-0.52848959] yes=29,no=30,missing=30
				29:[f2<-0.232170418] yes=51,no=52,missing=52
					51:leaf=0.851918936
					52:leaf=1.98583555
				30:[f2<0.669908404] yes=53,no=54,missing=54
					53:leaf=1.76280916
					54:leaf=1.34805262
booster[5]:
0:[f0<-0.542236865] yes=1,no=2,missing=2
	1:[f4<1.56348741] yes=3,no=4,missing=4
		3:[f0<-1.56378794] yes=7,no=8,missing=8
			7:[f5<2.24210715] yes=15,no=16,missing=16
				15:[f16<1.49965024] yes=27,no=28,missing=28
					27:leaf=-1.90475738
					28:leaf=-0.910582364
				16:leaf=-0.555682778
			8:[f14<0.588083684] yes=17,no=18,missing=18
				17:[f5<1.95140839] yes=29,no=30,missing=30
					29:leaf=-0.189219907
					30:leaf=1.02809525
				18:[f1<-0.0479194149] yes=31,no=32,missing=32
					31:leaf=-1.51976812
					32:leaf=-0.197005868
		4:[f1<1.10153019] yes=9,no=10,missing=10
			9:leaf=-2.41722083
			10:leaf=-0.967800379
	2:[f5<1.00389516] yes=5,no=6,missing=6
		5:[f1<-0.96747911] yes=11,no=12,missing=12
			11:[f8<0.845051944] yes=19,no=20,missing=20
				19:[f0<0.990089774] yes=33,no=34,missing=34
					33:leaf=-0.91414392
					34:leaf=-0.218901291
				20:leaf=-1.43706751
			12:[f4<1.56348741] yes=21,no=22,missing=22
				21:[f11<0.171493277] yes=35,no=36,missing=36
					35:leaf=0.553477883
					36:leaf=0.144162461
				22:[f3<0.30147177] yes=37,no=38,missing=38
					37:leaf=0.592954338
					38:leaf=-0.745779395
		6:[f1<-0.96747911] yes=13,no=14,missing=14
			13:[f0<0.990089774] yes=23,no=24,missing=24
				23:leaf=-0.956949592
				24:[f4<-1.27663863] yes=39,no=40,missing=40
					39:leaf=-0.367622674
					40:leaf=0.900468111
			14:[f4<-0.52848959] yes=25,no=26,missing=26
				25:[f2<-0.232170418] yes=41,no=42,missing=42
					41:leaf=0.792539418
					42:leaf=1.88213551
				26:leaf=1.53058648
booster[6]:
0:[f0<-0.0314613059] yes=1,no=2,missing=2
	1:[f5<1.0748421] yes=3,no=4,missing=4
		3:[f8<0.0643470883] yes=7,no=8,missing=8
			7:[f0<-1.56378794] yes=15,no=16,missing=16
				15:[f11<0.450110495] yes=31,no=32,missing=32
					31:leaf=-1.63061237
					32:leaf=-0.62818265
				16:[f14<0.785897315] yes=33,no=34,missing=34
					33:leaf=-0.205478802
					34:leaf=-1.01481891
			8:[f13<-0.576897383] yes=17,no=18,missing=17
				17:[f1<-0.0479194149] yes=35,no=36,missing=36
					35:leaf=-1.94962358
					36:leaf=-1.25072134
				18:[f11<-0.394040465] yes=37,no=38,missing=38
					37:leaf=-1.15397763
					38:leaf=0.0651232451
		4:[f1<-0.73758918] yes=9,no=10,missing=10
			9:[f2<-0.232170418] yes=19,no=20,missing=20
				19:[f0<-2.0745635] yes=39,no=40,missing=40
					39:leaf=-2.14062738
					40:leaf=-0.715765297
				20:leaf=1.2127068
			10:[f5<1.95140839] yes=21,no=22,missing=22
				21:[f1<1.10153019] yes=41,no=42,missing=42
					41:leaf=0.183084771
					42:leaf=0.883384407
				22:leaf=1.51647723
	2:[f5<1.00389516] yes=5,no=6,missing=6
		5:[f1<-0.96747911] yes=11,no=12,missing=12
			11:[f11<0.126542643] yes=23,no=24,missing=24
				23:[f9<2.11005306] yes=43,no=44,missing=44
					43:leaf=-1.32440007
					44:leaf=-0.530495107
				24:[f12<-0.323500305] yes=45,no=46,missing=46
					45:leaf=-0.256272197
					46:leaf=-0.861131489
			12:[f0<0.990089774] yes=25,no=26,missing=26
				25:[f5<-1.05477929] yes=47,no=48,missing=48
					47:leaf=-0.98066783
					48:leaf=0.0652883574
				26:[f2<-0.103302017] yes=49,no=50,missing=50
					49:leaf=0.350069433
					50:leaf=1.1410985
		6:[f1<-0.96747911] yes=13,no=14,missing=14
			13:[f0<0.990089774] yes=27,no=28,missing=28
				27:leaf=-0.804869831
				28:[f5<1.03747368] yes=51,no=52,missing=52
					51:leaf=0.954764128
					52:leaf=-0.346501678
			14:[f11<-1.29874313] yes=29,no=30,missing=30
				29:[f2<0.669908404] yes=53,no=54,missing=54
					53:leaf=1.51553345
					54:leaf=1.09936404
				30:[f2<-0.232170418] yes=55,no=56,missing=56
					55:leaf=0.858091176
					56:leaf=1.68522048
booster[7]:
0:[f0<-0.0314613059] yes=1,no=2,missing=2
	1:[f5<1.0748421] yes=3,no=4,missing=4
		3:[f15<-0.261476904] yes=7,no=8,missing=8
			7:[f4<-1.46348894] yes=15,no=16,missing=16
				15:[f2<1.95859241] yes=31,no=32,missing=32
					31:leaf=0.0373048596
					32:leaf=-0.111278214
				16:[f1<-0.0479194149] yes=33,no=34,missing=34
					33:leaf=-1.79026043
					34:leaf=-1.16926944
			8:[f0<-1.56378794] yes=17,no=18,missing=18
				17:[f11<0.126542643] yes=35,no=36,missing=36
					35:leaf=-1.76857865
					36:leaf=-1.20286131
				18:[f1<-0.0479194149] yes=37,no=38,missing=38
					37:leaf=-0.785841465
					38:leaf=-0.024510337
		4:[f1<-0.73758918] yes=9,no=10,missing=10
			9:[f2<-0.232170418] yes=19,no=20,missing=20
				19:[f0<-2.0745635] yes=39,no=40,missing=40
					39:leaf=-2.15465236
					40:leaf=-0.573315144
				20:leaf=1.12077534
			10:[f0<-1.05301237] yes=21,no=22,missing=22
				21:leaf=-0.602441609
				22:[f1<1.10153019] yes=41,no=42,missing=42
					41:leaf=0.783313572
					42:leaf=1.36632133
	2:[f5<1.00389516] yes=5,no=6,missing=6
		5:[f1<-0.96747911] yes=11,no=12,missing=12
			11:[f7<-0.287106842] yes=23,no=24,missing=24
				23:leaf=-1.35187674
				24:[f5<-0.868316114] yes=43,no=44,missing=44
					43:leaf=0.114792503
					44:leaf=-0.593716323
			12:[f5<-0.518002868] yes=25,no=26,missing=26
				25:[f0<0.990089774] yes=45,no=46,missing=46
					45:leaf=-0.22642684
					46:leaf=0.245942205
				26:[f1<-0.0479194149] yes=47,no=48,missing=48
					47:leaf=0.183233425
					48:leaf=0.746846259
		6:[f4<-0.52848959] yes=13,no=14,missing=14
			13:[f1<-0.852534175] yes=27,no=28,missing=28
				27:[f2<-0.232170418] yes=49,no=50,missing=50
					49:leaf=-0.21769844
					50:leaf=1.55526841
				28:leaf=1.02913225
			14:[f1<-0.96747911] yes=29,no=30,missing=30
				29:leaf=0.462265611
				30:[f2<-0.103302017] yes=51,no=52,missing=52
					51:leaf=1.38907361
					52:leaf=1.00511277
booster[8]:
0:[f5<1.00389516] yes=1,no=2,missing=2
	1:[f1<-0.0479194149] yes=3,no=4,missing=4
		3:[f2<-0.232170418] yes=7,no=8,missing=8
			7:[f4<1.56348741] yes=15,no=16,missing=16
				15:[f1<-0.852534175] yes=31,no=32,missing=32
					31:leaf=-0.732639134
					32:leaf=-0.231961951
				16:leaf=-1.51949656
			8:[f6<-0.763428271] yes=17,no=18,missing=18
				17:leaf=1.51088715
				18:[f2<-0.103302017] yes=33,no=34,missing=34
					33:leaf=0.150545225
					34:leaf=0.632789552
		4:[f5<-0.194863722] yes=9,no=10,missing=10
			9:[f3<0.30147177] yes=19,no=20,missing=20
				19:[f5<-0.868316114] yes=35,no=36,missing=36
					35:leaf=0.546664298
					36:leaf=0.150518179
				20:[f12<-0.315665454] yes=37,no=38,missing=38
					37:leaf=0.0310489833
					38:leaf=-0.463469863
			10:[f13<-0.578963459] yes=21,no=22,missing=22
				21:[f2<-0.232170418] yes=39,no=40,missing=40
					39:leaf=0.00937075354
					40:leaf=0.528581023
				22:[f16<1.42398918] yes=41,no=42,missing=42
					41:leaf=0.90179044
					42:leaf=0.406445026
	2:[f2<-0.232170418] yes=5,no=6,missing=6
		5:[f1<-0.852534175] yes=11,no=12,missing=12
			11:[f12<-0.643168151] yes=23,no=24,missing=24
				23:[f4<-0.52848959] yes=43,no=44,missing=44
					43:leaf=-0.0270558577
					44:leaf=0.321074426
				24:leaf=-1.00889087
			12:[f9<-0.718507826] yes=25,no=26,missing=26
				25:leaf=1.3266325
				26:[f3<0.30147177] yes=45,no=46,missing=46
					45:leaf=1.00154221
					46:leaf=0.611487329
		6:[f1<1.10153019] yes=13,no=14,missing=14
			13:[f2<0.669908404] yes=27,no=28,missing=28
				27:leaf=0.731608272
				28:leaf=1.52424729
			14:[f2<1.95859241] yes=29,no=30,missing=30
				29:leaf=0.560448468
				30:leaf=1.00398064
booster[9]:
0:[f0<-0.542236865] yes=1,no=2,missing=2
	1:[f0<-1.56378794] yes=3,no=4,missing=4
		3:[f11<0.126542643] yes=7,no=8,missing=8
			7:[f13<1.82026362] yes=15,no=16,missing=16
				15:leaf=-1.87879133
				16:[f0<-2.0745635] yes=31,no=32,missing=32
					31:leaf=-1.84539413
					32:leaf=-0.241576731
			8:[f16<0.261176825] yes=17,no=18,missing=18
				17:leaf=-1.02890766
				18:leaf=-0.516805172
		4:[f5<1.00389516] yes=9,no=10,missing=10
			9:[f4<1.56348741] yes=19,no=20,missing=20
				19:[f1<-0.0479194149] yes=33,no=34,missing=34
					33:leaf=-0.878243387
					34:leaf=-0.110917687
				20:[f1<1.10153019] yes=35,no=36,missing=36
					35:leaf=-1.842641
					36:leaf=-0.784276128
			10:[f1<-0.73758918] yes=21,no=22,missing=22
				21:[f2<-0.232170418] yes=37,no=38,missing=38
					37:leaf=-0.680509388
					38:leaf=1.02670634
				22:[f9<-0.718507826] yes=39,no=40,missing=40
					39:leaf=1.50279272
					40:leaf=0.52548182
	2:[f5<1.00389516] yes=5,no=6,missing=6
		5:[f1<-0.96747911] yes=11,no=12,missing=12
			11:[f0<0.990089774] yes=23,no=24,missing=24
				23:[f15<-0.230732381] yes=41,no=42,missing=42
					41:leaf=-0.988060594
					42:leaf=-0.29607144
				24:[f4<0.506253004] yes=43,no=44,missing=44
					43:leaf=-0.0740528628
					44:leaf=-0.938132942
			12:[f4<1.56348741] yes=25,no=26,missing=26
				25:[f0<0.990089774] yes=45,no=46,missing=46
					45:leaf=0.0826129764
					46:leaf=0.407715052
				26:[f3<0.30147177] yes=47,no=48,missing=48
					47:leaf=0.59160918
					48:leaf=-0.601711869
		6:[f1<-0.96747911] yes=13,no=14,missing=14
			13:[f0<0.990089774] yes=27,no=28,missing=28
				27:leaf=-0.755466223
				28:[f4<-1.27663863] yes=49,no=50,missing=50
					49:leaf=-0.256123126
					50:leaf=0.799102724
			14:[f4<-0.566607118] yes=29,no=30,missing=30
				29:[f2<-0.232170418] yes=51,no=52,missing=52
					51:leaf=0.594996631
					52:leaf=1.4122287
				30:[f2<0.669908404] yes=53,no=54,missing=54
					53:leaf=1.25112593
					54:leaf=0.867480159
booster[10]:
0:[f0<-0.542236865] yes=1,no=2,missing=2
	1:[f6<-0.810411036] yes=3,no=4,missing=4
		3:[f0<-1.56378794] yes=7,no=8,missing=8
			7:[f0<-2.0745635] yes=15,no=16,missing=16
				15:leaf=-1.70217156
				16:leaf=-0.210799262
			8:[f1<1.10153019] yes=17,no=18,missing=18
				17:[f1<-0.852534175] yes=31,no=32,missing=32
					31:leaf=0.801763594
					32:leaf=0.476327717
				18:leaf=1.56123674
		4:[f1<-0.96747911] yes=9,no=10,missing=10
			9:[f16<-0.151791483] yes=19,no=20,missing=19
				19:[f7<0.420871496] yes=33,no=34,missing=34
					33:leaf=-0.330813646
					34:leaf=-1.12321079
				20:leaf=-1.74904823
			10:[f0<-1.56378794] yes=21,no=22,missing=22
				21:[f11<0.126542643] yes=35,no=36,missing=36
					35:leaf=-1.60660374
					36:leaf=-0.800942838
				22:[f1<1.10153019] yes=37,no=38,missing=38
					37:leaf=-0.684000552
					38:leaf=0.144076362
	2:[f7<-0.976978898] yes=5,no=6,missing=6
		5:[f1<-0.96747911] yes=11,no=12,missing=12
			11:[f0<0.990089774] yes=23,no=24,missing=24
				23:leaf=-0.619377315
				24:leaf=0.811445415
			12:[f11<-1.29874313] yes=25,no=26,missing=26
				25:leaf=1.15621674
				26:[f0<0.990089774] yes=39,no=40,missing=40
					39:leaf=0.479605556
					40:leaf=0.892921686
		6:[f1<-0.96747911] yes=13,no=14,missing=14
			13:[f7<-0.287106842] yes=27,no=28,missing=28
				27:leaf=-1.09997225
				28:[f0<0.990089774] yes=41,no=42,missing=42
					41:leaf=-0.712422788
					42:leaf=-0.144923329
			14:[f16<-0.126747429] yes=29,no=30,missing=29
				29:[f3<0.30147177] yes=43,no=44,missing=44
					43:leaf=0.410863101
					44:leaf=-0.0688598529
				30:[f1<-0.73758918] yes=45,no=46,missing=46
					45:leaf=0.135556489
					46:leaf=0.70684123
booster[11]:
0:[f0<-0.542236865] yes=1,no=2,missing=2
	1:[f0<-1.56378794] yes=3,no=4,missing=4
		3:[f4<0.458230168] yes=7,no=8,missing=8
			7:[f6<-0.716253698] yes=15,no=16,missing=16
				15:[f0<-2.0745635] yes=29,no=30,missing=30
					29:leaf=-1.64709604
					30:leaf=-0.601882279
				16:[f11<0.126542643] yes=31,no=32,missing=32
					31:leaf=-1.58542371
					32:leaf=-0.816542745
			8:leaf=-0.635225415
		4:[f7<-1.17697167] yes=9,no=10,missing=10
			9:[f4<-0.332632095] yes=17,no=18,missing=18
				17:[f1<-0.0479194149] yes=33,no=34,missing=34
					33:leaf=0.606577814
					34:leaf=1.03018653
				18:[f1<-0.0479194149] yes=35,no=36,missing=36
					35:leaf=-0.1973048
					36:leaf=0.583738208
			10:[f1<1.10153019] yes=19,no=20,missing=20
				19:[f2<-0.232170418] yes=37,no=38,missing=38
					37:leaf=-0.89158082
					38:leaf=0.517580688
				20:[f9<0.51240319] yes=39,no=40,missing=40
					39:leaf=-0.180234879
					40:leaf=0.678244829
	2:[f7<-0.976978898] yes=5,no=6,missing=6
		5:[f1<-0.96747911] yes=11,no=12,missing=12
			11:[f0<0.990089774] yes=21,no=22,missing=22
				21:leaf=-0.586016357
				22:leaf=0.996755242
			12:[f2<4.53596067] yes=23,no=24,missing=24
				23:[f11<-1.29874313] yes=41,no=42,missing=42
					41:leaf=1.02833617
					42:leaf=0.712630928
				24:[f0<0.990089774] yes=43,no=44,missing=44
					43:leaf=1.01367199
					44:leaf=0.279877633
		6:[f1<-0.96747911] yes=13,no=14,missing=14
			13:[f8<0.0601783134] yes=25,no=26,missing=26
				25:[f11<0.196124986] yes=45,no=46,missing=46
					45:leaf=0.145685598
					46:leaf=-0.60410136
				26:[f16<1.42398918] yes=47,no=48,missing=48
					47:leaf=-1.12109709
					48:leaf=-0.638719499
			14:[f16<-0.126747429] yes=27,no=28,missing=27
				27:[f3<0.30147177] yes=49,no=50,missing=50
					49:leaf=0.460096657
					50:leaf=-0.0384597965
				28:[f1<-0.0479194149] yes=51,no=52,missing=52
					51:leaf=0.153484553
					52:leaf=0.695796907
booster[12]:
0:[f0<-0.542236865] yes=1,no=2,missing=2
	1:[f0<-1.56378794] yes=3,no=4,missing=4
		3:[f12<-0.604992688] yes=7,no=8,missing=8
			7:leaf=-1.56379783
			8:[f1<-0.0479194149] yes=15,no=16,missing=16
				15:leaf=-1.13714635
				16:[f4<0.348212421] yes=29,no=30,missing=30
					29:leaf=-0.179297939
					30:leaf=-0.723207057
		4:[f1<-0.0479194149] yes=9,no=10,missing=10
			9:[f2<-0.103302017] yes=17,no=18,missing=18
				17:[f10<-0.172847196] yes=31,no=32,missing=32
					31:leaf=-1.08676124
					32:leaf=-0.218678415
				18:[f5<-0.210079893] yes=33,no=34,missing=34
					33:leaf=0.251426607
					34:leaf=0.985481858
			10:[f5<-0.154743433] yes=19,no=20,missing=20
				19:[f12<-0.318748593] yes=35,no=36,missing=36
					35:leaf=-0.00516171567
					36:leaf=-0.560807824
				20:[f9<1.94659328] yes=37,no=38,missing=38
					37:leaf=0.664070666
					38:leaf=-0.433898389
	2:[f5<1.00389516] yes=5,no=6,missing=6
		5:[f1<-0.96747911] yes=11,no=12,missing=12
			11:[f13<1.95725811] yes=21,no=22,missing=22
				21:[f0<0.990089774] yes=39,no=40,missing=40
					39:leaf=-0.863966584
					40:leaf=-0.427489102
				22:[f0<0.990089774] yes=41,no=42,missing=42
					41:leaf=-0.129533395
					42:leaf=0.132296979
			12:[f4<1.56348741] yes=23,no=24,missing=24
				23:[f8<-0.0132053746] yes=43,no=44,missing=44
					43:leaf=0.0865320787
					44:leaf=0.392385155
				24:[f3<0.30147177] yes=45,no=46,missing=46
					45:leaf=0.41696164
					46:leaf=-0.580868185
		6:[f1<-0.96747911] yes=13,no=14,missing=14
			13:[f0<0.990089774] yes=25,no=26,missing=26
				25:leaf=-0.443756551
				26:[f4<-1.27663863] yes=47,no=48,missing=48
					47:leaf=-0.05072321
					48:leaf=0.697819591
			14:[f12<-0.643168151] yes=27,no=28,missing=28
				27:[f2<0.669908404] yes=49,no=50,missing=50
					49:leaf=1.00111532
					50:leaf=0.659636497
				28:[f2<-0.232170418] yes=51,no=52,missing=52
					51:leaf=0.491316706
					52:leaf=1.26835024
booster[13]:
0:[f0<-0.542236865] yes=1,no=2,missing=2
	1:[f4<1.56348741] yes=3,no=4,missing=4
		3:[f0<-1.05301237] yes=7,no=8,missing=8
			7:[f16<-0.531081438] yes=15,no=16,missing=15
				15:[f0<-2.0745635] yes=27,no=28,missing=28
					27:leaf=-1.37441945
					28:leaf=-0.259831876
				16:[f11<0.126542643] yes=29,no=30,missing=30
					29:leaf=-1.28220356
					30:leaf=-0.750273108
			8:[f14<0.588083684] yes=17,no=18,missing=18
				17:[f5<1.95140839] yes=31,no=32,missing=32
					31:leaf=-0.00554472813
					32:leaf=0.807615399
				18:[f1<-0.73758918] yes=33,no=34,missing=34
					33:leaf=-1.08037972
					34:leaf=-0.254242361
		4:[f1<1.10153019] yes=9,no=10,missing=10
			9:leaf=-1.51243114
			10:leaf=-0.419811308
	2:[f5<1.00389516] yes=5,no=6,missing=6
		5:[f1<-0.96747911] yes=11,no=12,missing=12
			11:[f8<0.0601783134] yes=19,no=20,missing=20
				19:[f11<0.444238126] yes=35,no=36,missing=36
					35:leaf=-0.0387971215
					36:leaf=-0.481174141
				20:leaf=-0.776843727
			12:[f5<-0.528436124] yes=21,no=22,missing=22
				21:[f0<0.990089774] yes=37,no=38,missing=38
					37:leaf=-0.159061924
					38:leaf=0.151491657
				22:[f1<-0.73758918] yes=39,no=40,missing=40
					39:leaf=-0.0271039288
					40:leaf=0.480728686
		6:[f1<-0.96747911] yes=13,no=14,missing=14
			13:[f0<0.990089774] yes=23,no=24,missing=24
				23:leaf=-0.418261498
				24:leaf=0.51873374
			14:[f7<-0.38218689] yes=25,no=26,missing=26
				25:[f2<1.95859241] yes=41,no=42,missing=42
					41:leaf=0.791916251
					42:leaf=1.01771998
				26:leaf=0.225715458
booster[14]:
0:[f0<-0.542236865] yes=1,no=2,missing=2
	1:[f4<1.56348741] yes=3,no=4,missing=4
		3:[f0<-1.56378794] yes=7,no=8,missing=8
			7:[f12<-0.604992688] yes=15,no=16,missing=16
				15:leaf=-1.16610038
				16:[f1<-0.0479194149] yes=27,no=28,missing=28
					27:leaf=-0.977069855
					28:leaf=-0.592176139
			8:[f1<-0.0479194149] yes=17,no=18,missing=18
				17:[f2<-0.103302017] yes=29,no=30,missing=30
					29:leaf=-0.576598108
					30:leaf=0.690300047
				18:[f5<1.00010526] yes=31,no=32,missing=32
					31:leaf=-0.0894450396
					32:leaf=0.655739725
		4:[f1<1.10153019] yes=9,no=10,missing=10
			9:leaf=-1.47492135
			10:leaf=-0.502209902
	2:[f5<1.00389516] yes=5,no=6,missing=6
		5:[f1<-0.96747911] yes=11,no=12,missing=12
			11:[f0<0.990089774] yes=19,no=20,missing=20
				19:[f13<1.95725811] yes=33,no=34,missing=34
					33:leaf=-0.834910452
					34:leaf=-0.157833681
				20:[f7<-0.325138867] yes=35,no=36,missing=36
					35:leaf=-0.871580064
					36:leaf=-0.0831730217
			12:[f4<1.56348741] yes=21,no=22,missing=22
				21:[f0<0.990089774] yes=37,no=38,missing=38
					37:leaf=0.0307756513
					38:leaf=0.281203091
				22:[f1<1.10153019] yes=39,no=40,missing=40
					39:leaf=-0.94203943
					40:leaf=0.0853604898
		6:[f1<-0.96747911] yes=13,no=14,missing=14
			13:[f0<0.990089774] yes=23,no=24,missing=24
				23:leaf=-0.573759556
				24:[f4<-1.27663863] yes=41,no=42,missing=42
					41:leaf=-0.168403894
					42:leaf=0.781870604
			14:[f4<-0.52848959] yes=25,no=26,missing=26
				25:[f2<-0.103302017] yes=43,no=44,missing=44
					43:leaf=0.401778579
					44:leaf=1.13286674
				26:[f1<1.10153019] yes=45,no=46,missing=46
					45:leaf=1.04628003
					46:leaf=0.703188419
booster[15]:
0:[f0<0.990089774] yes=1,no=2,missing=2
	1:[f6<1.95485437] yes=3,no=4,missing=4
		3:[f0<-1.05301237] yes=7,no=8,missing=8
			7:[f8<-0.428281546] yes=15,no=16,missing=16
				15:[f0<-2.0745635] yes=31,no=32,missing=32
					31:leaf=-1.30113947
					32:leaf=-0.298530459
				16:[f0<-1.56378794] yes=33,no=34,missing=34
					33:leaf=-1.16654348
					34:leaf=-0.568652213
			8:[f14<0.58835268] yes=17,no=18,missing=18
				17:[f7<0.261137187] yes=35,no=36,missing=36
					35:leaf=0.39778617
					36:leaf=0.0439801514
				18:[f1<-0.0479194149] yes=37,no=38,missing=38
					37:leaf=-0.65913552
					38:leaf=0.147400334
		4:[f4<-0.299619436] yes=9,no=10,missing=10
			9:[f1<-0.96747911] yes=19,no=20,missing=20
				19:leaf=-0.991331458
				20:[f0<-1.56378794] yes=39,no=40,missing=40
					39:leaf=-0.679071844
					40:leaf=-0.22246708
			10:[f1<1.10153019] yes=21,no=22,missing=22
				21:[f0<-0.542236865] yes=41,no=42,missing=42
					41:leaf=-1.23207343
					42:leaf=-0.827260315
				22:[f2<-0.232170418] yes=43,no=44,missing=44
					43:leaf=-0.281134665
					44:leaf=-0.861609757
	2:[f5<0.103263006] yes=5,no=6,missing=6
		5:[f2<-0.103302017] yes=11,no=12,missing=12
			11:[f11<0.44351989] yes=23,no=24,missing=24
				23:[f12<-0.309176445] yes=45,no=46,missing=46
					45:leaf=0.390026301
					46:leaf=-0.00118778867
				24:[f0<1.85840809] yes=47,no=48,missing=48
					47:leaf=-0.131875068
					48:leaf=0.546953857
			12:[f1<-0.852534175] yes=25,no=26,missing=26
				25:[f6<-0.763428271] yes=49,no=50,missing=50
					49:leaf=1.84195995
					50:leaf=0.849835217
				26:[f2<1.95859241] yes=51,no=52,missing=52
					51:leaf=-0.303541213
					52:leaf=0.14166455
		6:[f1<-0.96747911] yes=13,no=14,missing=14
			13:[f4<-0.452254653] yes=27,no=28,missing=28
				27:[f9<1.83339882] yes=53,no=54,missing=54
					53:leaf=-0.169220313
					54:leaf=-0.448379368
				28:leaf=0.368822247
			14:[f9<1.94659328] yes=29,no=30,missing=30
				29:[f1<1.10153019] yes=55,no=56,missing=56
					55:leaf=0.946325421
					56:leaf=0.641495824
				30:[f1<-0.852534175] yes=57,no=58,missing=58
					57:leaf=-0.268633157
					58:leaf=0.566392899
booster[16]:
0:[f0<-0.542236865] yes=1,no=2,missing=2
	1:[f0<-1.05301237] yes=3,no=4,missing=4
		3:[f0<-2.0745635] yes=7,no=8,missing=8
			7:leaf=-1.39997423
			8:[f8<-0.433612317] yes=15,no=16,missing=16
				15:[f4<-0.52848959] yes=29,no=30,missing=30
					29:leaf=0.228858471
					30:leaf=-0.443450838
				16:[f12<-0.604992688] yes=31,no=32,missing=32
					31:leaf=-1.11316431
					32:leaf=-0.639344335
		4:[f7<-1.17697167] yes=9,no=10,missing=10
			9:[f1<-0.0479194149] yes=17,no=18,missing=18
				17:[f4<-0.332632095] yes=33,no=34,missing=34
					33:leaf=0.531661987
					34:leaf=-0.00726400828
				18:leaf=0.721224606
			10:[f1<-0.0479194149] yes=19,no=20,missing=20
				19:[f13<-0.576336801] yes=35,no=36,missing=36
					35:leaf=-0.925821662
					36:leaf=-0.37607792
				20:[f6<0.0362051465] yes=37,no=38,missing=38
					37:leaf=0.281226218
					38:leaf=-0.532360196
	2:[f5<1.00389516] yes=5,no=6,missing=6
		5:[f4<1.56348741] yes=11,no=12,missing=12
			11:[f1<-0.96747911] yes=21,no=22,missing=22
				21:[f5<-0.868316114] yes=39,no=40,missing=40
					39:leaf=0.231861785
					40:leaf=-0.412398219
				22:[f8<-0.0132053746] yes=41,no=42,missing=42
					41:leaf=0.102066815
					42:leaf=0.314307153
			12:[f1<-0.0479194149] yes=23,no=24,missing=24
				23:[f1<-0.852534175] yes=43,no=44,missing=44
					43:leaf=-0.949481189
					44:leaf=-0.544774234
				24:[f0<0.990089774] yes=45,no=46,missing=46
					45:leaf=-0.543058395
					46:leaf=0.263911098
		6:[f1<-0.96747911] yes=13,no=14,missing=14
			13:[f0<0.990089774] yes=25,no=26,missing=26
				25:leaf=-0.563227952
				26:[f4<-1.27663863] yes=47,no=48,missing=48
					47:leaf=0.10722468
					48:leaf=0.5490641
			14:[f4<-0.566607118] yes=27,no=28,missing=28
				27:[f1<-0.852534175] yes=49,no=50,missing=50
					49:leaf=0.263782173
					50:leaf=0.560223937
				28:[f1<1.10153019] yes=51,no=52,missing=52
					51:leaf=0.911468506
					52:leaf=0.559281588
booster[17]:
0:[f0<-0.542236865] yes=1,no=2,missing=2
	1:[f1<-0.73758918] yes=3,no=4,missing=4
		3:[f2<-0.232170418] yes=7,no=8,missing=8
			7:[f8<0.808797777] yes=15,no=16,missing=16
				15:[f14<0.654117882] yes=31,no=32,missing=32
					31:leaf=-0.411437273
					32:leaf=-1.03892267
				16:[f1<-0.852534175] yes=33,no=34,missing=34
					33:leaf=-1.3085742
					34:leaf=-0.527730644
			8:[f0<-1.05301237] yes=17,no=18,missing=18
				17:leaf=-0.551277578
				18:[f7<-0.439395398] yes=35,no=36,missing=36
					35:leaf=1.20845842
					36:leaf=0.27236262
		4:[f0<-1.05301237] yes=9,no=10,missing=10
			9:[f7<0.261314958] yes=19,no=20,missing=20
				19:[f4<-1.27663863] yes=37,no=38,missing=38
					37:leaf=-0.379547775
					38:leaf=-0.95691824
				20:[f4<0.481691122] yes=39,no=40,missing=40
					39:leaf=-0.0784423649
					40:leaf=-0.354006767
			10:[f6<1.95485437] yes=21,no=22,missing=22
				21:[f7<-0.363170892] yes=41,no=42,missing=42
					41:leaf=0.573954403
					42:leaf=-0.0793550014
				22:[f1<1.10153019] yes=43,no=44,missing=44
					43:leaf=-0.78432554
					44:leaf=-0.373077512
	2:[f7<-0.976978898] yes=5,no=6,missing=6
		5:[f1<-0.96747911] yes=11,no=12,missing=12
			11:[f0<0.990089774] yes=23,no=24,missing=24
				23:leaf=-0.468206942
				24:leaf=0.398031056
			12:[f2<4.53596067] yes=25,no=26,missing=26
				25:[f2<-0.103302017] yes=45,no=46,missing=46
					45:leaf=0.687832296
					46:leaf=0.518469393
				26:leaf=0.267311543
		6:[f4<1.56348741] yes=13,no=14,missing=14
			13:[f1<-0.96747911] yes=27,no=28,missing=28
				27:[f0<0.990089774] yes=47,no=48,missing=48
					47:leaf=-0.535292089
					48:leaf=-0.0925726667
				28:[f15<-0.271541178] yes=49,no=50,missing=50
					49:leaf=0.423224449
					50:leaf=0.102368407
			14:[f1<1.10153019] yes=29,no=30,missing=30
				29:[f1<-0.0479194149] yes=51,no=52,missing=52
					51:leaf=-0.906528234
					52:leaf=-0.41831705
				30:[f2<-0.232170418] yes=53,no=54,missing=54
					53:leaf=0.201208636
					54:leaf=-0.753383398
booster[18]:
0:[f0<-0.0314613059] yes=1,no=2,missing=2
	1:[f5<1.0748421] yes=3,no=4,missing=4
		3:[f1<-0.852534175] yes=7,no=8,missing=8
			7:[f2<-0.232170418] yes=15,no=16,missing=16
				15:[f14<0.654117882] yes=29,no=30,missing=30
					29:leaf=-0.650574923
					30:leaf=-1.20227289
				16:[f0<-1.05301237] yes=31,no=32,missing=32
					31:leaf=-0.318833083
					32:leaf=0.369915783
			8:[f8<0.0526824892] yes=17,no=18,missing=18
				17:[f13<-0.579363883] yes=33,no=34,missing=33
					33:leaf=0.0078244321
					34:leaf=-0.302785277
				18:[f13<-0.576897383] yes=35,no=36,missing=35
					35:leaf=-0.67012161
					36:leaf=-0.104577407
		4:[f0<-2.0745635] yes=9,no=10,missing=10
			9:leaf=-1.22568977
			10:[f4<-1.27663863] yes=19,no=20,missing=20
				19:[f1<-0.96747911] yes=37,no=38,missing=38
					37:leaf=-1.08912599
					38:leaf=0.0987938568
				20:[f1<1.10153019] yes=39,no=40,missing=40
					39:leaf=0.477406472
					40:leaf=1.16877449
	2:[f5<1.00389516] yes=5,no=6,missing=6
		5:[f0<0.990089774] yes=11,no=12,missing=12
			11:[f4<1.56348741] yes=21,no=22,missing=22
				21:[f14<0.765398324] yes=41,no=42,missing=42
					41:leaf=0.172720104
					42:leaf=-0.281886578
				22:[f1<-0.0479194149] yes=43,no=44,missing=44
					43:leaf=-0.842675507
					44:leaf=-0.455476463
			12:[f4<0.502292335] yes=23,no=24,missing=24
				23:[f2<-0.232170418] yes=45,no=46,missing=46
					45:leaf=0.23640722
					46:leaf=0.806155264
				24:[f1<1.10153019] yes=47,no=48,missing=48
					47:leaf=-0.336515009
					48:leaf=0.171148077
		6:[f2<1.95859241] yes=13,no=14,missing=14
			13:[f1<-0.852534175] yes=25,no=26,missing=26
				25:[f10<-0.903361142] yes=49,no=50,missing=50
					49:leaf=-0.184451282
					50:leaf=0.497392982
				26:[f2<-0.232170418] yes=51,no=52,missing=52
					51:leaf=0.647610724
					52:leaf=-0.122275583
			14:[f1<1.10153019] yes=27,no=28,missing=28
				27:leaf=1.11028826
				28:[f0<0.990089774] yes=53,no=54,missing=54
					53:leaf=0.764575481
					54:leaf=0.142594635
booster[19]:
0:[f0<0.990089774] yes=1,no=2,missing=2
	1:[f4<1.56348741] yes=3,no=4,missing=4
		3:[f14<0.765398324] yes=7,no=8,missing=8
			7:[f0<-1.05301237] yes=15,no=16,missing=16
				15:[f0<-2.0745635] yes=29,no=30,missing=30
					29:leaf=-1.0117172
					30:leaf=-0.524819911
				16:[f7<-1.17697167] yes=31,no=32,missing=32
					31:leaf=0.407975376
					32:leaf=0.0351733901
			8:[f2<-0.232170418] yes=17,no=18,missing=18
				17:[f12<-0.644695163] yes=33,no=34,missing=34
					33:leaf=-0.806842148
					34:leaf=-0.431391329
				18:[f4<-0.566607118] yes=35,no=36,missing=36
					35:leaf=-0.0833495185
					36:leaf=0.659829378
		4:[f0<-0.542236865] yes=9,no=10,missing=10
			9:leaf=-0.861992061
			10:[f2<-0.232170418] yes=19,no=20,missing=20
				19:leaf=-0.456053227
				20:leaf=-0.653414249
	2:[f5<-0.181115776] yes=5,no=6,missing=6
		5:[f2<1.95859241] yes=11,no=12,missing=12
			11:[f11<0.445134073] yes=21,no=22,missing=22
				21:[f12<-0.309176445] yes=37,no=38,missing=38
					37:leaf=0.304434359
					38:leaf=-0.0293676164
				22:[f2<-0.232170418] yes=39,no=40,missing=40
					39:leaf=-0.165673181
					40:leaf=0.436783403
			12:[f6<-0.763428271] yes=23,no=24,missing=24
				23:leaf=1.71435261
				24:leaf=0.521394432
		6:[f9<0.462465674] yes=13,no=14,missing=14
			13:[f2<0.669908404] yes=25,no=26,missing=26
				25:leaf=0.7112059
				26:[f2<1.95859241] yes=41,no=42,missing=42
					41:leaf=-0.178214893
					42:leaf=0.340602785
			14:[f2<-0.232170418] yes=27,no=28,missing=28
				27:[f9<2.00108004] yes=43,no=44,missing=44
					43:leaf=0.323196054
					44:leaf=0.191825852
				28:leaf=0.854278326
booster[20]:
0:[f0<-0.542236865] yes=1,no=2,missing=2
	1:[f0<-1.56378794] yes=3,no=4,missing=4
		3:[f0<-2.0745635] yes=7,no=8,missing=8
			7:[f1<-0.96747911] yes=15,no=16,missing=16
				15:leaf=-0.58623445
				16:leaf=-1.23072338
			8:[f13<-0.576448917] yes=17,no=18,missing=18
				17:[f11<0.126542643] yes=31,no=32,missing=32
					31:leaf=-0.885980904
					32:leaf=-0.400644153
				18:[f9<-0.718507826] yes=33,no=34,missing=34
					33:leaf=-0.475960582
					34:leaf=-0.24287954
		4:[f11<-0.747326791] yes=9,no=10,missing=10
			9:[f4<-0.332632095] yes=19,no=20,missing=20
				19:[f1<1.10153019] yes=35,no=36,missing=36
					35:leaf=0.451988488
					36:leaf=0.767348349
				20:[f1<-0.852534175] yes=37,no=38,missing=38
					37:leaf=-0.219393596
					38:leaf=0.3060067
			10:[f1<-0.96747911] yes=21,no=22,missing=22
				21:[f16<-1.06593633] yes=39,no=40,missing=39
					39:leaf=-0.239858732
					40:leaf=-1.12543058
				22:[f4<1.56348741] yes=41,no=42,missing=42
					41:leaf=-0.151776001
					42:leaf=-0.808996677
	2:[f5<0.103263006] yes=5,no=6,missing=6
		5:[f0<0.990089774] yes=11,no=12,missing=12
			11:[f12<-0.30968526] yes=23,no=24,missing=24
				23:[f1<-0.852534175] yes=43,no=44,missing=44
					43:leaf=-0.252631098
					44:leaf=0.130823225
				24:[f9<0.514509439] yes=45,no=46,missing=46
					45:leaf=-0.457094282
					46:leaf=0.247470438
			12:[f2<1.95859241] yes=25,no=26,missing=26
				25:[f11<0.445134073] yes=47,no=48,missing=48
					47:leaf=0.147849321
					48:leaf=-0.092577897
				26:[f6<-0.763428271] yes=49,no=50,missing=50
					49:leaf=1.63220668
					50:leaf=0.433050126
		6:[f1<-0.73758918] yes=13,no=14,missing=14
			13:[f11<-0.461694598] yes=27,no=28,missing=28
				27:[f2<-0.232170418] yes=51,no=52,missing=52
					51:leaf=0.222412542
					52:leaf=1.02968764
				28:[f8<0.831536889] yes=53,no=54,missing=54
					53:leaf=-1.23883009
					54:leaf=-0.331755072
			14:[f0<0.990089774] yes=29,no=30,missing=30
				29:[f1<-0.0479194149] yes=55,no=56,missing=56
					55:leaf=-0.182455972
					56:leaf=0.82048279
				30:[f2<-0.232170418] yes=57,no=58,missing=58
					57:leaf=0.572921157
					58:leaf=0.0949681178
booster[21]:
0:[f0<0.990089774] yes=1,no=2,missing=2
	1:[f1<-0.0479194149] yes=3,no=4,missing=4
		3:[f2<-0.103302017] yes=7,no=8,missing=8
			7:[f10<-0.186954424] yes=15,no=16,missing=16
				15:[f1<-0.852534175] yes=31,no=32,missing=32
					31:leaf=-0.756287992
					32:leaf=-0.307924837
				16:[f0<-1.56378794] yes=33,no=34,missing=34
					33:leaf=-0.805210352
					34:leaf=0.0452370644
			8:[f0<-1.05301237] yes=17,no=18,missing=18
				17:leaf=-0.322400033
				18:[f5<-0.868316114] yes=35,no=36,missing=36
					35:leaf=0.0753598735
					36:leaf=0.818969548
		4:[f0<-1.05301237] yes=9,no=10,missing=10
			9:[f16<-0.901635528] yes=19,no=20,missing=19
				19:[f4<-0.333632171] yes=37,no=38,missing=38
					37:leaf=-0.519892156
					38:leaf=-0.0779786557
				20:leaf=-0.822723567
			10:[f5<-0.201702282] yes=21,no=22,missing=22
				21:[f12<-0.323500305] yes=39,no=40,missing=40
					39:leaf=0.065238826
					40:leaf=-0.31082803
				22:[f13<-0.578963459] yes=41,no=42,missing=41
					41:leaf=0.439197719
					42:leaf=0.825520396
	2:[f4<0.494996041] yes=5,no=6,missing=6
		5:[f10<-0.163317889] yes=11,no=12,missing=12
			11:[f2<1.95859241] yes=23,no=24,missing=24
				23:[f12<2.14623785] yes=43,no=44,missing=44
					43:leaf=0.284832627
					44:leaf=-0.00503007974
				24:[f5<-0.539032757] yes=45,no=46,missing=46
					45:leaf=1.53207397
					46:leaf=0.553537846
			12:[f2<0.669908404] yes=25,no=26,missing=26
				25:[f3<0.30147177] yes=47,no=48,missing=48
					47:leaf=0.447539926
					48:leaf=0.701081395
				26:[f1<-0.852534175] yes=49,no=50,missing=50
					49:leaf=0.788355768
					50:leaf=0.00202032947
		6:[f1<1.10153019] yes=13,no=14,missing=14
			13:[f2<-0.232170418] yes=27,no=28,missing=28
				27:[f4<1.56348741] yes=51,no=52,missing=52
					51:leaf=-0.219659179
					52:leaf=-0.663824797
				28:leaf=0.767015338
			14:[f7<0.423879415] yes=29,no=30,missing=30
				29:[f3<-3.38705921] yes=53,no=54,missing=54
					53:leaf=0.224398211
					54:leaf=0.400937319
				30:[f3<-1.74771214] yes=55,no=56,missing=56
					55:leaf=-0.39708823
					56:leaf=0.00153571717
booster[22]:
0:[f0<-0.542236865] yes=1,no=2,missing=2
	1:[f0<-1.56378794] yes=3,no=4,missing=4
		3:[f11<0.126542643] yes=7,no=8,missing=8
			7:[f13<1.82026362] yes=15,no=16,missing=16
				15:leaf=-0.853727221
				16:[f0<-2.0745635] yes=31,no=32,missing=32
					31:leaf=-0.946711898
					32:leaf=-0.150932059
			8:[f0<-2.0745635] yes=17,no=18,missing=18
				17:leaf=-0.650167167
				18:[f12<-0.441957504] yes=33,no=34,missing=34
					33:leaf=-0.40532136
					34:leaf=-0.185529947
		4:[f5<1.00389516] yes=9,no=10,missing=10
			9:[f11<-0.435340285] yes=19,no=20,missing=20
				19:[f7<-0.976978898] yes=35,no=36,missing=36
					35:leaf=-0.25312385
					36:leaf=-0.780175686
				20:[f14<-0.0194216333] yes=37,no=38,missing=38
					37:leaf=0.301866382
					38:leaf=-0.285367846
			10:[f5<1.95140839] yes=21,no=22,missing=22
				21:[f2<0.669908404] yes=39,no=40,missing=40
					39:leaf=-0.0148241343
					40:leaf=0.791820884
				22:leaf=0.541451931
	2:[f5<0.103263006] yes=5,no=6,missing=6
		5:[f0<0.990089774] yes=11,no=12,missing=12
			11:[f12<-0.30968526] yes=23,no=24,missing=24
				23:[f9<0.684489667] yes=41,no=42,missing=42
					41:leaf=0.0959557146
					42:leaf=-0.386182815
				24:[f9<0.514509439] yes=43,no=44,missing=44
					43:leaf=-0.348344535
					44:leaf=0.181948647
			12:[f2<1.95859241] yes=25,no=26,missing=26
				25:[f6<0.0360874757] yes=45,no=46,missing=46
					45:leaf=0.137683034
					46:leaf=-0.0485076606
				26:[f6<-0.763428271] yes=47,no=48,missing=48
					47:leaf=1.40420985
					48:leaf=0.389663219
		6:[f9<1.73349369] yes=13,no=14,missing=14
			13:[f9<0.462465674] yes=27,no=28,missing=28
				27:[f0<1.85840809] yes=49,no=50,missing=50
					49:leaf=0.424560994
					50:leaf=0.696045756
				28:[f2<-0.103302017] yes=51,no=52,missing=52
					51:leaf=0.16752477
					52:leaf=0.677153707
			14:[f2<-0.232170418] yes=29,no=30,missing=30
				29:[f0<0.990089774] yes=53,no=54,missing=54
					53:leaf=-0.255905092
					54:leaf=0.197015896
				30:leaf=0.702234924
booster[23]:
0:[f0<0.990089774] yes=1,no=2,missing=2
	1:[f2<-0.103302017] yes=3,no=4,missing=4
		3:[f15<-0.230732381] yes=7,no=8,missing=8
			7:[f10<-0.186954424] yes=15,no=16,missing=16
				15:[f12<-0.644695163] yes=31,no=32,missing=32
					31:leaf=-0.667842388
					32:leaf=-0.321975321
				16:[f4<0.461172611] yes=33,no=34,missing=34
					33:leaf=0.683691323
					34:leaf=-0.0543085709
			8:[f0<-1.56378794] yes=17,no=18,missing=18
				17:[f0<-2.0745635] yes=35,no=36,missing=36
					35:leaf=-0.95448041
					36:leaf=-0.333010107
				18:[f4<-0.332632095] yes=37,no=38,missing=38
					37:leaf=0.607815444
					38:leaf=0.0345451832
		4:[f5<-0.519085348] yes=9,no=10,missing=10
			9:[f2<4.53596067] yes=19,no=20,missing=20
				19:[f11<0.438086003] yes=39,no=40,missing=40
					39:leaf=-0.429387808
					40:leaf=0.152464598
				20:[f4<-1.0897882] yes=41,no=42,missing=42
					41:leaf=-0.893971086
					42:leaf=-0.352270901
			10:[f0<-1.05301237] yes=21,no=22,missing=22
				21:leaf=-0.471746594
				22:[f7<-0.306122839] yes=43,no=44,missing=44
					43:leaf=0.744236052
					44:leaf=0.243752092
	2:[f5<0.103263006] yes=5,no=6,missing=6
		5:[f2<-0.103302017] yes=11,no=12,missing=12
			11:[f11<0.444403082] yes=23,no=24,missing=24
				23:[f12<-0.306388974] yes=45,no=46,missing=46
					45:leaf=0.235632554
					46:leaf=-0.00862549059
				24:[f0<1.85840809] yes=47,no=48,missing=48
					47:leaf=-0.189758763
					48:leaf=0.38882339
			12:[f6<-0.763428271] yes=25,no=26,missing=26
				25:leaf=1.40115178
				26:[f5<-0.185844332] yes=49,no=50,missing=50
					49:leaf=0.349619776
					50:leaf=-0.184269056
		6:[f8<0.808797777] yes=13,no=14,missing=14
			13:[f2<0.669908404] yes=27,no=28,missing=28
				27:leaf=0.569989264
				28:[f2<1.95859241] yes=51,no=52,missing=52
					51:leaf=-0.316821009
					52:leaf=0.355020642
			14:[f2<-0.232170418] yes=29,no=30,missing=30
				29:[f0<1.85840809] yes=53,no=54,missing=54
					53:leaf=0.190627396
					54:leaf=0.457989812
				30:leaf=0.719377339
booster[24]:
0:[f0<-0.0314613059] yes=1,no=2,missing=2
	1:[f1<-0.73758918] yes=3,no=4,missing=4
		3:[f2<-0.103302017] yes=7,no=8,missing=8
			7:[f15<-0.230732381] yes=15,no=16,missing=16
				15:[f16<2.16349053] yes=31,no=32,missing=32
					31:leaf=-0.8135975
					32:leaf=-0.392253995
				16:[f0<-2.0745635] yes=33,no=34,missing=34
					33:leaf=-0.836525083
					34:leaf=-0.160289824
			8:[f0<-1.05301237] yes=17,no=18,missing=18
				17:leaf=-0.562223852
				18:[f5<-0.210079893] yes=35,no=36,missing=36
					35:leaf=0.13912639
					36:leaf=0.90233773
		4:[f0<-1.56378794] yes=9,no=10,missing=10
			9:[f12<-0.604992688] yes=19,no=20,missing=20
				19:leaf=-0.717504561
				20:[f4<0.495789915] yes=37,no=38,missing=38
					37:leaf=-0.149034441
					38:leaf=-0.510591209
			10:[f6<1.95485437] yes=21,no=22,missing=22
				21:[f16<-0.531081438] yes=39,no=40,missing=39
					39:leaf=0.00450462941
					40:leaf=0.390891194
				22:[f1<1.10153019] yes=41,no=42,missing=42
					41:leaf=-0.659567595
					42:leaf=-0.13363494
	2:[f5<0.496048391] yes=5,no=6,missing=6
		5:[f4<1.56348741] yes=11,no=12,missing=12
			11:[f3<0.30147177] yes=23,no=24,missing=24
				23:[f1<-0.852534175] yes=43,no=44,missing=44
					43:leaf=0.874882877
					44:leaf=0.175615937
				24:[f14<0.765398324] yes=45,no=46,missing=46
					45:leaf=0.0655136406
					46:leaf=-0.110376485
			12:[f1<-0.0479194149] yes=25,no=26,missing=26
				25:[f1<-0.852534175] yes=47,no=48,missing=48
					47:leaf=-0.665960014
					48:leaf=-0.346244335
				26:[f2<-0.232170418] yes=49,no=50,missing=50
					49:leaf=0.129795223
					50:leaf=-0.514832914
		6:[f1<-0.73758918] yes=13,no=14,missing=14
			13:[f5<1.00389516] yes=27,no=28,missing=28
				27:[f13<-0.578963459] yes=51,no=52,missing=52
					51:leaf=-0.933986485
					52:leaf=-0.349258482
				28:[f2<-0.232170418] yes=53,no=54,missing=54
					53:leaf=0.101158969
					54:leaf=0.770383835
			14:[f0<0.990089774] yes=29,no=30,missing=30
				29:[f1<-0.0479194149] yes=55,no=56,missing=56
					55:leaf=-0.183880165
					56:leaf=0.644548118
				30:[f2<-0.232170418] yes=57,no=58,missing=58
					57:leaf=0.466720402
					58:leaf=-0.0543845296
booster[25]:
0:[f0<-0.542236865] yes=1,no=2,missing=2
	1:[f5<1.0748421] yes=3,no=4,missing=4
		3:[f8<0.0643470883] yes=7,no=8,missing=8
			7:[f0<-1.05301237] yes=15,no=16,missing=16
				15:[f13<-0.58050102] yes=29,no=30,missing=30
					29:leaf=-0.655725956
					30:leaf=-0.3516877
				16:[f1<-0.852534175] yes=31,no=32,missing=32
					31:leaf=-0.268086284
					32:leaf=0.0483074524
			8:[f13<-0.576897383] yes=17,no=18,missing=17
				17:[f1<1.10153019] yes=33,no=34,missing=34
					33:leaf=-0.724448562
					34:leaf=-0.424192697
				18:[f1<-0.0479194149] yes=35,no=36,missing=36
					35:leaf=-0.507840753
					36:leaf=0.180200651
		4:[f0<-2.0745635] yes=9,no=10,missing=10
			9:leaf=-0.86304903
			10:[f1<-0.0479194149] yes=19,no=20,missing=20
				19:[f2<-0.232170418] yes=37,no=38,missing=38
					37:leaf=-0.0165551882
					38:leaf=0.666190982
				20:[f0<-1.05301237] yes=39,no=40,missing=40
					39:leaf=-0.259036571
					40:leaf=0.540647447
	2:[f5<0.496048391] yes=5,no=6,missing=6
		5:[f3<0.30147177] yes=11,no=12,missing=12
			11:[f1<-0.852534175] yes=21,no=22,missing=22
				21:[f6<-0.763428271] yes=41,no=42,missing=42
					41:leaf=1.09898329
					42:leaf=0.360953599
				22:[f5<-0.868316114] yes=43,no=44,missing=44
					43:leaf=0.394918889
					44:leaf=-0.0412466675
			12:[f4<1.56348741] yes=23,no=24,missing=24
				23:[f6<-0.75383991] yes=45,no=46,missing=46
					45:leaf=-0.0970392674
					46:leaf=0.0713625923
				24:[f1<-0.852534175] yes=47,no=48,missing=48
					47:leaf=-0.633603275
					48:leaf=-0.163200662
		6:[f1<-0.96747911] yes=13,no=14,missing=14
			13:[f12<-0.662491322] yes=25,no=26,missing=26
				25:[f0<0.990089774] yes=49,no=50,missing=50
					49:leaf=-0.339957744
					50:leaf=0.286717266
				26:[f13<-0.579027534] yes=51,no=52,missing=51
					51:leaf=-0.224106357
					52:leaf=-0.606740713
			14:[f1<-0.0479194149] yes=27,no=28,missing=28
				27:[f0<0.990089774] yes=53,no=54,missing=54
					53:leaf=-0.116918288
					54:leaf=0.454932183
				28:[f0<0.990089774] yes=55,no=56,missing=56
					55:leaf=0.601720631
					56:leaf=0.332107008
booster[26]:
0:[f0<0.990089774] yes=1,no=2,missing=2
	1:[f1<-0.852534175] yes=3,no=4,missing=4
		3:[f2<-0.103302017] yes=7,no=8,missing=8
			7:[f10<-0.172847196] yes=15,no=16,missing=16
				15:[f9<0.747888029] yes=31,no=32,missing=32
					31:leaf=-0.518795788
					32:leaf=-0.921788692
				16:[f0<-1.56378794] yes=33,no=34,missing=34
					33:leaf=-0.775644004
					34:leaf=0.00155006163
			8:[f0<-1.05301237] yes=17,no=18,missing=18
				17:leaf=-0.513360202
				18:[f14<-0.0194216333] yes=35,no=36,missing=36
					35:leaf=0.394448042
					36:leaf=0.907502651
		4:[f6<1.95485437] yes=9,no=10,missing=10
			9:[f0<-1.05301237] yes=19,no=20,missing=20
				19:[f12<-0.604992688] yes=37,no=38,missing=38
					37:leaf=-0.60363853
					38:leaf=-0.273781985
				20:[f7<-0.363170892] yes=39,no=40,missing=40
					39:leaf=0.376542121
					40:leaf=0.0232366826
			10:[f1<-0.0479194149] yes=21,no=22,missing=22
				21:[f0<-0.542236865] yes=41,no=42,missing=42
					41:leaf=-0.658643365
					42:leaf=-0.245334655
				22:[f2<-0.232170418] yes=43,no=44,missing=44
					43:leaf=-0.178717658
					44:leaf=-0.49631229
	2:[f5<-0.181115776] yes=5,no=6,missing=6
		5:[f2<-0.232170418] yes=11,no=12,missing=12
			11:[f1<1.10153019] yes=23,no=24,missing=24
				23:[f15<-0.26147452] yes=45,no=46,missing=46
					45:leaf=-0.600235462
					46:leaf=-0.0518964343
				24:[f5<-0.868316114] yes=47,no=48,missing=48
					47:leaf=0.31576845
					48:leaf=0.0401070304
			12:[f1<-0.852534175] yes=25,no=26,missing=26
				25:[f4<-1.46348894] yes=49,no=50,missing=50
					49:leaf=0.364297658
					50:leaf=1.04998791
				26:[f2<1.95859241] yes=51,no=52,missing=52
					51:leaf=-0.334741175
					52:leaf=-0.0827335119
		6:[f1<-0.96747911] yes=13,no=14,missing=14
			13:[f4<-0.395472974] yes=27,no=28,missing=28
				27:[f4<-1.27663863] yes=53,no=54,missing=54
					53:leaf=0.0589724593
					54:leaf=-0.439970851
				28:leaf=0.322790354
			14:[f1<1.10153019] yes=29,no=30,missing=30
				29:[f10<-0.883184671] yes=55,no=56,missing=56
					55:leaf=0.191944987
					56:leaf=0.523837924
				30:[f2<-0.232170418] yes=57,no=58,missing=58
					57:leaf=0.309838384
					58:leaf=-0.0867966041
booster[27]:
0:[f0<-0.0314613059] yes=1,no=2,missing=2
	1:[f1<-0.73758918] yes=3,no=4,missing=4
		3:[f2<-0.103302017] yes=7,no=8,missing=8
			7:[f9<0.684489667] yes=15,no=16,missing=16
				15:[f12<-0.309196085] yes=31,no=32,missing=32
					31:leaf=-0.208376974
					32:leaf=-0.601348996
				16:[f1<-0.852534175] yes=33,no=34,missing=34
					33:leaf=-0.872174442
					34:leaf=-0.440807909
			8:[f0<-1.56378794] yes=17,no=18,missing=18
				17:leaf=-0.538255274
				18:[f2<0.669908404] yes=35,no=36,missing=36
					35:leaf=-0.00130039512
					36:leaf=0.494571686
		4:[f5<1.0748421] yes=9,no=10,missing=10
			9:[f0<-1.56378794] yes=19,no=20,missing=20
				19:[f12<-0.604992688] yes=37,no=38,missing=38
					37:leaf=-0.600245178
					38:leaf=-0.232134134
				20:[f12<-0.323500305] yes=39,no=40,missing=40
					39:leaf=0.116129793
					40:leaf=-0.318933576
			10:[f0<-1.05301237] yes=21,no=22,missing=22
				21:leaf=-0.230337873
				22:[f5<2.24210715] yes=41,no=42,missing=42
					41:leaf=0.523769438
					42:leaf=0.0498544462
	2:[f1<-0.96747911] yes=5,no=6,missing=6
		5:[f7<1.69649601] yes=11,no=12,missing=12
			11:[f13<-0.576897383] yes=23,no=24,missing=23
				23:[f13<-0.579363883] yes=43,no=44,missing=43
					43:leaf=-0.270093471
					44:leaf=0.0441452228
				24:[f0<0.990089774] yes=45,no=46,missing=46
					45:leaf=-0.604914844
					46:leaf=-0.319829315
			12:[f0<0.990089774] yes=25,no=26,missing=26
				25:leaf=-0.00156371656
				26:leaf=0.337246269
		6:[f5<0.496048391] yes=13,no=14,missing=14
			13:[f3<0.30147177] yes=27,no=28,missing=28
				27:[f9<-0.614277124] yes=47,no=48,missing=48
					47:leaf=0.360400349
					48:leaf=-0
				28:[f5<-0.520589292] yes=49,no=50,missing=50
					49:leaf=-0.0471125953
					50:leaf=0.118949585
			14:[f1<-0.0479194149] yes=29,no=30,missing=30
				29:[f9<2.00108004] yes=51,no=52,missing=52
					51:leaf=0.279195905
					52:leaf=-0.511799991
				30:[f0<0.990089774] yes=53,no=54,missing=54
					53:leaf=0.558195889
					54:leaf=0.277553499
booster[28]:
0:[f0<-0.0314613059] yes=1,no=2,missing=2
	1:[f1<-0.96747911] yes=3,no=4,missing=4
		3:[f5<1.95140839] yes=7,no=8,missing=8
			7:[f16<-1.06593633] yes=15,no=16,missing=15
				15:[f5<-0.524953306] yes=27,no=28,missing=28
					27:leaf=-0.42675209
					28:leaf=0.0418511033
				16:[f12<-0.662491322] yes=29,no=30,missing=30
					29:leaf=-0.354810804
					30:leaf=-0.890589118
			8:leaf=0.784072101
		4:[f0<-1.56378794] yes=9,no=10,missing=10
			9:[f12<-0.604992688] yes=17,no=18,missing=18
				17:[f9<-0.718507826] yes=31,no=32,missing=32
					31:leaf=-1.00946593
					32:leaf=-0.502422392
				18:[f1<-0.0479194149] yes=33,no=34,missing=34
					33:leaf=-0.379902393
					34:leaf=-0.0306496471
			10:[f2<0.669908404] yes=19,no=20,missing=20
				19:[f1<-0.0479194149] yes=35,no=36,missing=36
					35:leaf=-0.224552795
					36:leaf=0.029668672
				20:[f5<-0.210079893] yes=37,no=38,missing=38
					37:leaf=0.327780813
					38:leaf=0.734928548
	2:[f7<-0.976978898] yes=5,no=6,missing=6
		5:[f9<-0.718507826] yes=11,no=12,missing=12
			11:leaf=0.564699888
			12:[f0<1.85840809] yes=21,no=22,missing=22
				21:[f1<-0.96747911] yes=39,no=40,missing=40
					39:leaf=0.0886215046
					40:leaf=0.285203338
				22:leaf=0.512920737
		6:[f1<-0.0479194149] yes=13,no=14,missing=14
			13:[f2<-0.232170418] yes=23,no=24,missing=24
				23:[f8<0.0630373731] yes=41,no=42,missing=42
					41:leaf=-0.0619559512
					42:leaf=-0.340956688
				24:[f6<-0.763428271] yes=43,no=44,missing=44
					43:leaf=1.26464272
					44:leaf=0.563571095
			14:[f5<0.496048391] yes=25,no=26,missing=26
				25:[f2<-0.232170418] yes=45,no=46,missing=46
					45:leaf=0.155985773
					46:leaf=-0.16055505
				26:[f1<1.10153019] yes=47,no=48,missing=48
					47:leaf=0.662141621
					48:leaf=0.30872032
booster[29]:
0:[f0<-0.0314613059] yes=1,no=2,missing=2
	1:[f1<-0.852534175] yes=3,no=4,missing=4
		3:[f2<0.669908404] yes=7,no=8,missing=8
			7:[f15<-0.230732381] yes=15,no=16,missing=16
				15:[f6<-0.317571044] yes=31,no=32,missing=32
					31:leaf=-0.746376097
					32:leaf=-0.366979212
				16:[f0<-2.0745635] yes=33,no=34,missing=34
					33:leaf=-0.667904913
					34:leaf=-0.0830708444
			8:[f0<-1.56378794] yes=17,no=18,missing=18
				17:leaf=-0.486601681
				18:[f5<-0.539032757] yes=35,no=36,missing=36
					35:leaf=0.189870447
					36:leaf=0.514153361
		4:[f0<-1.05301237] yes=9,no=10,missing=10
			9:[f13<-0.576448917] yes=19,no=20,missing=20
				19:leaf=-0.507531762
				20:[f14<0.427949935] yes=37,no=38,missing=38
					37:leaf=0.0109642576
					38:leaf=-0.281187266
			10:[f6<1.95485437] yes=21,no=22,missing=22
				21:[f14<0.437850684] yes=39,no=40,missing=40
					39:leaf=0.170397565
					40:leaf=-0.0748601407
				22:[f1<-0.0479194149] yes=41,no=42,missing=42
					41:leaf=-0.627928436
					42:leaf=-0.23730427
	2:[f5<0.962736845] yes=5,no=6,missing=6
		5:[f3<0.30147177] yes=11,no=12,missing=12
			11:[f10<-0.175509155] yes=23,no=24,missing=24
				23:[f13<1.95725811] yes=43,no=44,missing=44
					43:leaf=0.215490445
					44:leaf=0.417615086
				24:[f3<-1.74771214] yes=45,no=46,missing=46
					45:leaf=-0.158147722
					46:leaf=0.0898682252
			12:[f11<-0.390389651] yes=25,no=26,missing=26
				25:[f1<-0.0479194149] yes=47,no=48,missing=48
					47:leaf=-0.453522176
					48:leaf=-0.0685691163
				26:[f6<-0.75383991] yes=49,no=50,missing=50
					49:leaf=-0.0718960986
					50:leaf=0.0574520677
		6:[f1<-0.96747911] yes=13,no=14,missing=14
			13:[f11<-0.435340285] yes=27,no=28,missing=28
				27:[f0<0.990089774] yes=51,no=52,missing=52
					51:leaf=-0.096984379
					52:leaf=0.0784029588
				28:leaf=-0.481973678
			14:[f13<-0.57667315] yes=29,no=30,missing=29
				29:[f1<-0.73758918] yes=53,no=54,missing=54
					53:leaf=0.114888124
					54:leaf=0.299446583
				30:[f1<-0.852534175] yes=55,no=56,missing=56
					55:leaf=0.317944407
					56:leaf=0.545482278
booster[30]:
0:[f1<-0.96747911] yes=1,no=2,missing=2
	1:[f8<0.0601783134] yes=3,no=4,missing=4
		3:[f11<-1.30811274] yes=7,no=8,missing=8
			7:leaf=0.854428411
			8:[f0<0.990089774] yes=15,no=16,missing=16
				15:[f14<0.437301546] yes=29,no=30,missing=30
					29:leaf=-0.11591243
					30:leaf=-0.515276492
				16:[f11<0.196124986] yes=31,no=32,missing=32
					31:leaf=0.367532015
					32:leaf=-0.266321421
		4:[f7<-0.363170892] yes=9,no=10,missing=10
			9:[f0<-0.542236865] yes=17,no=18,missing=18
				17:leaf=-0.969497383
				18:leaf=-0.489536285
			10:[f9<2.11005306] yes=19,no=20,missing=20
				19:[f12<-0.308566898] yes=33,no=34,missing=34
					33:leaf=-0.469064355
					34:leaf=-0.16339691
				20:[f0<-0.542236865] yes=35,no=36,missing=36
					35:leaf=-0.368074119
					36:leaf=-0.00563048758
	2:[f0<-0.542236865] yes=5,no=6,missing=6
		5:[f1<-0.0479194149] yes=11,no=12,missing=12
			11:[f13<1.95725811] yes=21,no=22,missing=22
				21:[f9<0.684489667] yes=37,no=38,missing=38
					37:leaf=-0.234208062
					38:leaf=-0.517663836
				22:[f0<-2.0745635] yes=39,no=40,missing=40
					39:leaf=-0.714872479
					40:leaf=0.029703686
			12:[f0<-1.05301237] yes=23,no=24,missing=24
				23:[f7<0.258034378] yes=41,no=42,missing=42
					41:leaf=-0.413462698
					42:leaf=-0.00968515128
				24:[f5<0.0658945814] yes=43,no=44,missing=44
					43:leaf=-0.0642782077
					44:leaf=0.452479154
		6:[f7<-0.976978898] yes=13,no=14,missing=14
			13:[f9<-0.718507826] yes=25,no=26,missing=26
				25:leaf=0.588639557
				26:[f0<1.85840809] yes=45,no=46,missing=46
					45:leaf=0.261469334
					46:leaf=0.572298646
			14:[f9<-0.614277124] yes=27,no=28,missing=28
				27:[f0<0.990089774] yes=47,no=48,missing=48
					47:leaf=-0.218522087
					48:leaf=0.146829307
				28:[f1<-0.73758918] yes=49,no=50,missing=50
					49:leaf=-0.0161617305
					50:leaf=0.160034537
booster[31]:
0:[f1<-0.96747911] yes=1,no=2,missing=2
	1:[f8<0.0601783134] yes=3,no=4,missing=4
		3:[f11<0.446285337] yes=7,no=8,missing=8
			7:[f0<0.990089774] yes=15,no=16,missing=16
				15:[f13<-0.579588115] yes=31,no=32,missing=32
					31:leaf=-0.578732908
					32:leaf=-0.0113567123
				16:[f4<0.458230168] yes=33,no=34,missing=34
					33:leaf=0.306937993
					34:leaf=-0.0266798008
			8:[f0<-0.0314613059] yes=17,no=18,missing=18
				17:leaf=-0.705864072
				18:[f4<-1.0897882] yes=35,no=36,missing=36
					35:leaf=-0.340625912
					36:leaf=-0.174665034
		4:[f0<-0.542236865] yes=9,no=10,missing=10
			9:[f8<0.758081019] yes=19,no=20,missing=20
				19:leaf=-0.25194934
				20:leaf=-0.660885215
			10:[f13<-0.579027534] yes=21,no=22,missing=21
				21:leaf=-0.294062436
				22:leaf=-0.497242063
	2:[f5<-0.00884227362] yes=5,no=6,missing=6
		5:[f12<-0.309176445] yes=11,no=12,missing=12
			11:[f6<0.0203864854] yes=23,no=24,missing=24
				23:[f3<0.30147177] yes=37,no=38,missing=38
					37:leaf=0.48024568
					38:leaf=0.0562386252
				24:[f1<-0.852534175] yes=39,no=40,missing=40
					39:leaf=0.146157429
					40:leaf=-0.0358178243
			12:[f0<0.990089774] yes=25,no=26,missing=26
				25:[f4<-1.46348894] yes=41,no=42,missing=42
					41:leaf=0.194216207
					42:leaf=-0.299053937
				26:[f2<-0.103302017] yes=43,no=44,missing=44
					43:leaf=-0.0368038416
					44:leaf=0.580480337
		6:[f0<-1.05301237] yes=13,no=14,missing=14
			13:[f5<2.24210715] yes=27,no=28,missing=28
				27:[f14<0.785897315] yes=45,no=46,missing=46
					45:leaf=-0.283647984
					46:leaf=-0.487581372
				28:leaf=-0.0243421327
			14:[f1<-0.0479194149] yes=29,no=30,missing=30
				29:[f2<-0.232170418] yes=47,no=48,missing=48
					47:leaf=-0.0245547332
					48:leaf=0.648932278
				30:[f13<-0.578963459] yes=49,no=50,missing=49
					49:leaf=0.200190201
					50:leaf=0.488670915
booster[32]:
0:[f0<-0.0314613059] yes=1,no=2,missing=2
	1:[f1<-0.96747911] yes=3,no=4,missing=4
		3:[f11<-1.30811274] yes=7,no=8,missing=8
			7:leaf=0.287341893
			8:[f16<-1.06593633] yes=15,no=16,missing=15
				15:[f5<-0.524953306] yes=25,no=26,missing=26
					25:leaf=-0.289556473
					26:leaf=0.0794804394
				16:leaf=-0.643492699
		4:[f4<1.56348741] yes=9,no=10,missing=10
			9:[f0<-2.0745635] yes=17,no=18,missing=18
				17:leaf=-0.658565342
				18:[f5<1.0748421] yes=27,no=28,missing=28
					27:leaf=-0.113088131
					28:leaf=0.134088531
			10:[f1<1.10153019] yes=19,no=20,missing=20
				19:[f1<-0.852534175] yes=29,no=30,missing=30
					29:leaf=-0.281371325
					30:leaf=-0.542332351
				20:leaf=-0.0774478242
	2:[f2<-0.361038834] yes=5,no=6,missing=6
		5:[f6<-0.716253698] yes=11,no=12,missing=12
			11:leaf=-0.459223956
			12:leaf=-1.11861014
		6:[f5<1.00389516] yes=13,no=14,missing=14
			13:[f1<-0.73758918] yes=21,no=22,missing=22
				21:[f2<-0.232170418] yes=31,no=32,missing=32
					31:leaf=-0.22159557
					32:leaf=0.70011884
				22:[f5<-0.210079893] yes=33,no=34,missing=34
					33:leaf=-0.00917724799
					34:leaf=0.246682912
			14:[f1<-0.96747911] yes=23,no=24,missing=24
				23:[f0<0.990089774] yes=35,no=36,missing=36
					35:leaf=-0.345321834
					36:leaf=0.00961140636
				24:[f1<1.10153019] yes=37,no=38,missing=38
					37:leaf=0.341212302
					38:leaf=0.148176968
booster[33]:
0:[f0<-0.0314613059] yes=1,no=2,missing=2
	1:[f1<-0.852534175] yes=3,no=4,missing=4
		3:[f2<-0.103302017] yes=7,no=8,missing=8
			7:[f16<0.252828807] yes=15,no=16,missing=15
				15:[f11<0.439920634] yes=31,no=32,missing=32
					31:leaf=-0.14941819
					32:leaf=-0.532964468
				16:[f5<1.00389516] yes=33,no=34,missing=34
					33:leaf=-0.494268566
					34:leaf=-0.824879229
			8:[f0<-1.05301237] yes=17,no=18,missing=18
				17:leaf=-0.284249902
				18:[f2<0.669908404] yes=35,no=36,missing=36
					35:leaf=0.0489608459
					36:leaf=0.54194051
		4:[f13<-0.577009499] yes=9,no=10,missing=10
			9:[f8<0.054535877] yes=19,no=20,missing=20
				19:[f0<-1.56378794] yes=37,no=38,missing=38
					37:leaf=-0.359143555
					38:leaf=0.00945803616
				20:[f1<1.10153019] yes=39,no=40,missing=40
					39:leaf=-0.498645455
					40:leaf=-0.128762051
			10:[f16<-0.531081438] yes=21,no=22,missing=21
				21:[f4<-0.354936719] yes=41,no=42,missing=42
					41:leaf=-0.201092914
					42:leaf=0.138401553
				22:[f0<-1.05301237] yes=43,no=44,missing=44
					43:leaf=-0.289042622
					44:leaf=0.40519464
	2:[f12<-0.312172025] yes=5,no=6,missing=6
		5:[f11<-0.435340285] yes=11,no=12,missing=12
			11:[f9<-0.718507826] yes=23,no=24,missing=24
				23:leaf=0.483385682
				24:[f10<-0.903361142] yes=45,no=46,missing=46
					45:leaf=-0.0716462135
					46:leaf=0.207966521
			12:[f9<1.93330395] yes=25,no=26,missing=26
				25:[f13<-0.579475999] yes=47,no=48,missing=47
					47:leaf=0.0598451644
					48:leaf=0.185399994
				26:[f1<-0.73758918] yes=49,no=50,missing=50
					49:leaf=-0.78032285
					50:leaf=0.287483394
		6:[f0<0.990089774] yes=13,no=14,missing=14
			13:[f16<-0.126747429] yes=27,no=28,missing=27
				27:[f2<4.53596067] yes=51,no=52,missing=52
					51:leaf=-0.165182397
					52:leaf=-0.560314059
				28:[f2<-0.103302017] yes=53,no=54,missing=54
					53:leaf=-0.120002232
					54:leaf=0.392591238
			14:[f2<-0.103302017] yes=29,no=30,missing=30
				29:[f1<-0.852534175] yes=55,no=56,missing=56
					55:leaf=-0.335764438
					56:leaf=0.115415014
				30:[f6<-0.716253698] yes=57,no=58,missing=58
					57:leaf=0.955473721
					58:leaf=0.124125205
booster[34]:
0:[f0<0.990089774] yes=1,no=2,missing=2
	1:[f1<-0.0479194149] yes=3,no=4,missing=4
		3:[f2<-0.103302017] yes=7,no=8,missing=8
			7:[f15<-0.261192828] yes=15,no=16,missing=16
				15:[f9<1.93330395] yes=29,no=30,missing=30
					29:leaf=-0.38857463
					30:leaf=-0.684261978
				16:[f14<0.654117882] yes=31,no=32,missing=32
					31:leaf=0.025525026
					32:leaf=-0.290640861
			8:[f0<-1.05301237] yes=17,no=18,missing=18
				17:leaf=-0.185679406
				18:[f14<-0.0194216333] yes=33,no=34,missing=34
					33:leaf=0.189993635
					34:leaf=0.745829225
		4:[f5<-0.521753907] yes=9,no=10,missing=10
			9:[f3<0.30147177] yes=19,no=20,missing=20
				19:leaf=0.431103289
				20:[f10<-0.16873607] yes=35,no=36,missing=36
					35:leaf=-0.224480659
					36:leaf=0.0270602908
			10:[f0<-1.05301237] yes=21,no=22,missing=22
				21:[f10<-0.378772974] yes=37,no=38,missing=38
					37:leaf=-0.509154856
					38:leaf=-0.243209019
				22:[f4<-0.332632095] yes=39,no=40,missing=40
					39:leaf=0.423480183
					40:leaf=0.205101371
	2:[f4<0.47606954] yes=5,no=6,missing=6
		5:[f2<-0.361038834] yes=11,no=12,missing=12
			11:leaf=-0.542615771
			12:[f1<-0.0479194149] yes=23,no=24,missing=24
				23:[f2<0.669908404] yes=41,no=42,missing=42
					41:leaf=0.200673044
					42:leaf=0.640357673
				24:[f2<-0.232170418] yes=43,no=44,missing=44
					43:leaf=0.171570852
					44:leaf=-0.208293304
		6:[f1<1.10153019] yes=13,no=14,missing=14
			13:[f2<-0.232170418] yes=25,no=26,missing=26
				25:[f4<0.506253004] yes=45,no=46,missing=46
					45:leaf=0.045476567
					46:leaf=-0.374605894
				26:leaf=0.496952325
			14:[f7<0.420596153] yes=27,no=28,missing=28
				27:[f3<-3.38705921] yes=47,no=48,missing=48
					47:leaf=0.156129286
					48:leaf=0.271106213
				28:[f3<-1.74771214] yes=49,no=50,missing=50
					49:leaf=-0.201016262
					50:leaf=0.00149960048
booster[35]:
0:[f0<-1.05301237] yes=1,no=2,missing=2
	1:[f5<2.24210715] yes=3,no=4,missing=4
		3:[f8<0.0112055372] yes=7,no=8,missing=8
			7:[f0<-2.0745635] yes=13,no=14,missing=14
				13:[f1<-0.96747911] yes=23,no=24,missing=24
					23:leaf=-0.212909281
					24:leaf=-0.547333717
				14:[f5<-0.526503742] yes=25,no=26,missing=26
					25:leaf=-0.174305603
					26:leaf=0.1909412
			8:leaf=-0.346122801
		4:leaf=-0.80340147
	2:[f7<-1.17697167] yes=5,no=6,missing=6
		5:[f4<-0.332632095] yes=9,no=10,missing=10
			9:[f4<-0.52848959] yes=15,no=16,missing=16
				15:[f1<-0.852534175] yes=27,no=28,missing=28
					27:leaf=0.388158202
					28:leaf=0.143276662
				16:leaf=0.488627285
			10:[f0<-0.542236865] yes=17,no=18,missing=18
				17:[f1<1.10153019] yes=29,no=30,missing=30
					29:leaf=0.0999692231
					30:leaf=-0.420505941
				18:[f2<-0.103302017] yes=31,no=32,missing=32
					31:leaf=0.254692972
					32:leaf=0.0736146569
		6:[f1<-0.0479194149] yes=11,no=12,missing=12
			11:[f2<-0.232170418] yes=19,no=20,missing=20
				19:[f15<-0.261192828] yes=33,no=34,missing=34
					33:leaf=-0.289122134
					34:leaf=-0.0650474504
				20:[f14<-0.0194216333] yes=35,no=36,missing=36
					35:leaf=0.187086463
					36:leaf=0.703798473
			12:[f5<-0.201702282] yes=21,no=22,missing=22
				21:[f2<-0.232170418] yes=37,no=38,missing=38
					37:leaf=0.051741749
					38:leaf=-0.310418785
				22:[f13<-0.578963459] yes=39,no=40,missing=39
					39:leaf=0.176732317
					40:leaf=0.462307721
booster[36]:
0:[f1<-0.96747911] yes=1,no=2,missing=2
	1:[f16<0.261176825] yes=3,no=4,missing=3
		3:[f12<-0.323500305] yes=7,no=8,missing=8
			7:[f4<0.506253004] yes=15,no=16,missing=16
				15:[f0<0.990089774] yes=23,no=24,missing=24
					23:leaf=-0.0566571653
					24:leaf=0.223112419
				16:[f0<0.990089774] yes=25,no=26,missing=26
					25:leaf=-0.00844392832
					26:leaf=-0.631707788
			8:leaf=-0.301112056
		4:[f0<0.990089774] yes=9,no=10,missing=10
			9:leaf=-0.542389631
			10:[f12<-0.640114069] yes=17,no=18,missing=18
				17:leaf=-0.27271691
				18:[f4<-1.27663863] yes=27,no=28,missing=28
					27:leaf=-0
					28:leaf=0.106646836
	2:[f2<-0.361038834] yes=5,no=6,missing=6
		5:[f5<-0.539032757] yes=11,no=12,missing=12
			11:leaf=-0
			12:leaf=-1.19248056
		6:[f0<-1.05301237] yes=13,no=14,missing=14
			13:[f11<-1.30811274] yes=19,no=20,missing=20
				19:leaf=0.116383508
				20:[f13<-0.58050102] yes=29,no=30,missing=30
					29:leaf=-0.394678146
					30:leaf=-0.239924774
			14:[f5<1.00010526] yes=21,no=22,missing=22
				21:[f3<0.30147177] yes=31,no=32,missing=32
					31:leaf=0.196500629
					32:leaf=-0.0196552295
				22:[f1<-0.0479194149] yes=33,no=34,missing=34
					33:leaf=0.0903984308
					34:leaf=0.232050359
booster[37]:
0:[f0<-0.0314613059] yes=1,no=2,missing=2
	1:[f1<1.10153019] yes=3,no=4,missing=4
		3:[f12<-0.311659873] yes=7,no=8,missing=8
			7:[f9<0.747888029] yes=15,no=16,missing=16
				15:[f0<-2.0745635] yes=31,no=32,missing=32
					31:leaf=-0.481253088
					32:leaf=0.059979219
				16:[f1<-0.0479194149] yes=33,no=34,missing=34
					33:leaf=-0.387770623
					34:leaf=0.0347776525
			8:[f2<-0.103302017] yes=17,no=18,missing=18
				17:[f9<0.499897093] yes=35,no=36,missing=36
					35:leaf=-0.46491763
					36:leaf=-0.272702038
				18:[f6<-0.716253698] yes=37,no=38,missing=38
					37:leaf=0.409642845
					38:leaf=0.0471601486
		4:[f13<-0.578899443] yes=9,no=10,missing=10
			9:[f10<-0.338420033] yes=19,no=20,missing=20
				19:[f0<-1.56378794] yes=39,no=40,missing=40
					39:leaf=-0.260820627
					40:leaf=0.283613414
				20:[f0<-0.542236865] yes=41,no=42,missing=42
					41:leaf=-0.32230109
					42:leaf=-0.0855346322
			10:[f0<-1.05301237] yes=21,no=22,missing=22
				21:[f5<-0.533554733] yes=43,no=44,missing=44
					43:leaf=0.251192391
					44:leaf=-0.209375665
				22:[f5<-0.246772274] yes=45,no=46,missing=46
					45:leaf=0.123521596
					46:leaf=0.517559469
	2:[f5<-0.189866975] yes=5,no=6,missing=6
		5:[f3<0.30147177] yes=11,no=12,missing=12
			11:[f9<-0.614277124] yes=23,no=24,missing=24
				23:[f1<-0.852534175] yes=47,no=48,missing=48
					47:leaf=0.672769129
					48:leaf=0.203353077
				24:[f1<-0.852534175] yes=49,no=50,missing=50
					49:leaf=0.122073673
					50:leaf=-0.112201355
			12:[f10<-0.168025747] yes=25,no=26,missing=26
				25:[f0<0.990089774] yes=51,no=52,missing=52
					51:leaf=-0.172110096
					52:leaf=0.0305363201
				26:[f1<-0.852534175] yes=53,no=54,missing=54
					53:leaf=0.317438543
					54:leaf=-0.00783029757
		6:[f1<-0.852534175] yes=13,no=14,missing=14
			13:[f2<-0.232170418] yes=27,no=28,missing=28
				27:[f9<0.684489667] yes=55,no=56,missing=56
					55:leaf=0.132905245
					56:leaf=-0.317523032
				28:[f3<-1.74771214] yes=57,no=58,missing=58
					57:leaf=0.0952609181
					58:leaf=0.499546677
			14:[f13<-0.578963459] yes=29,no=30,missing=30
				29:[f2<-0.232170418] yes=59,no=60,missing=60
					59:leaf=0.15565069
					60:leaf=-0
				30:[f1<-0.0479194149] yes=61,no=62,missing=62
					61:leaf=0.0692572296
					62:leaf=0.247740179
booster[38]:
0:[f1<-0.73758918] yes=1,no=2,missing=2
	1:[f10<-0.171564445] yes=3,no=4,missing=4
		3:[f0<0.990089774] yes=7,no=8,missing=8
			7:[f9<0.693401396] yes=15,no=16,missing=16
				15:[f16<0.206650227] yes=31,no=32,missing=31
					31:leaf=-0.22111845
					32:leaf=0.0929042548
				16:[f13<-0.578963459] yes=33,no=34,missing=34
					33:leaf=-0.467212945
					34:leaf=-0.298036367
			8:[f1<-0.852534175] yes=17,no=18,missing=18
				17:[f13<-0.576448917] yes=35,no=36,missing=36
					35:leaf=-0.295119703
					36:leaf=-0.00887369365
				18:[f14<0.591389894] yes=37,no=38,missing=38
					37:leaf=0.0759419501
					38:leaf=0.478548288
		4:[f0<-0.542236865] yes=9,no=10,missing=10
			9:[f6<0.0358598009] yes=19,no=20,missing=20
				19:[f0<-1.56378794] yes=39,no=40,missing=40
					39:leaf=-0.247282445
					40:leaf=0.418892652
				20:[f12<-0.441957504] yes=41,no=42,missing=42
					41:leaf=-0.168350741
					42:leaf=-0.365799993
			10:[f1<-0.96747911] yes=21,no=22,missing=22
				21:[f4<0.499210089] yes=43,no=44,missing=44
					43:leaf=0.0656218901
					44:leaf=-0.203395709
				22:[f1<-0.852534175] yes=45,no=46,missing=46
					45:leaf=0.316479832
					46:leaf=-0.0145963039
	2:[f5<-0.201702282] yes=5,no=6,missing=6
		5:[f13<1.95725811] yes=11,no=12,missing=12
			11:[f3<-3.5919776] yes=23,no=24,missing=24
				23:[f4<-1.0897882] yes=47,no=48,missing=48
					47:leaf=0.232282206
					48:leaf=0.00981623307
				24:[f1<2.2509799] yes=49,no=50,missing=50
					49:leaf=-0.0832242072
					50:leaf=0.253789902
			12:[f3<0.30147177] yes=25,no=26,missing=26
				25:leaf=0.3614963
				26:[f1<-0.0479194149] yes=51,no=52,missing=52
					51:leaf=0.240998268
					52:leaf=0.0105623351
		6:[f0<-1.05301237] yes=13,no=14,missing=14
			13:[f12<-0.310770512] yes=27,no=28,missing=28
				27:[f13<-0.579027534] yes=53,no=54,missing=54
					53:leaf=-0.162100568
					54:leaf=-0.346083015
				28:leaf=-0.0524718389
			14:[f13<-0.579027534] yes=29,no=30,missing=30
				29:[f4<-0.437396944] yes=55,no=56,missing=56
					55:leaf=-0.254456371
					56:leaf=0.0918850303
				30:[f5<2.24210715] yes=57,no=58,missing=58
					57:leaf=0.240659446
					58:leaf=-0.000308390154
booster[39]:
0:[f1<-0.96747911] yes=1,no=2,missing=2
	1:[f0<-0.0314613059] yes=3,no=4,missing=4
		3:[f6<0.0360449813] yes=7,no=8,missing=8
			7:[f4<-0.566607118] yes=15,no=16,missing=16
				15:leaf=-0.494868875
				16:[f12<-0.436684042] yes=29,no=30,missing=30
					29:leaf=-0.179838508
					30:leaf=0.051128719
			8:[f4<1.56348741] yes=17,no=18,missing=18
				17:leaf=-0.792157054
				18:leaf=-0.350131989
		4:[f12<-0.323500305] yes=9,no=10,missing=10
			9:[f13<-0.58050102] yes=19,no=20,missing=20
				19:[f0<0.990089774] yes=31,no=32,missing=32
					31:leaf=-0.214311615
					32:leaf=-0.0500104688
				20:[f16<0.261176825] yes=33,no=34,missing=34
					33:leaf=0.132709667
					34:leaf=-0.0193688683
			10:[f9<0.530577064] yes=21,no=22,missing=22
				21:leaf=-0.278201282
				22:leaf=-0.125765845
	2:[f0<-1.05301237] yes=5,no=6,missing=6
		5:[f0<-2.0745635] yes=11,no=12,missing=12
			11:leaf=-0.539539933
			12:[f8<-0.44710198] yes=23,no=24,missing=24
				23:[f4<1.3392669] yes=35,no=36,missing=36
					35:leaf=0.102943584
					36:leaf=-0.163124561
				24:[f10<1.52089131] yes=37,no=38,missing=38
					37:leaf=-0.294099122
					38:leaf=-0
		6:[f4<1.56348741] yes=13,no=14,missing=14
			13:[f2<-0.361038834] yes=25,no=26,missing=26
				25:[f7<-0.401202917] yes=39,no=40,missing=40
					39:leaf=-1.11506629
					40:leaf=0.259137034
				26:[f11<-0.461694598] yes=41,no=42,missing=42
					41:leaf=0.158858985
					42:leaf=0.027868161
			14:[f1<1.10153019] yes=27,no=28,missing=28
				27:leaf=-0.35839197
				28:[f2<-0.232170418] yes=43,no=44,missing=44
					43:leaf=0.163116753
					44:leaf=-0.32401973
booster[40]:
0:[f1<-0.73758918] yes=1,no=2,missing=2
	1:[f2<-0.232170418] yes=3,no=4,missing=4
		3:[f12<-0.313782424] yes=7,no=8,missing=8
			7:[f9<0.684489667] yes=15,no=16,missing=16
				15:[f0<-2.0745635] yes=31,no=32,missing=32
					31:leaf=-0.407257915
					32:leaf=0.0591163971
				16:[f0<0.990089774] yes=33,no=34,missing=34
					33:leaf=-0.371905297
					34:leaf=0.0704975873
			8:[f2<-0.361038834] yes=17,no=18,missing=18
				17:leaf=-0.767240405
				18:[f12<-0.31119442] yes=35,no=36,missing=36
					35:leaf=-0.806518435
					36:leaf=-0.321572065
		4:[f14<0.273421615] yes=9,no=10,missing=10
			9:[f2<0.669908404] yes=19,no=20,missing=20
				19:[f0<-0.542236865] yes=37,no=38,missing=38
					37:leaf=-0.234647661
					38:leaf=-0
				20:[f0<-1.05301237] yes=39,no=40,missing=40
					39:leaf=-0.240512103
					40:leaf=0.312849432
			10:[f0<-0.542236865] yes=21,no=22,missing=22
				21:[f4<-1.0897882] yes=41,no=42,missing=42
					41:leaf=0.392782032
					42:leaf=-0
				22:[f6<-0.763428271] yes=43,no=44,missing=44
					43:leaf=0.991776705
					44:leaf=0.528852999
	2:[f2<-0.232170418] yes=5,no=6,missing=6
		5:[f0<-1.05301237] yes=11,no=12,missing=12
			11:[f14<0.654117882] yes=23,no=24,missing=24
				23:[f9<0.51240319] yes=45,no=46,missing=46
					45:leaf=-0.113333851
					46:leaf=0.0117369192
				24:leaf=-0.309682459
			12:[f5<-0.191153899] yes=25,no=26,missing=26
				25:[f13<1.95725811] yes=47,no=48,missing=48
					47:leaf=-0.0167476013
					48:leaf=0.147024423
				26:[f14<1.23687589] yes=49,no=50,missing=50
					49:leaf=0.17802915
					50:leaf=-0.0494497754
		6:[f9<-0.614277124] yes=13,no=14,missing=14
			13:[f7<1.69649601] yes=27,no=28,missing=28
				27:[f2<4.53596067] yes=51,no=52,missing=52
					51:leaf=-0.318432331
					52:leaf=-0.504622519
				28:leaf=-0.648848534
			14:[f0<0.990089774] yes=29,no=30,missing=30
				29:[f12<-0.637060046] yes=53,no=54,missing=54
					53:leaf=0.331546158
					54:leaf=0.0679799169
				30:[f4<-0.349872977] yes=55,no=56,missing=56
					55:leaf=0.0639826953
					56:leaf=-0.290249318
booster[41]:
0:[f0<0.990089774] yes=1,no=2,missing=2
	1:[f1<-0.852534175] yes=3,no=4,missing=4
		3:[f2<-0.232170418] yes=7,no=8,missing=8
			7:[f5<1.95140839] yes=15,no=16,missing=16
				15:[f5<-0.210079893] yes=29,no=30,missing=30
					29:leaf=-0.191533342
					30:leaf=-0.464268357
				16:[f0<-1.56378794] yes=31,no=32,missing=32
					31:leaf=-0.196213797
					32:leaf=0.419218421
			8:[f6<-0.763428271] yes=17,no=18,missing=18
				17:[f0<-0.542236865] yes=33,no=34,missing=34
					33:leaf=0.263279647
					34:leaf=0.989137769
				18:[f0<-1.05301237] yes=35,no=36,missing=36
					35:leaf=-0.0811692476
					36:leaf=0.289954543
		4:[f6<1.95485437] yes=9,no=10,missing=10
			9:[f14<0.765398324] yes=19,no=20,missing=20
				19:[f16<-0.126747429] yes=37,no=38,missing=37
					37:leaf=0.0613285676
					38:leaf=0.215764597
				20:[f2<4.53596067] yes=39,no=40,missing=40
					39:leaf=-0.0348044708
					40:leaf=-0.37018761
			10:[f2<-0.232170418] yes=21,no=22,missing=22
				21:[f1<1.10153019] yes=41,no=42,missing=42
					41:leaf=-0.248575762
					42:leaf=0.0981906801
				22:leaf=-0.371566504
	2:[f4<0.47606954] yes=5,no=6,missing=6
		5:[f2<4.53596067] yes=11,no=12,missing=12
			11:[f2<1.95859241] yes=23,no=24,missing=24
				23:[f12<-0.309176445] yes=43,no=44,missing=44
					43:leaf=0.160281584
					44:leaf=0.0374113917
				24:[f6<-0.716253698] yes=45,no=46,missing=46
					45:leaf=0.659638226
					46:leaf=0.170226753
			12:leaf=-0.294902772
		6:[f1<1.10153019] yes=13,no=14,missing=14
			13:[f2<-0.232170418] yes=25,no=26,missing=26
				25:[f4<0.502292335] yes=47,no=48,missing=48
					47:leaf=0.00804620888
					48:leaf=-0.290511161
				26:leaf=0.347541392
			14:[f2<-0.232170418] yes=27,no=28,missing=28
				27:[f4<0.493896842] yes=49,no=50,missing=50
					49:leaf=-0.0979949236
					50:leaf=0.149232268
				28:leaf=-0.183361381
booster[42]:
0:[f0<-0.542236865] yes=1,no=2,missing=2
	1:[f1<1.10153019] yes=3,no=4,missing=4
		3:[f11<-1.29874313] yes=7,no=8,missing=8
			7:[f1<-0.0479194149] yes=15,no=16,missing=16
				15:[f4<-0.332632095] yes=31,no=32,missing=32
					31:leaf=0.194961712
					32:leaf=-0.234596789
				16:leaf=0.849793017
			8:[f2<-0.232170418] yes=17,no=18,missing=18
				17:[f13<3.91452622] yes=33,no=34,missing=34
					33:leaf=-0.26148513
					34:leaf=-0.0936188474
				18:[f6<-0.716253698] yes=35,no=36,missing=36
					35:leaf=0.352798402
					36:leaf=-0.0427774601
		4:[f6<0.0205009039] yes=9,no=10,missing=10
			9:[f0<-1.05301237] yes=19,no=20,missing=20
				19:[f6<-0.716253698] yes=37,no=38,missing=38
					37:leaf=0.0392333828
					38:leaf=-0.270901471
				20:[f6<-0.627657533] yes=39,no=40,missing=40
					39:leaf=0.2505427
					40:leaf=0.917767882
			10:[f12<-0.313049406] yes=21,no=22,missing=22
				21:[f4<0.386329889] yes=41,no=42,missing=42
					41:leaf=-0.292615592
					42:leaf=-0.079779014
				22:leaf=0.0652712807
	2:[f1<-0.96747911] yes=5,no=6,missing=6
		5:[f13<-0.58050102] yes=11,no=12,missing=12
			11:[f4<1.56348741] yes=23,no=24,missing=24
				23:[f0<0.990089774] yes=43,no=44,missing=44
					43:leaf=-0.463263988
					44:leaf=-0.148972571
				24:leaf=-0.133395225
			12:[f4<-0.360400677] yes=25,no=26,missing=26
				25:[f9<2.11005306] yes=45,no=46,missing=46
					45:leaf=-0.1766233
					46:leaf=0.167431042
				26:[f0<0.990089774] yes=47,no=48,missing=48
					47:leaf=-0.123926222
					48:leaf=0.314639568
		6:[f12<-0.616866291] yes=13,no=14,missing=14
			13:[f13<-0.577009499] yes=27,no=28,missing=28
				27:[f7<-0.344154865] yes=49,no=50,missing=50
					49:leaf=0.131737083
					50:leaf=-0.146042168
				28:[f1<-0.852534175] yes=51,no=52,missing=52
					51:leaf=0.117465481
					52:leaf=0.366735339
			14:[f2<1.95859241] yes=29,no=30,missing=30
				29:[f1<-0.852534175] yes=53,no=54,missing=54
					53:leaf=-0.105583407
					54:leaf=0.0442538261
				30:[f1<1.10153019] yes=55,no=56,missing=56
					55:leaf=0.538449466
					56:leaf=-0.0909797773
booster[43]:
0:[f0<-1.56378794] yes=1,no=2,missing=2
	1:[f5<2.24210715] yes=3,no=4,missing=4
		3:[f11<0.450110495] yes=7,no=8,missing=8
			7:[f9<0.534631968] yes=13,no=14,missing=14
				13:[f15<-0.245537534] yes=23,no=24,missing=24
					23:leaf=-0.443050295
					24:leaf=-0.239417419
				14:[f12<-0.604992688] yes=25,no=26,missing=26
					25:leaf=-0.244640037
					26:leaf=0.196647733
			8:leaf=0.246257335
		4:leaf=-1.25404835
	2:[f1<-0.0479194149] yes=5,no=6,missing=6
		5:[f2<-0.232170418] yes=9,no=10,missing=10
			9:[f15<-0.261192828] yes=15,no=16,missing=16
				15:[f1<-0.852534175] yes=27,no=28,missing=28
					27:leaf=-0.357697785
					28:leaf=-0.0638012961
				16:[f9<0.684489667] yes=29,no=30,missing=30
					29:leaf=0.0218886361
					30:leaf=-0.223085135
			10:[f6<-0.763428271] yes=17,no=18,missing=18
				17:[f0<-0.542236865] yes=31,no=32,missing=32
					31:leaf=0.230096415
					32:leaf=0.867746532
				18:[f5<1.03747368] yes=33,no=34,missing=34
					33:leaf=0.203846887
					34:leaf=0.430443823
		6:[f12<-0.612898886] yes=11,no=12,missing=12
			11:[f0<0.990089774] yes=19,no=20,missing=20
				19:[f8<0.831536889] yes=35,no=36,missing=36
					35:leaf=0.280608028
					36:leaf=0.472988099
				20:[f2<-0.232170418] yes=37,no=38,missing=38
					37:leaf=0.122310422
					38:leaf=-0.0906512588
			12:[f2<-0.232170418] yes=21,no=22,missing=22
				21:[f13<1.95725811] yes=39,no=40,missing=40
					39:leaf=0.0014031285
					40:leaf=0.125891179
				22:[f6<-0.75383991] yes=41,no=42,missing=42
					41:leaf=-0.496850014
					42:leaf=-0.0563359559
booster[44]:
0:[f0<-1.05301237] yes=1,no=2,missing=2
	1:[f13<1.82026362] yes=3,no=4,missing=4
		3:[f11<-0.394040465] yes=7,no=8,missing=8
			7:leaf=-0.296515495
			8:[f8<-0.0132053746] yes=15,no=16,missing=16
				15:leaf=-0.191557258
				16:leaf=-0.0593932942
		4:[f0<-1.56378794] yes=9,no=10,missing=10
			9:[f8<-0.447057068] yes=17,no=18,missing=18
				17:[f0<-2.0745635] yes=29,no=30,missing=30
					29:leaf=-0.233430579
					30:leaf=-0.0286811702
				18:leaf=0.265624017
			10:[f4<-0.350450516] yes=19,no=20,missing=20
				19:leaf=-0.376752824
				20:leaf=-0
	2:[f12<-0.309176445] yes=5,no=6,missing=6
		5:[f14<1.23687589] yes=11,no=12,missing=12
			11:[f11<-1.30811274] yes=21,no=22,missing=22
				21:[f1<-0.96747911] yes=31,no=32,missing=32
					31:leaf=0.488232523
					32:leaf=0.208901927
				22:[f10<-0.4518314] yes=33,no=34,missing=34
					33:leaf=0.171118796
					34:leaf=0.041606959
			12:[f1<-0.0479194149] yes=23,no=24,missing=24
				23:[f0<0.990089774] yes=35,no=36,missing=36
					35:leaf=-0.453399301
					36:leaf=0.0774019808
				24:[f0<-0.542236865] yes=37,no=38,missing=38
					37:leaf=-0.186627492
					38:leaf=0.320469677
		6:[f16<-0.126747429] yes=13,no=14,missing=13
			13:[f0<0.990089774] yes=25,no=26,missing=26
				25:[f0<-0.542236865] yes=39,no=40,missing=40
					39:leaf=-0.224854544
					40:leaf=-0.133882836
				26:[f0<1.85840809] yes=41,no=42,missing=42
					41:leaf=-0.012908522
					42:leaf=0.498754621
			14:[f1<-0.852534175] yes=27,no=28,missing=28
				27:[f4<-1.46348894] yes=43,no=44,missing=44
					43:leaf=0.0880732983
					44:leaf=-0.13356103
				28:[f0<0.990089774] yes=45,no=46,missing=46
					45:leaf=0.207290873
					46:leaf=0.0166527368
booster[45]:
0:[f0<-0.0314613059] yes=1,no=2,missing=2
	1:[f6<-0.288038999] yes=3,no=4,missing=4
		3:[f2<0.669908404] yes=7,no=8,missing=8
			7:[f1<-0.852534175] yes=13,no=14,missing=14
				13:[f14<-0.0194216333] yes=23,no=24,missing=24
					23:leaf=0.0461953245
					24:leaf=-0.317859918
				14:[f9<1.94659328] yes=25,no=26,missing=26
					25:leaf=0.0535487644
					26:leaf=-0.249033436
			8:leaf=0.425411701
		4:[f1<-0.96747911] yes=9,no=10,missing=10
			9:[f10<-0.163136289] yes=15,no=16,missing=16
				15:[f4<0.478573501] yes=27,no=28,missing=28
					27:leaf=0.000452361739
					28:leaf=-0.23927176
				16:leaf=-0.756955147
			10:[f4<-1.46348894] yes=17,no=18,missing=18
				17:[f2<1.95859241] yes=29,no=30,missing=30
					29:leaf=0.196684957
					30:leaf=0.0370042659
				18:[f7<0.267949462] yes=31,no=32,missing=32
					31:leaf=-0.198334366
					32:leaf=-0.0364757515
	2:[f15<3.12476015] yes=5,no=6,missing=6
		5:[f1<-0.852534175] yes=11,no=12,missing=12
			11:[f2<-0.232170418] yes=19,no=20,missing=20
				19:[f8<0.054535877] yes=33,no=34,missing=34
					33:leaf=-0.0574542768
					34:leaf=-0.392438591
				20:[f6<-0.763428271] yes=35,no=36,missing=36
					35:leaf=0.817176104
					36:leaf=0.274172962
			12:[f5<-0.210079893] yes=21,no=22,missing=22
				21:[f2<-0.232170418] yes=37,no=38,missing=38
					37:leaf=0.0339976363
					38:leaf=-0.176478982
				22:[f1<1.10153019] yes=39,no=40,missing=40
					39:leaf=0.185065985
					40:leaf=0.0803245828
		6:leaf=0.347592622
booster[46]:
0:[f2<1.95859241] yes=1,no=2,missing=2
	1:[f1<-0.73758918] yes=3,no=4,missing=4
		3:[f2<0.669908404] yes=7,no=8,missing=8
			7:[f10<1.52089131] yes=15,no=16,missing=16
				15:[f0<0.990089774] yes=29,no=30,missing=30
					29:leaf=-0.204909444
					30:leaf=-0.0159461442
				16:[f0<-2.0745635] yes=31,no=32,missing=32
					31:leaf=-0.388442457
					32:leaf=0.222672269
			8:[f14<-0.0194216333] yes=17,no=18,missing=18
				17:leaf=0.0544191934
				18:leaf=0.624746382
		4:[f2<-0.232170418] yes=9,no=10,missing=10
			9:[f0<-1.05301237] yes=19,no=20,missing=20
				19:[f5<-0.522843301] yes=33,no=34,missing=34
					33:leaf=-0.0276419111
					34:leaf=-0.228202388
				20:[f5<-0.201702282] yes=35,no=36,missing=36
					35:leaf=0.012247473
					36:leaf=0.130267754
			10:[f9<0.509845138] yes=21,no=22,missing=22
				21:[f4<-0.368929237] yes=37,no=38,missing=38
					37:leaf=-0.54682982
					38:leaf=-0.21565561
				22:[f14<0.654117882] yes=39,no=40,missing=40
					39:leaf=-0.0987402573
					40:leaf=0.25493142
	2:[f1<1.10153019] yes=5,no=6,missing=6
		5:[f0<-1.56378794] yes=11,no=12,missing=12
			11:leaf=-0.328520954
			12:[f6<-0.763428271] yes=23,no=24,missing=24
				23:leaf=0.637215257
				24:[f3<0.30147177] yes=41,no=42,missing=42
					41:leaf=-0
					42:leaf=0.347163916
		6:[f9<-0.614277124] yes=13,no=14,missing=14
			13:[f4<0.348212421] yes=25,no=26,missing=26
				25:leaf=-0.380435377
				26:[f2<4.53596067] yes=43,no=44,missing=44
					43:leaf=-0.114411272
					44:leaf=-0
			14:[f6<0.1474628] yes=27,no=28,missing=28
				27:[f0<0.990089774] yes=45,no=46,missing=46
					45:leaf=0.119627044
					46:leaf=-0.0168574024
				28:leaf=0.261617333
booster[47]:
0:[f0<-0.0314613059] yes=1,no=2,missing=2
	1:[f13<1.95725811] yes=3,no=4,missing=4
		3:[f1<-0.0479194149] yes=7,no=8,missing=8
			7:[f12<-0.612898886] yes=13,no=14,missing=14
				13:[f10<-0.883184671] yes=25,no=26,missing=26
					25:leaf=-0.488586634
					26:leaf=-0.224439353
				14:[f1<-0.96747911] yes=27,no=28,missing=28
					27:leaf=-0.345844239
					28:leaf=-0.0469494425
			8:[f5<-0.246772274] yes=15,no=16,missing=16
				15:[f4<-1.0897882] yes=29,no=30,missing=30
					29:leaf=-0.333307862
					30:leaf=-0.101422809
				16:[f0<-1.56378794] yes=31,no=32,missing=32
					31:leaf=-0.15463762
					32:leaf=0.178450078
		4:[f14<0.59114033] yes=9,no=10,missing=10
			9:[f0<-1.05301237] yes=17,no=18,missing=18
				17:[f10<-0.154596448] yes=33,no=34,missing=34
					33:leaf=-0.165315315
					34:leaf=0.035570085
				18:[f2<0.669908404] yes=35,no=36,missing=36
					35:leaf=0.0873176381
					36:leaf=0.487681419
			10:[f1<-0.852534175] yes=19,no=20,missing=20
				19:leaf=-0.138510823
				20:leaf=-0.387460768
	2:[f15<3.12476015] yes=5,no=6,missing=6
		5:[f1<-0.73758918] yes=11,no=12,missing=12
			11:[f2<-0.103302017] yes=21,no=22,missing=22
				21:[f15<-0.261192828] yes=37,no=38,missing=38
					37:leaf=-0.214963421
					38:leaf=-0.0268648658
				22:[f6<-0.763428271] yes=39,no=40,missing=40
					39:leaf=0.723513901
					40:leaf=0.240681082
			12:[f2<-0.232170418] yes=23,no=24,missing=24
				23:[f11<0.0229127947] yes=41,no=42,missing=42
					41:leaf=0.156845689
					42:leaf=0.0498131663
				24:[f9<-0.614277124] yes=43,no=44,missing=44
					43:leaf=-0.379253149
					44:leaf=0.0270889942
		6:leaf=0.315750539
booster[48]:
0:[f5<1.95140839] yes=1,no=2,missing=2
	1:[f2<-0.361038834] yes=3,no=4,missing=4
		3:[f5<-0.210079893] yes=7,no=8,missing=8
			7:[f4<-1.0897882] yes=13,no=14,missing=14
				13:leaf=-0.226923704
				14:leaf=0.388262123
			8:leaf=-1.18501782
		4:[f2<1.95859241] yes=9,no=10,missing=10
			9:[f1<-0.852534175] yes=15,no=16,missing=16
				15:[f2<-0.232170418] yes=23,no=24,missing=24
					23:leaf=-0.131793812
					24:leaf=0.268546999
				16:[f13<1.95725811] yes=25,no=26,missing=26
					25:leaf=-0.00661260402
					26:leaf=0.10899587
			10:[f1<1.10153019] yes=17,no=18,missing=18
				17:[f6<-0.763428271] yes=27,no=28,missing=28
					27:leaf=0.573588073
					28:leaf=0.247102529
				18:[f7<1.69649601] yes=29,no=30,missing=30
					29:leaf=0.00932734367
					30:leaf=-0.563124657
	2:[f1<-0.96747911] yes=5,no=6,missing=6
		5:leaf=0.459834367
		6:[f1<-0.852534175] yes=11,no=12,missing=12
			11:[f4<-0.52848959] yes=19,no=20,missing=20
				19:leaf=0.179085866
				20:leaf=0.0660182461
			12:[f4<-0.52848959] yes=21,no=22,missing=22
				21:leaf=0.44356066
				22:leaf=0.216274574
booster[49]:
0:[f2<-0.361038834] yes=1,no=2,missing=2
	1:[f5<-0.210079893] yes=3,no=4,missing=4
		3:leaf=-0.108969599
		4:leaf=-1.12119031
	2:[f1<-0.0479194149] yes=5,no=6,missing=6
		5:[f2<-0.232170418] yes=7,no=8,missing=8
			7:[f14<0.785897315] yes=11,no=12,missing=12
				11:[f4<0.502292335] yes=19,no=20,missing=20
					19:leaf=0.0413090549
					20:leaf=-0.176807866
				12:[f0<0.990089774] yes=21,no=22,missing=22
					21:leaf=-0.275770783
					22:leaf=0.037466798
			8:[f6<-0.763428271] yes=13,no=14,missing=14
				13:leaf=0.574946225
				14:[f0<-1.56378794] yes=23,no=24,missing=24
					23:leaf=-0.318420082
					24:leaf=0.174704939
		6:[f2<-0.232170418] yes=9,no=10,missing=10
			9:[f0<-1.05301237] yes=15,no=16,missing=16
				15:[f4<1.3392669] yes=25,no=26,missing=26
					25:leaf=-0.0485449135
					26:leaf=-0.565259814
				16:[f12<-0.603465617] yes=27,no=28,missing=28
					27:leaf=0.176083073
					28:leaf=0.0503143333
			10:[f6<-0.75383991] yes=17,no=18,missing=18
				17:[f2<1.95859241] yes=29,no=30,missing=30
					29:leaf=-0.474292368
					30:leaf=-0.282996684
				18:[f0<0.990089774] yes=31,no=32,missing=32
					31:leaf=0.0624718331
					32:leaf=-0.194738269
booster[50]:
0:[f5<1.95140839] yes=1,no=2,missing=2
	1:[f2<-0.361038834] yes=3,no=4,missing=4
		3:[f5<-0.539032757] yes=7,no=8,missing=8
			7:leaf=-0
			8:leaf=-0.853891134
		4:[f0<-1.05301237] yes=9,no=10,missing=10
			9:[f1<-0.0479194149] yes=13,no=14,missing=14
				13:[f5<-0.246772274] yes=21,no=22,missing=22
					21:leaf=-0.162040129
					22:leaf=-0.421861529
				14:[f6<-0.716253698] yes=23,no=24,missing=24
					23:leaf=0.332340181
					24:leaf=-0.12330021
			10:[f14<1.02017188] yes=15,no=16,missing=16
				15:[f4<0.468953729] yes=25,no=26,missing=26
					25:leaf=0.0557352751
					26:leaf=-0.0115816547
				16:[f1<-0.0479194149] yes=27,no=28,missing=28
					27:leaf=-0.216715962
					28:leaf=0.117096625
	2:[f0<-2.0745635] yes=5,no=6,missing=6
		5:leaf=-0.344347388
		6:[f1<-0.852534175] yes=11,no=12,missing=12
			11:[f0<-0.542236865] yes=17,no=18,missing=18
				17:leaf=0.564226091
				18:[f4<-0.52848959] yes=29,no=30,missing=30
					29:leaf=0.0701446161
					30:leaf=0.377818525
			12:[f1<1.10153019] yes=19,no=20,missing=20
				19:[f1<-0.0479194149] yes=31,no=32,missing=32
					31:leaf=-0.245198429
					32:leaf=-0.011032341
				20:leaf=0.269091457
booster[51]:
0:[f15<-0.26147452] yes=1,no=2,missing=2
	1:[f1<-0.852534175] yes=3,no=4,missing=4
		3:[f2<0.669908404] yes=7,no=8,missing=8
			7:[f6<-0.686721623] yes=15,no=16,missing=16
				15:[f2<-0.232170418] yes=27,no=28,missing=28
					27:leaf=-0.514640212
					28:leaf=0.119001739
				16:[f9<2.11005306] yes=29,no=30,missing=30
					29:leaf=-0.213867664
					30:leaf=0.153951541
			8:[f3<0.30147177] yes=17,no=18,missing=18
				17:leaf=-0.0122652417
				18:[f4<-1.46348894] yes=31,no=32,missing=32
					31:leaf=0.171009555
					32:leaf=0.377706081
		4:[f6<-0.302805036] yes=9,no=10,missing=10
			9:[f0<-1.05301237] yes=19,no=20,missing=20
				19:[f13<-0.579027534] yes=33,no=34,missing=33
					33:leaf=-0.0503673293
					34:leaf=-0.206027359
				20:[f13<-0.579027534] yes=35,no=36,missing=36
					35:leaf=-0.233342111
					36:leaf=0.106547564
			10:[f7<0.25387004] yes=21,no=22,missing=22
				21:[f1<1.10153019] yes=37,no=38,missing=38
					37:leaf=-0.21438697
					38:leaf=-0.0195939001
				22:leaf=-0.656879961
	2:[f0<-2.0745635] yes=5,no=6,missing=6
		5:[f1<-0.96747911] yes=11,no=12,missing=12
			11:leaf=-0.0599338897
			12:leaf=-0.383344233
		6:[f10<-0.452088445] yes=13,no=14,missing=14
			13:[f2<-0.232170418] yes=23,no=24,missing=24
				23:[f4<-0.354936719] yes=39,no=40,missing=40
					39:leaf=0.204792216
					40:leaf=0.441184074
				24:leaf=0.135973662
			14:[f10<-0.450923413] yes=25,no=26,missing=26
				25:[f1<-0.73758918] yes=41,no=42,missing=42
					41:leaf=-0.704874277
					42:leaf=0.0485969074
				26:[f6<-0.810411036] yes=43,no=44,missing=44
					43:leaf=0.165637225
					44:leaf=0.020106731
booster[52]:
0:[f0<-1.05301237] yes=1,no=2,missing=2
	1:[f11<-1.30811274] yes=3,no=4,missing=4
		3:[f0<-2.0745635] yes=7,no=8,missing=8
			7:leaf=-0.246859506
			8:leaf=-1.032758
		4:[f10<-0.378772974] yes=9,no=10,missing=10
			9:leaf=-0.251842976
			10:[f0<-2.0745635] yes=15,no=16,missing=16
				15:[f1<-0.96747911] yes=21,no=22,missing=22
					21:leaf=-0.0564905256
					22:leaf=-0.35786745
				16:[f4<-0.299619436] yes=23,no=24,missing=24
					23:leaf=0.0616868921
					24:leaf=-0.0778457075
	2:[f11<-1.30811274] yes=5,no=6,missing=6
		5:[f0<0.990089774] yes=11,no=12,missing=12
			11:leaf=0.479874849
			12:leaf=0.210098907
		6:[f2<1.95859241] yes=13,no=14,missing=14
			13:[f1<-0.852534175] yes=17,no=18,missing=18
				17:[f2<-0.232170418] yes=25,no=26,missing=26
					25:leaf=-0.134478152
					26:leaf=0.238308355
				18:[f2<-0.232170418] yes=27,no=28,missing=28
					27:leaf=0.0331404172
					28:leaf=-0.171668604
			14:[f1<1.10153019] yes=19,no=20,missing=20
				19:[f14<0.273421615] yes=29,no=30,missing=30
					29:leaf=0.144982398
					30:leaf=0.434083343
				20:[f6<-0.75383991] yes=31,no=32,missing=32
					31:leaf=-0.356104046
					32:leaf=0.0470118895
booster[53]:
0:[f8<0.917560339] yes=1,no=2,missing=2
	1:[f0<-0.0314613059] yes=3,no=4,missing=4
		3:[f13<1.95725811] yes=7,no=8,missing=8
			7:[f1<-0.852534175] yes=15,no=16,missing=16
				15:[f11<-0.435340285] yes=29,no=30,missing=30
					29:leaf=-0.0484767593
					30:leaf=-0.218024343
				16:[f9<1.93330395] yes=31,no=32,missing=32
					31:leaf=0.00520601263
					32:leaf=-0.231331453
			8:[f1<-0.852534175] yes=17,no=18,missing=18
				17:[f4<0.484357059] yes=33,no=34,missing=34
					33:leaf=0.292898625
					34:leaf=-0.249633074
				18:[f4<-0.354936719] yes=35,no=36,missing=36
					35:leaf=-0.347441375
					36:leaf=0.0941269249
		4:[f2<-0.361038834] yes=9,no=10,missing=10
			9:leaf=0.708172798
			10:[f1<2.2509799] yes=19,no=20,missing=20
				19:[f8<-0.0132053746] yes=37,no=38,missing=38
					37:leaf=0.00364066125
					38:leaf=0.0837663785
				20:leaf=0.597204506
	2:[f1<-0.852534175] yes=5,no=6,missing=6
		5:[f2<-0.232170418] yes=11,no=12,missing=12
			11:[f5<-0.210079893] yes=21,no=22,missing=22
				21:[f0<0.990089774] yes=39,no=40,missing=40
					39:leaf=-0.0632815585
					40:leaf=-0.391324073
				22:[f1<-0.96747911] yes=41,no=42,missing=42
					41:leaf=-0.166772887
					42:leaf=-0.635058999
			12:[f4<-1.46348894] yes=23,no=24,missing=24
				23:[f2<0.669908404] yes=43,no=44,missing=44
					43:leaf=-0.188086867
					44:leaf=0.0242919941
				24:[f2<0.669908404] yes=45,no=46,missing=46
					45:leaf=0.100844353
					46:leaf=0.293315321
		6:[f2<-0.232170418] yes=13,no=14,missing=14
			13:[f11<-0.461694598] yes=25,no=26,missing=26
				25:[f3<-3.5919776] yes=47,no=48,missing=48
					47:leaf=-0.114991374
					48:leaf=0.0545543358
				26:[f0<0.990089774] yes=49,no=50,missing=50
					49:leaf=0.0502751172
					50:leaf=-0.173922539
			14:[f2<1.95859241] yes=27,no=28,missing=28
				27:leaf=-0.327050269
				28:[f4<-1.27663863] yes=51,no=52,missing=52
					51:leaf=0.0917287171
					52:leaf=-0.170533419
booster[54]:
0:[f5<1.95140839] yes=1,no=2,missing=2
	1:[f0<-0.542236865] yes=3,no=4,missing=4
		3:[f6<0.051579535] yes=7,no=8,missing=8
			7:[f5<-0.868316114] yes=13,no=14,missing=14
				13:[f0<-2.0745635] yes=23,no=24,missing=24
					23:leaf=-0.161883652
					24:leaf=0.202245623
				14:[f2<1.95859241] yes=25,no=26,missing=26
					25:leaf=-0.0671967193
					26:leaf=0.312809289
			8:[f2<0.669908404] yes=15,no=16,missing=16
				15:[f1<-0.0479194149] yes=27,no=28,missing=28
					27:leaf=-0.242212385
					28:leaf=-0.158750117
				16:[f0<-1.56378794] yes=29,no=30,missing=30
					29:leaf=-0.27533856
					30:leaf=0.129097462
		4:[f1<2.2509799] yes=9,no=10,missing=10
			9:[f2<-0.361038834] yes=17,no=18,missing=18
				17:leaf=-0.433372647
				18:[f11<0.447724283] yes=31,no=32,missing=32
					31:leaf=0.0397541411
					32:leaf=-0.0359215066
			10:leaf=0.565037727
	2:[f0<-2.0745635] yes=5,no=6,missing=6
		5:leaf=-0.288463503
		6:[f1<-0.852534175] yes=11,no=12,missing=12
			11:[f0<-0.542236865] yes=19,no=20,missing=20
