booster[0]:
0:[f5<1.00389516] yes=1,no=2,missing=2
	1:[f1<-0.0479194149] yes=3,no=4,missing=4
		3:[f2<-0.232170418] yes=7,no=8,missing=8
			7:[f4<1.56348741] yes=15,no=16,missing=16
				15:[f1<-0.96747911] yes=29,no=30,missing=30
					29:leaf=-2.11921382
					30:leaf=-0.829819441
				16:leaf=-2.79150987
			8:[f6<-0.763428271] yes=17,no=18,missing=18
				17:[f2<0.669908404] yes=31,no=32,missing=32
					31:leaf=1.1751622
					32:leaf=2.58377981
				18:[f5<-0.868316114] yes=33,no=34,missing=34
					33:leaf=0.0929886252
					34:leaf=0.768678308
		4:[f9<-0.0551404618] yes=9,no=10,missing=10
			9:[f3<0.30147177] yes=19,no=20,missing=20
				19:[f5<-0.868316114] yes=35,no=36,missing=36
					35:leaf=0.885720253
					36:leaf=0.277423471
				20:[f12<-0.323500305] yes=37,no=38,missing=38
					37:leaf=-0.0170304924
					38:leaf=-0.952290297
			10:[f13<-0.578963459] yes=21,no=22,missing=22
				21:[f2<-0.232170418] yes=39,no=40,missing=40
					39:leaf=-0.0941515639
					40:leaf=1.32595623
				22:[f16<1.33096421] yes=41,no=42,missing=42
					41:leaf=1.84849119
					42:leaf=0.903994143
	2:[f1<-0.852534175] yes=5,no=6,missing=6
		5:[f2<-0.232170418] yes=11,no=12,missing=12
			11:[f12<-0.643168151] yes=23,no=24,missing=24
				23:[f4<-0.332632095] yes=43,no=44,missing=44
					43:leaf=0.189458504
					44:leaf=0.752664268
				24:[f1<-0.96747911] yes=45,no=46,missing=46
					45:leaf=-2.25991392
					46:leaf=-1.32752824
			12:[f4<-1.27663863] yes=25,no=26,missing=26
				25:leaf=3.13809276
				26:leaf=1.94831789
		6:[f7<-0.38218689] yes=13,no=14,missing=14
			13:[f1<3.40042949] yes=27,no=28,missing=28
				27:[f3<0.30147177] yes=47,no=48,missing=48
					47:leaf=2.45025373
					48:leaf=1.67651463
				28:leaf=3.41155577
			14:leaf=0.0473978072
booster[1]:
0:[f0<-0.0314613059] yes=1,no=2,missing=2
	1:[f0<-1.56378794] yes=3,no=4,missing=4
		3:leaf=-3.5924263
		4:[f6<-0.810411036] yes=7,no=8,missing=8
			7:[f1<-0.0479194149] yes=13,no=14,missing=14
				13:leaf=1.19171703
				14:leaf=2.80457735
			8:[f1<-0.0479194149] yes=15,no=16,missing=16
				15:[f2<-0.232170418] yes=25,no=26,missing=26
					25:leaf=-2.36044979
					26:leaf=0.628098905
				16:[f4<1.56348741] yes=27,no=28,missing=28
					27:leaf=-0.110501662
					28:leaf=-2.60794592
	2:[f7<-1.17697167] yes=5,no=6,missing=6
		5:[f1<-0.96747911] yes=9,no=10,missing=10
			9:[f0<0.990089774] yes=17,no=18,missing=18
				17:leaf=-1.27158594
				18:leaf=1.62783623
			10:[f2<0.669908404] yes=19,no=20,missing=20
				19:leaf=3.13790607
				20:[f0<0.990089774] yes=29,no=30,missing=30
					29:leaf=2.94965768
					30:leaf=1.98795247
		6:[f1<-0.96747911] yes=11,no=12,missing=12
			11:[f8<0.0878433883] yes=21,no=22,missing=22
				21:[f11<0.446285337] yes=31,no=32,missing=32
					31:leaf=-0.554327428
					32:leaf=-1.40757155
				22:[f4<-1.27663863] yes=33,no=34,missing=34
					33:leaf=-0.944986582
					34:leaf=-2.5048449
			12:[f16<-0.126747429] yes=23,no=24,missing=24
				23:[f0<0.990089774] yes=35,no=36,missing=36
					35:leaf=-0.398093134
					36:leaf=0.442352235
				24:[f1<-0.0479194149] yes=37,no=38,missing=38
					37:leaf=0.705859125
					38:leaf=1.47173965
booster[2]:
0:[f0<-0.0314613059] yes=1,no=2,missing=2
	1:[f0<-1.56378794] yes=3,no=4,missing=4
		3:[f16<-0.531081438] yes=7,no=8,missing=7
			7:[f0<-2.0745635] yes=15,no=16,missing=16
				15:leaf=-3.55839634
				16:[f5<-0.64092201] yes=31,no=32,missing=32
					31:leaf=-2.28187704
					32:leaf=-1.34214628
			8:[f7<-0.306122839] yes=17,no=18,missing=18
				17:leaf=-3.9675262
				18:leaf=-2.32066917
		4:[f7<-1.17697167] yes=9,no=10,missing=10
			9:[f4<-0.332632095] yes=19,no=20,missing=20
				19:[f1<-0.0479194149] yes=33,no=34,missing=34
					33:leaf=1.0109235
					34:leaf=2.20429707
				20:[f1<-0.0479194149] yes=35,no=36,missing=36
					35:leaf=-0.640410244
					36:leaf=0.953150272
			10:[f1<1.10153019] yes=21,no=22,missing=22
				21:[f2<-0.232170418] yes=37,no=38,missing=38
					37:leaf=-2.02059245
					38:leaf=0.578965604
				22:[f9<0.487356305] yes=39,no=40,missing=40
					39:leaf=-0.464387387
					40:leaf=1.01026011
	2:[f5<1.00389516] yes=5,no=6,missing=6
		5:[f1<-0.96747911] yes=11,no=12,missing=12
			11:[f8<0.0878433883] yes=23,no=24,missing=24
				23:[f0<0.990089774] yes=41,no=42,missing=42
					41:leaf=-1.39603531
					42:leaf=-0.430446178
				24:leaf=-2.19738173
			12:[f5<-0.539032757] yes=25,no=26,missing=26
				25:[f0<0.990089774] yes=43,no=44,missing=44
					43:leaf=-0.485951662
					44:leaf=0.388368785
				26:[f1<-0.0479194149] yes=45,no=46,missing=46
					45:leaf=0.419267595
					46:leaf=1.17048824
		6:[f1<-0.96747911] yes=13,no=14,missing=14
			13:[f0<0.990089774] yes=27,no=28,missing=28
				27:leaf=-1.35876572
				28:[f4<-1.27663863] yes=47,no=48,missing=48
					47:leaf=-0.0964566022
					48:leaf=1.71546721
			14:[f4<-0.566607118] yes=29,no=30,missing=30
				29:[f2<-0.232170418] yes=49,no=50,missing=50
					49:leaf=1.29799926
					50:leaf=3.01222038
				30:[f2<0.669908404] yes=51,no=52,missing=52
					51:leaf=2.77105665
					52:leaf=2.1113286
booster[3]:
0:[f0<-0.542236865] yes=1,no=2,missing=2
	1:[f0<-1.56378794] yes=3,no=4,missing=4
		3:[f11<0.191421494] yes=7,no=8,missing=8
			7:[f13<1.82026362] yes=15,no=16,missing=16
				15:leaf=-3.20949244
				16:[f0<-2.0745635] yes=27,no=28,missing=28
					27:leaf=-3.02969718
					28:leaf=-1.75917566
			8:leaf=-1.62313843
		4:[f7<-1.17697167] yes=9,no=10,missing=10
			9:[f4<-0.332632095] yes=17,no=18,missing=18
				17:[f1<-0.0479194149] yes=29,no=30,missing=30
					29:leaf=1.0341531
					30:leaf=2.02750564
				18:[f1<-0.0479194149] yes=31,no=32,missing=32
					31:leaf=-0.790992618
					32:leaf=0.630573511
			10:[f1<1.10153019] yes=19,no=20,missing=20
				19:[f2<-0.103302017] yes=33,no=34,missing=34
					33:leaf=-1.88958132
					34:leaf=0.828045249
				20:[f9<0.51240319] yes=35,no=36,missing=36
					35:leaf=-0.463896066
					36:leaf=1.14604282
	2:[f12<-0.664475024] yes=5,no=6,missing=6
		5:[f1<-0.96747911] yes=11,no=12,missing=12
			11:leaf=0.806771517
			12:[f2<0.669908404] yes=21,no=22,missing=22
				21:[f4<-0.52848959] yes=37,no=38,missing=38
					37:leaf=1.49138129
					38:leaf=2.49078274
				22:[f0<0.990089774] yes=39,no=40,missing=40
					39:leaf=2.42875624
					40:leaf=1.56199181
		6:[f1<-0.96747911] yes=13,no=14,missing=14
			13:[f7<-0.287106842] yes=23,no=24,missing=24
				23:[f4<-1.27663863] yes=41,no=42,missing=42
					41:leaf=-0.819365919
					42:leaf=-2.17782402
				24:[f11<0.446285337] yes=43,no=44,missing=44
					43:leaf=-0.286161393
					44:leaf=-1.2278024
			14:[f9<-0.0412346907] yes=25,no=26,missing=26
				25:[f4<1.56348741] yes=45,no=46,missing=46
					45:leaf=0.29477641
					46:leaf=-0.58278966
				26:[f1<-0.73758918] yes=47,no=48,missing=48
					47:leaf=0.366198838
					48:leaf=1.30263841
booster[4]:
0:[f0<-0.542236865] yes=1,no=2,missing=2
	1:[f0<-1.56378794] yes=3,no=4,missing=4
		3:[f13<3.91452622] yes=7,no=8,missing=8
			7:leaf=-2.79778314
			8:[f1<-0.0479194149] yes=15,no=16,missing=16
				15:leaf=-2.13281512
				16:leaf=-0.989347339
		4:[f5<1.00389516] yes=9,no=10,missing=10
			9:[f8<0.0547672845] yes=17,no=18,missing=18
				17:[f1<-0.0479194149] yes=29,no=30,missing=30
					29:leaf=-1.3355341
					30:leaf=-0.217741027
				18:[f13<-0.576561034] yes=31,no=32,missing=31
					31:leaf=-2.58346438
					32:leaf=-0.884612799
			10:[f1<-0.0479194149] yes=19,no=20,missing=20
				19:[f5<1.95140839] yes=33,no=34,missing=34
					33:leaf=-0.826519668
					34:leaf=0.842204571
				20:[f5<1.95140839] yes=35,no=36,missing=36
					35:leaf=0.850014567
					36:leaf=2.08036852
	2:[f5<1.00389516] yes=5,no=6,missing=6
		5:[f1<-0.96747911] yes=11,no=12,missing=12
			11:[f0<0.990089774] yes=21,no=22,missing=22
				21:[f10<-0.186954424] yes=37,no=38,missing=38
					37:leaf=-1.6832273
					38:leaf=-0.367179126
				22:[f8<0.0601783134] yes=39,no=40,missing=40
					39:leaf=-0.105710313
					40:leaf=-1.48703408
			12:[f5<-0.539032757] yes=23,no=24,missing=24
				23:[f0<0.990089774] yes=41,no=42,missing=42
					41:leaf=-0.371833593
					42:leaf=0.314993769
				24:[f1<-0.73758918] yes=43,no=44,missing=44
					43:leaf=0.118543193
					44:leaf=0.881721795
		6:[f1<-0.96747911] yes=13,no=14,missing=14
			13:[f4<-1.27663863] yes=25,no=26,missing=26
				25:leaf=-1.20841968
				26:leaf=1.29922807
			14:[f4<-0.52848959] yes=27,no=28,missing=28
				27:[f2<-0.232170418] yes=45,no=46,missing=46
					45:leaf=1.1390965
					46:leaf=2.64104819
				28:[f2<0.669908404] yes=47,no=48,missing=48
					47:leaf=2.30090261
					48:leaf=1.70163083
booster[5]:
0:[f0<-0.542236865] yes=1,no=2,missing=2
	1:[f0<-1.56378794] yes=3,no=4,missing=4
		3:[f5<2.24210715] yes=7,no=8,missing=8
			7:[f12<-0.604992688] yes=15,no=16,missing=16
				15:leaf=-2.78800797
				16:[f14<-0.0194216333] yes=29,no=30,missing=30
					29:leaf=-2.230685
					30:leaf=-1.38162482
			8:leaf=-0.68372792
		4:[f1<-0.0479194149] yes=9,no=10,missing=10
			9:[f15<-0.250720352] yes=17,no=18,missing=18
				17:[f2<-0.232170418] yes=31,no=32,missing=32
					31:leaf=-2.30509472
					32:leaf=0.787763238
				18:[f12<-0.323500305] yes=33,no=34,missing=34
					33:leaf=-0.140069813
					34:leaf=-1.48800552
			10:[f5<1.00010526] yes=19,no=20,missing=20
				19:[f12<-0.323500305] yes=35,no=36,missing=36
					35:leaf=0.0768718421
					36:leaf=-1.12971389
				20:[f5<1.95140839] yes=37,no=38,missing=38
					37:leaf=0.873379767
					38:leaf=1.82833159
	2:[f5<1.00389516] yes=5,no=6,missing=6
		5:[f1<-0.96747911] yes=11,no=12,missing=12
			11:[f8<0.845051944] yes=21,no=22,missing=22
				21:[f0<0.990089774] yes=39,no=40,missing=40
					39:leaf=-1.10948968
					40:leaf=-0.162440613
				22:leaf=-1.72148418
			12:[f4<1.56348741] yes=23,no=24,missing=24
				23:[f11<0.171493277] yes=41,no=42,missing=42
					41:leaf=0.720134974
					42:leaf=0.184304401
				24:[f0<0.990089774] yes=43,no=44,missing=44
					43:leaf=-1.26418424
					44:leaf=0.0704951286
		6:[f1<-0.96747911] yes=13,no=14,missing=14
			13:[f0<0.990089774] yes=25,no=26,missing=26
				25:leaf=-1.37142813
				26:[f4<-1.27663863] yes=45,no=46,missing=46
					45:leaf=-0.349271446
					46:leaf=1.20520627
			14:[f4<-0.52848959] yes=27,no=28,missing=28
				27:[f2<-0.232170418] yes=47,no=48,missing=48
					47:leaf=1.00830984
					48:leaf=2.42342281
				28:[f1<1.10153019] yes=49,no=50,missing=50
					49:leaf=2.18002319
					50:leaf=1.74496424
booster[6]:
0:[f0<-0.542236865] yes=1,no=2,missing=2
	1:[f5<1.0748421] yes=3,no=4,missing=4
		3:[f8<0.0643470883] yes=7,no=8,missing=8
			7:[f0<-1.56378794] yes=15,no=16,missing=16
				15:[f11<0.191421494] yes=31,no=32,missing=32
					31:leaf=-2.21928835
					32:leaf=-1.08724856
				16:[f14<0.785897315] yes=33,no=34,missing=34
					33:leaf=-0.246111467
					34:leaf=-1.28190017
			8:[f13<-0.576897383] yes=17,no=18,missing=17
				17:[f1<-0.0479194149] yes=35,no=36,missing=36
					35:leaf=-2.46714878
					36:leaf=-1.61990988
				18:[f1<-0.0479194149] yes=37,no=38,missing=38
					37:leaf=-1.53944123
					38:leaf=-0.09370251
		4:[f1<-0.852534175] yes=9,no=10,missing=10
			9:[f2<-0.232170418] yes=19,no=20,missing=20
				19:[f0<-2.0745635] yes=39,no=40,missing=40
					39:leaf=-2.84731746
					40:leaf=-0.902145565
				20:leaf=1.46102786
			10:[f5<1.95140839] yes=21,no=22,missing=22
				21:[f1<1.10153019] yes=41,no=42,missing=42
					41:leaf=0.370393366
					42:leaf=0.979424238
				22:leaf=1.84698796
	2:[f5<1.00389516] yes=5,no=6,missing=6
		5:[f1<-0.96747911] yes=11,no=12,missing=12
			11:[f13<1.95725811] yes=23,no=24,missing=24
				23:[f8<0.9049927] yes=43,no=44,missing=44
					43:leaf=-0.942651689
					44:leaf=-1.69170821
				24:[f5<-0.524705112] yes=45,no=46,missing=46
					45:leaf=0.266054422
					46:leaf=-0.755165279
			12:[f0<0.990089774] yes=25,no=26,missing=26
				25:[f5<-1.05477929] yes=47,no=48,missing=48
					47:leaf=-1.1330117
					48:leaf=0.0661017597
				26:[f2<-0.103302017] yes=49,no=50,missing=50
					49:leaf=0.488388538
					50:leaf=1.45274472
		6:[f1<-0.96747911] yes=13,no=14,missing=14
			13:[f0<0.990089774] yes=27,no=28,missing=28
				27:leaf=-1.16852057
				28:[f5<1.03747368] yes=51,no=52,missing=52
					51:leaf=1.01297903
					52:leaf=-0.321265668
			14:[f11<-1.29874313] yes=29,no=30,missing=30
				29:[f2<0.669908404] yes=53,no=54,missing=54
					53:leaf=1.86783993
					54:leaf=1.29255259
				30:[f2<-0.103302017] yes=55,no=56,missing=56
					55:leaf=1.08619237
					56:leaf=2.1718955
booster[7]:
0:[f0<-0.0314613059] yes=1,no=2,missing=2
	1:[f0<-1.56378794] yes=3,no=4,missing=4
		3:[f0<-2.0745635] yes=7,no=8,missing=8
			7:leaf=-2.60668802
			8:[f13<0.869264603] yes=15,no=16,missing=16
				15:[f11<0.126542643] yes=27,no=28,missing=28
					27:leaf=-2.42578554
					28:leaf=-1.34322739
				16:[f6<-0.813814878] yes=29,no=30,missing=30
					29:leaf=-0.620531678
					30:leaf=-1.20140111
		4:[f6<-0.810411036] yes=9,no=10,missing=10
			9:[f1<-0.96747911] yes=17,no=18,missing=18
				17:leaf=0.784986019
				18:leaf=1.48788571
			10:[f4<1.56348741] yes=19,no=20,missing=20
				19:[f14<0.588083684] yes=31,no=32,missing=32
					31:leaf=-0.130170152
					32:leaf=-1.19664299
				20:[f1<1.10153019] yes=33,no=34,missing=34
					33:leaf=-2.62522793
					34:leaf=-0.858231783
	2:[f7<-0.976978898] yes=5,no=6,missing=6
		5:[f1<-0.96747911] yes=11,no=12,missing=12
			11:leaf=0.531575799
			12:[f2<-0.103302017] yes=21,no=22,missing=22
				21:[f0<0.990089774] yes=35,no=36,missing=36
					35:leaf=1.09519386
					36:leaf=1.73881459
				22:[f2<1.95859241] yes=37,no=38,missing=38
					37:leaf=0.455899179
					38:leaf=1.45632708
		6:[f1<-0.96747911] yes=13,no=14,missing=14
			13:[f13<1.95725811] yes=23,no=24,missing=24
				23:[f7<-0.287106842] yes=39,no=40,missing=40
					39:leaf=-1.56560683
					40:leaf=-0.697762549
				24:[f6<-0.75383991] yes=41,no=42,missing=42
					41:leaf=0.321863949
					42:leaf=-0.41882658
			14:[f9<-0.0412346907] yes=25,no=26,missing=26
				25:[f0<0.990089774] yes=43,no=44,missing=44
					43:leaf=-0.268327206
					44:leaf=0.320635498
				26:[f1<-0.0479194149] yes=45,no=46,missing=46
					45:leaf=0.30365622
					46:leaf=0.98947382
booster[8]:
0:[f6<1.95485437] yes=1,no=2,missing=2
	1:[f7<-0.38218689] yes=3,no=4,missing=4
		3:[f2<0.669908404] yes=7,no=8,missing=8
			7:[f1<-0.852534175] yes=15,no=16,missing=16
				15:[f13<3.91452622] yes=27,no=28,missing=28
					27:leaf=0.173208237
					28:leaf=-0.946430266
				16:[f4<-1.46348894] yes=29,no=30,missing=30
					29:leaf=0.140335232
					30:leaf=0.816948831
			8:[f6<-0.716253698] yes=17,no=18,missing=18
				17:[f1<1.10153019] yes=31,no=32,missing=32
					31:leaf=2.03227758
					32:leaf=0.644918978
				18:[f4<-1.46348894] yes=33,no=34,missing=34
					33:leaf=0.809565783
					34:leaf=1.25256002
		4:[f1<-0.73758918] yes=9,no=10,missing=10
			9:[f2<-0.232170418] yes=19,no=20,missing=20
				19:[f4<-0.347520322] yes=35,no=36,missing=36
					35:leaf=-1.14664984
					36:leaf=-0.415208995
				20:[f4<-1.0897882] yes=37,no=38,missing=38
					37:leaf=1.85891938
					38:leaf=0.852713168
			10:[f11<0.443013161] yes=21,no=22,missing=22
				21:[f3<0.30147177] yes=39,no=40,missing=40
					39:leaf=1.01155484
					40:leaf=0.251479357
				22:[f4<0.495789915] yes=41,no=42,missing=42
					41:leaf=-0.329893082
					42:leaf=0.0182126332
	2:[f1<1.10153019] yes=5,no=6,missing=6
		5:[f4<-0.299619436] yes=11,no=12,missing=12
			11:[f1<-0.96747911] yes=23,no=24,missing=24
				23:leaf=-1.38098204
				24:[f1<-0.852534175] yes=43,no=44,missing=44
					43:leaf=-0.156831652
					44:leaf=-0.648237884
			12:leaf=-1.69947553
		6:[f2<-0.232170418] yes=13,no=14,missing=14
			13:[f3<0.30147177] yes=25,no=26,missing=26
				25:leaf=0.601082683
				26:leaf=-0.171061695
			14:leaf=-1.21822751
booster[9]:
0:[f0<-0.542236865] yes=1,no=2,missing=2
	1:[f0<-1.56378794] yes=3,no=4,missing=4
		3:[f13<1.82026362] yes=7,no=8,missing=8
			7:[f11<0.126542643] yes=15,no=16,missing=16
				15:leaf=-2.31751466
				16:leaf=-1.21309638
			8:[f0<-2.0745635] yes=17,no=18,missing=18
				17:leaf=-2.11970043
				18:[f10<-0.154596448] yes=31,no=32,missing=32
					31:leaf=-0.945158005
					32:leaf=0.029510932
		4:[f4<1.56348741] yes=9,no=10,missing=10
			9:[f1<-0.73758918] yes=19,no=20,missing=20
				19:[f2<-0.103302017] yes=33,no=34,missing=34
					33:leaf=-1.22295249
					34:leaf=0.793479323
				20:[f5<1.03747368] yes=35,no=36,missing=36
					35:leaf=-0.242768049
					36:leaf=0.989693582
			10:[f1<1.10153019] yes=21,no=22,missing=22
				21:leaf=-2.22007322
				22:leaf=-1.00200546
	2:[f5<1.00389516] yes=5,no=6,missing=6
		5:[f0<0.990089774] yes=11,no=12,missing=12
			11:[f9<-0.614277124] yes=23,no=24,missing=24
				23:[f3<0.30147177] yes=37,no=38,missing=38
					37:leaf=0.819358826
					38:leaf=-0.599576473
				24:[f1<-0.0479194149] yes=39,no=40,missing=40
					39:leaf=-0.253653616
					40:leaf=0.534107983
			12:[f2<1.95859241] yes=25,no=26,missing=26
				25:[f5<-0.210079893] yes=41,no=42,missing=42
					41:leaf=0.120992795
					42:leaf=0.670669138
				26:[f6<-0.763428271] yes=43,no=44,missing=44
					43:leaf=2.54854417
					44:leaf=0.753544271
		6:[f1<-0.96747911] yes=13,no=14,missing=14
			13:[f0<0.990089774] yes=27,no=28,missing=28
				27:leaf=-1.0606271
				28:[f4<-1.27663863] yes=45,no=46,missing=46
					45:leaf=-0.186033785
					46:leaf=1.03930378
			14:[f10<-0.903361142] yes=29,no=30,missing=30
				29:[f2<-0.232170418] yes=47,no=48,missing=48
					47:leaf=0.636820018
					48:leaf=1.79045725
				30:[f2<0.669908404] yes=49,no=50,missing=50
					49:leaf=1.44354296
					50:leaf=0.977079213
booster[10]:
0:[f0<-0.542236865] yes=1,no=2,missing=2
	1:[f6<-0.810411036] yes=3,no=4,missing=4
		3:[f0<-2.0745635] yes=7,no=8,missing=8
			7:leaf=-2.1308012
			8:[f1<1.10153019] yes=15,no=16,missing=16
				15:[f0<-1.56378794] yes=29,no=30,missing=30
					29:leaf=-0.103460513
					30:leaf=0.663908064
				16:leaf=1.81268251
		4:[f1<-0.852534175] yes=9,no=10,missing=10
			9:[f2<-0.232170418] yes=17,no=18,missing=18
				17:[f14<0.654117882] yes=31,no=32,missing=32
					31:leaf=-1.21529615
					32:leaf=-2.16144657
				18:[f0<-1.05301237] yes=33,no=34,missing=34
					33:leaf=-1.12018526
					34:leaf=0.56585288
			10:[f0<-1.56378794] yes=19,no=20,missing=20
				19:[f12<-0.612898886] yes=35,no=36,missing=36
					35:leaf=-2.03921413
					36:leaf=-1.03078604
				20:[f4<1.56348741] yes=37,no=38,missing=38
					37:leaf=-0.195016101
					38:leaf=-1.45797145
	2:[f7<-0.976978898] yes=5,no=6,missing=6
		5:[f1<-0.96747911] yes=11,no=12,missing=12
			11:[f0<0.990089774] yes=21,no=22,missing=22
				21:leaf=-1.0144856
				22:leaf=1.03282559
			12:[f11<-1.30811274] yes=23,no=24,missing=24
				23:leaf=1.98326468
				24:[f4<-0.52848959] yes=39,no=40,missing=40
					39:leaf=0.654889047
					40:leaf=1.23924422
		6:[f1<-0.96747911] yes=13,no=14,missing=14
			13:[f7<-0.287106842] yes=25,no=26,missing=26
				25:[f4<-1.27663863] yes=41,no=42,missing=42
					41:leaf=-0.596303999
					42:leaf=-1.31443465
				26:[f0<0.990089774] yes=43,no=44,missing=44
					43:leaf=-0.848169446
					44:leaf=-0.125846177
			14:[f16<-0.126747429] yes=27,no=28,missing=27
				27:[f3<0.30147177] yes=45,no=46,missing=46
					45:leaf=0.496243209
					46:leaf=-0.0590480827
				28:[f1<-0.73758918] yes=47,no=48,missing=48
					47:leaf=0.189028144
					48:leaf=0.812663555
booster[11]:
0:[f0<-0.542236865] yes=1,no=2,missing=2
	1:[f0<-1.56378794] yes=3,no=4,missing=4
		3:[f13<1.57206309] yes=7,no=8,missing=8
			7:[f11<0.126542643] yes=15,no=16,missing=16
				15:leaf=-1.86560977
				16:leaf=-1.15267348
			8:[f0<-2.0745635] yes=17,no=18,missing=18
				17:leaf=-1.92718661
				18:[f10<-0.154596448] yes=31,no=32,missing=32
					31:leaf=-0.853101254
					32:leaf=-0.447364032
		4:[f1<-0.0479194149] yes=9,no=10,missing=10
			9:[f15<-0.230732381] yes=19,no=20,missing=20
				19:[f2<-0.103302017] yes=33,no=34,missing=34
					33:leaf=-1.19311225
					34:leaf=0.671117008
				20:[f6<-0.75383991] yes=35,no=36,missing=36
					35:leaf=0.537083268
					36:leaf=-0.557621419
			10:[f6<1.95485437] yes=21,no=22,missing=22
				21:[f11<0.126542643] yes=37,no=38,missing=38
					37:leaf=0.75126338
					38:leaf=-0.0969602987
				22:[f1<1.10153019] yes=39,no=40,missing=40
					39:leaf=-1.33857036
					40:leaf=-0.50224334
	2:[f10<1.46126413] yes=5,no=6,missing=6
		5:[f1<-0.96747911] yes=11,no=12,missing=12
			11:[f12<-0.310268253] yes=23,no=24,missing=24
				23:[f4<-0.437396944] yes=41,no=42,missing=42
					41:leaf=-0.889566958
					42:leaf=0.00179930404
				24:[f0<0.990089774] yes=43,no=44,missing=44
					43:leaf=-1.15814924
					44:leaf=-0.765980303
			12:[f10<-0.851925373] yes=25,no=26,missing=26
				25:[f2<0.669908404] yes=45,no=46,missing=46
					45:leaf=0.417952389
					46:leaf=1.37745583
				26:[f0<0.990089774] yes=47,no=48,missing=48
					47:leaf=-0.0950886086
					48:leaf=0.324064374
		6:[f1<-0.96747911] yes=13,no=14,missing=14
			13:[f0<0.990089774] yes=27,no=28,missing=28
				27:leaf=-0.938224435
				28:leaf=1.2865876
			14:[f2<4.53596067] yes=29,no=30,missing=30
				29:leaf=1.07246661
				30:[f0<0.990089774] yes=49,no=50,missing=50
					49:leaf=1.10518265
					50:leaf=0.154066145
booster[12]:
0:[f0<-0.542236865] yes=1,no=2,missing=2
	1:[f0<-1.56378794] yes=3,no=4,missing=4
		3:[f12<-0.604992688] yes=7,no=8,missing=8
			7:leaf=-1.84536505
			8:[f1<-0.0479194149] yes=15,no=16,missing=16
				15:leaf=-1.25415146
				16:[f13<-0.579251766] yes=29,no=30,missing=30
					29:leaf=-0.92582649
					30:leaf=-0.428339869
		4:[f1<-0.0479194149] yes=9,no=10,missing=10
			9:[f2<-0.232170418] yes=17,no=18,missing=18
				17:[f10<-0.172847196] yes=31,no=32,missing=32
					31:leaf=-1.17551827
					32:leaf=-0.234983861
				18:[f5<-0.210079893] yes=33,no=34,missing=34
					33:leaf=-0.0471570976
					34:leaf=1.18289948
			10:[f5<-0.154743433] yes=19,no=20,missing=20
				19:[f3<0.30147177] yes=35,no=36,missing=36
					35:leaf=0.620366633
					36:leaf=-0.338125706
				20:[f9<-0.718507826] yes=37,no=38,missing=38
					37:leaf=1.56509101
					38:leaf=0.481498808
	2:[f5<0.103263006] yes=5,no=6,missing=6
		5:[f4<1.56348741] yes=11,no=12,missing=12
			11:[f1<-0.96747911] yes=21,no=22,missing=22
				21:[f13<1.95725811] yes=39,no=40,missing=40
					39:leaf=-0.648298025
					40:leaf=0.0287558697
				22:[f0<0.990089774] yes=41,no=42,missing=42
					41:leaf=0.0519240163
					42:leaf=0.286661327
			12:[f3<0.30147177] yes=23,no=24,missing=24
				23:leaf=0.596593082
				24:[f1<-0.0479194149] yes=43,no=44,missing=44
					43:leaf=-1.13210487
					44:leaf=-0.412566036
		6:[f1<-0.96747911] yes=13,no=14,missing=14
			13:[f5<1.00389516] yes=25,no=26,missing=26
				25:leaf=-0.710365236
				26:[f0<0.990089774] yes=45,no=46,missing=46
					45:leaf=-0.622556448
					46:leaf=0.746631086
			14:[f1<-0.73758918] yes=27,no=28,missing=28
				27:[f2<-0.232170418] yes=47,no=48,missing=48
					47:leaf=0.1087685
					48:leaf=1.6199733
				28:[f2<-0.232170418] yes=49,no=50,missing=50
					49:leaf=0.951933742
					50:leaf=0.600338936
booster[13]:
0:[f0<-0.542236865] yes=1,no=2,missing=2
	1:[f4<1.56348741] yes=3,no=4,missing=4
		3:[f0<-1.05301237] yes=7,no=8,missing=8
			7:[f16<-0.531081438] yes=15,no=16,missing=15
				15:[f0<-2.0745635] yes=27,no=28,missing=28
					27:leaf=-1.40370572
					28:leaf=-0.261126667
				16:[f11<0.126542643] yes=29,no=30,missing=30
					29:leaf=-1.43384123
					30:leaf=-0.850868523
			8:[f14<0.59114033] yes=17,no=18,missing=18
				17:[f6<-0.75383991] yes=31,no=32,missing=32
					31:leaf=0.601770341
					32:leaf=-0.0111502213
				18:[f1<-0.852534175] yes=33,no=34,missing=34
					33:leaf=-1.31910264
					34:leaf=-0.34358874
		4:[f1<1.10153019] yes=9,no=10,missing=10
			9:leaf=-1.63785088
			10:leaf=-0.0916875079
	2:[f7<-0.976978898] yes=5,no=6,missing=6
		5:[f1<-0.96747911] yes=11,no=12,missing=12
			11:[f0<0.990089774] yes=19,no=20,missing=20
				19:leaf=-0.820896983
				20:leaf=0.555869043
			12:[f1<1.10153019] yes=21,no=22,missing=22
				21:[f0<0.990089774] yes=35,no=36,missing=36
					35:leaf=0.87221992
					36:leaf=1.35187566
				22:[f2<-0.232170418] yes=37,no=38,missing=38
					37:leaf=0.921662271
					38:leaf=0.453322083
		6:[f16<-0.126747429] yes=13,no=14,missing=13
			13:[f7<0.249252334] yes=23,no=24,missing=24
				23:[f1<1.10153019] yes=39,no=40,missing=40
					39:leaf=-0.851265728
					40:leaf=0.0792369395
				24:[f1<-0.96747911] yes=41,no=42,missing=42
					41:leaf=-0.267232478
					42:leaf=0.121937074
			14:[f1<-0.852534175] yes=25,no=26,missing=26
				25:[f2<-0.103302017] yes=43,no=44,missing=44
					43:leaf=-0.373360515
					44:leaf=1.28113294
				26:[f11<0.0229127947] yes=45,no=46,missing=46
					45:leaf=0.826296806
					46:leaf=0.229940981
booster[14]:
0:[f0<-0.542236865] yes=1,no=2,missing=2
	1:[f0<-1.56378794] yes=3,no=4,missing=4
		3:[f12<-0.604992688] yes=7,no=8,missing=8
			7:[f0<-2.0745635] yes=15,no=16,missing=16
				15:leaf=-1.75770748
				16:[f6<-0.810411036] yes=27,no=28,missing=28
					27:leaf=-0.397472203
					28:leaf=-1.40654695
			8:leaf=-0.870835125
		4:[f1<-0.0479194149] yes=9,no=10,missing=10
			9:[f2<-0.103302017] yes=17,no=18,missing=18
				17:[f15<-0.261236638] yes=29,no=30,missing=30
					29:leaf=-1.22300792
					30:leaf=-0.373576313
				18:[f7<-0.439395398] yes=31,no=32,missing=32
					31:leaf=1.09796047
					32:leaf=0.190366745
			10:[f6<1.95485437] yes=19,no=20,missing=20
				19:[f7<0.150261462] yes=33,no=34,missing=34
					33:leaf=0.547862053
					34:leaf=-0.10853181
				20:[f4<-0.299619436] yes=35,no=36,missing=36
					35:leaf=-0.445240349
					36:leaf=-0.846647918
	2:[f7<-0.976978898] yes=5,no=6,missing=6
		5:[f11<-1.30811274] yes=11,no=12,missing=12
			11:leaf=1.49323225
			12:[f1<-0.96747911] yes=21,no=22,missing=22
				21:[f0<0.990089774] yes=37,no=38,missing=38
					37:leaf=-0.759188414
					38:leaf=0.943315208
				22:[f2<4.53596067] yes=39,no=40,missing=40
					39:leaf=0.7875489
					40:leaf=0.404772997
		6:[f1<-0.96747911] yes=13,no=14,missing=14
			13:[f0<0.990089774] yes=23,no=24,missing=24
				23:[f16<-1.06593633] yes=41,no=42,missing=41
					41:leaf=-0.135507494
					42:leaf=-0.906233549
				24:[f8<0.0601783134] yes=43,no=44,missing=44
					43:leaf=0.0239317231
					44:leaf=-0.51177448
			14:[f9<-0.39827165] yes=25,no=26,missing=26
				25:[f3<0.30147177] yes=45,no=46,missing=46
					45:leaf=0.351955831
					46:leaf=-0.143597797
				26:[f1<-0.0479194149] yes=47,no=48,missing=48
					47:leaf=0.0813095421
					48:leaf=0.535469711
booster[15]:
0:[f0<0.990089774] yes=1,no=2,missing=2
	1:[f6<1.95485437] yes=3,no=4,missing=4
		3:[f14<0.654117882] yes=7,no=8,missing=8
			7:[f0<-1.05301237] yes=15,no=16,missing=16
				15:[f8<-0.428281546] yes=27,no=28,missing=28
					27:leaf=-0.590818644
					28:leaf=-1.19150662
				16:[f7<0.241074651] yes=29,no=30,missing=30
					29:leaf=0.383171052
					30:leaf=0.0218879078
			8:[f2<-0.232170418] yes=17,no=18,missing=18
				17:[f12<-0.644695163] yes=31,no=32,missing=32
					31:leaf=-1.0750562
					32:leaf=-0.553338468
				18:[f9<0.693401396] yes=33,no=34,missing=34
					33:leaf=-0.333516657
					34:leaf=0.729797125
		4:[f4<-0.299619436] yes=9,no=10,missing=10
			9:leaf=-0.524636984
			10:[f0<-0.542236865] yes=19,no=20,missing=20
				19:leaf=-1.07392371
				20:[f2<-0.232170418] yes=35,no=36,missing=36
					35:leaf=-0.572271407
					36:leaf=-0.988193035
	2:[f5<-0.168441921] yes=5,no=6,missing=6
		5:[f2<-0.103302017] yes=11,no=12,missing=12
			11:[f13<1.95725811] yes=21,no=22,missing=22
				21:[f0<1.85840809] yes=37,no=38,missing=38
					37:leaf=-0.0777068883
					38:leaf=0.673825026
				22:[f4<-0.363119781] yes=39,no=40,missing=40
					39:leaf=-0.335280389
					40:leaf=0.437101424
			12:[f6<-0.763428271] yes=23,no=24,missing=24
				23:leaf=2.14121437
				24:[f5<-0.185844332] yes=41,no=42,missing=42
					41:leaf=0.588570476
					42:leaf=-0.258409172
		6:[f2<4.53596067] yes=13,no=14,missing=14
			13:[f15<-0.250720352] yes=25,no=26,missing=26
				25:[f2<-0.232170418] yes=43,no=44,missing=44
					43:leaf=0.49776724
					44:leaf=1.42868948
				26:[f2<0.669908404] yes=45,no=46,missing=46
					45:leaf=0.920571804
					46:leaf=0.457592875
			14:leaf=-0.0366660617
booster[16]:
0:[f0<-0.542236865] yes=1,no=2,missing=2
	1:[f0<-1.05301237] yes=3,no=4,missing=4
		3:[f0<-2.0745635] yes=7,no=8,missing=8
			7:leaf=-1.55191004
			8:[f8<-0.433612317] yes=15,no=16,missing=16
				15:[f4<-0.52848959] yes=29,no=30,missing=30
					29:leaf=0.36298722
					30:leaf=-0.406300813
				16:[f12<-0.604992688] yes=31,no=32,missing=32
					31:leaf=-1.13067973
					32:leaf=-0.718234062
		4:[f1<-0.0479194149] yes=9,no=10,missing=10
			9:[f5<1.0748421] yes=17,no=18,missing=18
				17:[f7<1.69649601] yes=33,no=34,missing=34
					33:leaf=-0.697160721
					34:leaf=0.483566254
				18:[f4<-1.27663863] yes=35,no=36,missing=36
					35:leaf=-0.0472627208
					36:leaf=0.584725201
			10:[f4<0.503138661] yes=19,no=20,missing=20
				19:[f5<1.00010526] yes=37,no=38,missing=38
					37:leaf=0.223350689
					38:leaf=0.846464813
				20:[f1<1.10153019] yes=39,no=40,missing=40
					39:leaf=-0.990676701
					40:leaf=-0.239749402
	2:[f5<1.00389516] yes=5,no=6,missing=6
		5:[f1<-0.96747911] yes=11,no=12,missing=12
			11:[f7<1.69649601] yes=21,no=22,missing=22
				21:[f8<0.9049927] yes=41,no=42,missing=42
					41:leaf=-0.40856111
					42:leaf=-0.810534537
				22:leaf=0.444825619
			12:[f4<1.56348741] yes=23,no=24,missing=24
				23:[f0<0.990089774] yes=43,no=44,missing=44
					43:leaf=0.104821451
					44:leaf=0.282068044
				24:[f3<0.30147177] yes=45,no=46,missing=46
					45:leaf=0.444164187
					46:leaf=-0.505739033
		6:[f1<-0.96747911] yes=13,no=14,missing=14
			13:[f0<0.990089774] yes=25,no=26,missing=26
				25:leaf=-0.673630953
				26:leaf=0.508048654
			14:[f1<1.10153019] yes=27,no=28,missing=28
				27:[f0<0.990089774] yes=47,no=48,missing=48
					47:leaf=0.440568298
					48:leaf=0.967283309
				28:[f0<0.990089774] yes=49,no=50,missing=50
					49:leaf=0.797207594
					50:leaf=0.356043458
booster[17]:
0:[f0<-0.542236865] yes=1,no=2,missing=2
	1:[f0<-1.05301237] yes=3,no=4,missing=4
		3:[f7<0.261314958] yes=7,no=8,missing=8
			7:[f0<-2.0745635] yes=15,no=16,missing=16
				15:leaf=-1.47525179
				16:[f9<-0.718507826] yes=31,no=32,missing=32
					31:leaf=-0.357460529
					32:leaf=-0.948638976
			8:[f0<-2.0745635] yes=17,no=18,missing=18
				17:leaf=-0.784341812
				18:[f4<0.481691122] yes=33,no=34,missing=34
					33:leaf=0.160498708
					34:leaf=-0.369728595
		4:[f1<-0.0479194149] yes=9,no=10,missing=10
			9:[f2<0.669908404] yes=19,no=20,missing=20
				19:[f15<-0.250720352] yes=35,no=36,missing=36
					35:leaf=-0.882715821
					36:leaf=-0.205845967
				20:[f7<-0.439395398] yes=37,no=38,missing=38
					37:leaf=1.54999542
					38:leaf=0.349494189
			10:[f4<0.501776457] yes=21,no=22,missing=22
				21:[f9<1.94659328] yes=39,no=40,missing=40
					39:leaf=0.386351585
					40:leaf=-0.635487795
				22:[f1<1.10153019] yes=41,no=42,missing=42
					41:leaf=-0.902414143
					42:leaf=-0.197534725
	2:[f1<-0.96747911] yes=5,no=6,missing=6
		5:[f0<0.990089774] yes=11,no=12,missing=12
			11:[f4<0.458230168] yes=23,no=24,missing=24
				23:[f9<1.93330395] yes=43,no=44,missing=44
					43:leaf=-0.816686332
					44:leaf=-0.178884044
				24:[f4<1.56348741] yes=45,no=46,missing=46
					45:leaf=-0.0141675174
					46:leaf=-0.529488802
			12:[f4<0.496739209] yes=25,no=26,missing=26
				25:[f4<-0.395472974] yes=47,no=48,missing=48
					47:leaf=-0.308506578
					48:leaf=0.570651174
				26:leaf=-0.757499158
		6:[f4<1.56348741] yes=13,no=14,missing=14
			13:[f11<-0.416591853] yes=27,no=28,missing=28
				27:[f2<1.95859241] yes=49,no=50,missing=50
					49:leaf=0.442600369
					50:leaf=0.751738846
				28:[f0<0.990089774] yes=51,no=52,missing=52
					51:leaf=0.034238372
					52:leaf=0.225461811
			14:[f1<1.10153019] yes=29,no=30,missing=30
				29:[f1<-0.0479194149] yes=53,no=54,missing=54
					53:leaf=-0.88517952
					54:leaf=-0.440622896
				30:[f2<-0.232170418] yes=55,no=56,missing=56
					55:leaf=0.2770845
					56:leaf=-0.832343519
booster[18]:
0:[f0<-0.0314613059] yes=1,no=2,missing=2
	1:[f5<1.0748421] yes=3,no=4,missing=4
		3:[f7<-0.325138867] yes=7,no=8,missing=8
			7:[f2<-0.103302017] yes=15,no=16,missing=16
				15:[f4<-1.46348894] yes=29,no=30,missing=30
					29:leaf=0.208712012
					30:leaf=-0.781380236
				16:[f2<1.95859241] yes=31,no=32,missing=32
					31:leaf=0.556464851
					32:leaf=0.0152706997
			8:[f12<-0.310688257] yes=17,no=18,missing=18
				17:[f3<0.30147177] yes=33,no=34,missing=34
					33:leaf=0.506671786
					34:leaf=-0.192663848
				18:leaf=-0.552570343
		4:[f0<-2.0745635] yes=9,no=10,missing=10
			9:leaf=-1.28224552
			10:[f4<-1.27663863] yes=19,no=20,missing=20
				19:[f2<-0.232170418] yes=35,no=36,missing=36
					35:leaf=-0.150289997
					36:leaf=0.846245885
				20:leaf=0.716941774
	2:[f5<1.00389516] yes=5,no=6,missing=6
		5:[f0<0.990089774] yes=11,no=12,missing=12
			11:[f10<-0.186954424] yes=21,no=22,missing=22
				21:[f13<-0.58050102] yes=37,no=38,missing=38
					37:leaf=-0.592082322
					38:leaf=-0.0757056922
				22:[f14<0.430930793] yes=39,no=40,missing=40
					39:leaf=0.368745655
					40:leaf=-0.0211800467
			12:[f4<0.502292335] yes=23,no=24,missing=24
				23:[f2<1.95859241] yes=41,no=42,missing=42
					41:leaf=0.243190601
					42:leaf=0.919161439
				24:[f2<-0.232170418] yes=43,no=44,missing=44
					43:leaf=-0.152264684
					44:leaf=0.349020779
		6:[f2<1.95859241] yes=13,no=14,missing=14
			13:[f2<0.669908404] yes=25,no=26,missing=26
				25:[f10<-0.903361142] yes=45,no=46,missing=46
					45:leaf=0.280258149
					46:leaf=0.598619878
				26:[f4<-1.27663863] yes=47,no=48,missing=48
					47:leaf=0.62357986
					48:leaf=-0.411576867
			14:[f4<-1.27663863] yes=27,no=28,missing=28
				27:leaf=1.10815609
				28:[f0<0.990089774] yes=49,no=50,missing=50
					49:leaf=0.789359868
					50:leaf=0.325483143
booster[19]:
0:[f0<0.990089774] yes=1,no=2,missing=2
	1:[f14<0.765398324] yes=3,no=4,missing=4
		3:[f6<1.95485437] yes=7,no=8,missing=8
			7:[f0<-1.05301237] yes=15,no=16,missing=16
				15:[f0<-2.0745635] yes=31,no=32,missing=32
					31:leaf=-0.906782389
					32:leaf=-0.517033041
				16:[f2<-0.361038834] yes=33,no=34,missing=34
					33:leaf=-1.66461229
					34:leaf=0.173693731
			8:[f4<-0.299619436] yes=17,no=18,missing=18
				17:leaf=-0.245906249
				18:[f0<-0.542236865] yes=35,no=36,missing=36
					35:leaf=-0.797186732
					36:leaf=-0.471674591
		4:[f2<-0.232170418] yes=9,no=10,missing=10
			9:[f12<-0.644695163] yes=19,no=20,missing=20
				19:leaf=-0.934814572
				20:[f0<-0.542236865] yes=37,no=38,missing=38
					37:leaf=-0.50502038
					38:leaf=-0.318961024
			10:[f5<0.496048391] yes=21,no=22,missing=22
				21:[f2<4.53596067] yes=39,no=40,missing=40
					39:leaf=0.091802828
					40:leaf=-0.319445163
				22:leaf=0.817675352
	2:[f5<-0.177178025] yes=5,no=6,missing=6
		5:[f2<1.95859241] yes=11,no=12,missing=12
			11:[f12<-0.439304501] yes=23,no=24,missing=24
				23:[f0<1.85840809] yes=41,no=42,missing=42
					41:leaf=-0.365352094
					42:leaf=0.117703393
				24:[f4<-0.363119781] yes=43,no=44,missing=44
					43:leaf=-0.172710553
					44:leaf=0.195626736
			12:[f6<-0.763428271] yes=25,no=26,missing=26
				25:leaf=1.85166979
				26:[f5<-0.210079893] yes=45,no=46,missing=46
					45:leaf=0.484902829
					46:leaf=0.0356410965
		6:[f2<0.669908404] yes=13,no=14,missing=14
			13:[f9<0.516444981] yes=27,no=28,missing=28
				27:[f3<-1.74771214] yes=47,no=48,missing=48
					47:leaf=0.457024157
					48:leaf=0.7226125
				28:[f13<-0.578963459] yes=49,no=50,missing=49
					49:leaf=0.262364268
					50:leaf=0.474353135
			14:[f4<-1.27663863] yes=29,no=30,missing=30
				29:leaf=0.98241955
				30:[f2<1.95859241] yes=51,no=52,missing=52
					51:leaf=-0.368623555
					52:leaf=0.2572712
booster[20]:
0:[f0<0.990089774] yes=1,no=2,missing=2
	1:[f4<1.56348741] yes=3,no=4,missing=4
		3:[f0<-1.05301237] yes=7,no=8,missing=8
			7:[f4<0.424447387] yes=15,no=16,missing=16
				15:[f0<-2.0745635] yes=27,no=28,missing=28
					27:leaf=-1.00250185
					28:leaf=-0.615508854
				16:[f0<-1.56378794] yes=29,no=30,missing=30
					29:leaf=-0.283239484
					30:leaf=0.0217812154
			8:[f14<0.434152544] yes=17,no=18,missing=18
				17:[f5<-0.246772274] yes=31,no=32,missing=32
					31:leaf=0.0356390737
					32:leaf=0.358525664
				18:[f2<-0.232170418] yes=33,no=34,missing=34
					33:leaf=-0.342187524
					34:leaf=0.159313485
		4:[f0<-0.542236865] yes=9,no=10,missing=10
			9:leaf=-0.799334764
			10:leaf=-0.502005339
	2:[f4<0.47606954] yes=5,no=6,missing=6
		5:[f2<1.95859241] yes=11,no=12,missing=12
			11:[f12<2.14623785] yes=19,no=20,missing=20
				19:[f2<0.669908404] yes=35,no=36,missing=36
					35:leaf=0.40993306
					36:leaf=-0.23273614
				20:[f2<-0.232170418] yes=37,no=38,missing=38
					37:leaf=-0.0946132839
					38:leaf=0.797896445
			12:[f5<-0.539032757] yes=21,no=22,missing=22
				21:leaf=1.72434163
				22:[f11<0.1020898] yes=39,no=40,missing=40
					39:leaf=0.549440861
					40:leaf=0.0329618044
		6:[f2<-0.232170418] yes=13,no=14,missing=14
			13:[f8<-0.441543192] yes=23,no=24,missing=24
				23:[f0<1.85840809] yes=41,no=42,missing=42
					41:leaf=-0.327189475
					42:leaf=0.132252097
				24:[f3<0.30147177] yes=43,no=44,missing=44
					43:leaf=0.349132806
					44:leaf=-0.113772765
			14:[f2<1.95859241] yes=25,no=26,missing=26
				25:leaf=0.178528547
				26:leaf=0.482943386
booster[21]:
0:[f0<-1.05301237] yes=1,no=2,missing=2
	1:[f16<-0.901635528] yes=3,no=4,missing=3
		3:[f4<0.348212421] yes=7,no=8,missing=8
			7:[f0<-1.56378794] yes=15,no=16,missing=16
				15:[f0<-2.0745635] yes=29,no=30,missing=30
					29:leaf=-0.459089309
					30:leaf=-0.167684928
				16:leaf=-0.636374414
			8:[f0<-1.56378794] yes=17,no=18,missing=18
				17:leaf=-0.163918763
				18:leaf=-0.0174675137
		4:[f8<-0.717047393] yes=9,no=10,missing=10
			9:leaf=-1.23643553
			10:[f13<-0.576561034] yes=19,no=20,missing=19
				19:[f11<0.126542643] yes=31,no=32,missing=32
					31:leaf=-0.836452305
					32:leaf=-0.477305025
				20:leaf=-0.432046622
	2:[f1<-0.0479194149] yes=5,no=6,missing=6
		5:[f2<-0.232170418] yes=11,no=12,missing=12
			11:[f15<-0.26147452] yes=21,no=22,missing=22
				21:[f1<-0.852534175] yes=33,no=34,missing=34
					33:leaf=-0.880838931
					34:leaf=-0.149481744
				22:[f14<0.654117882] yes=35,no=36,missing=36
					35:leaf=0.1040399
					36:leaf=-0.47466588
			12:[f14<-0.0194216333] yes=23,no=24,missing=24
				23:[f2<0.669908404] yes=37,no=38,missing=38
					37:leaf=-0.165249214
					38:leaf=0.488007963
				24:[f0<-0.542236865] yes=39,no=40,missing=40
					39:leaf=0.412342131
					40:leaf=1.20865905
		6:[f5<-0.189866975] yes=13,no=14,missing=14
			13:[f2<-0.232170418] yes=25,no=26,missing=26
				25:[f1<1.10153019] yes=41,no=42,missing=42
					41:leaf=-0.147915617
					42:leaf=0.200846821
				26:[f6<-0.75383991] yes=43,no=44,missing=44
					43:leaf=-0.892662644
					44:leaf=-0.181820229
			14:[f13<-0.578963459] yes=27,no=28,missing=27
				27:[f0<0.990089774] yes=45,no=46,missing=46
					45:leaf=0.487660408
					46:leaf=0.220068276
				28:[f5<2.24210715] yes=47,no=48,missing=48
					47:leaf=0.926797986
					48:leaf=-0.026968427
booster[22]:
0:[f5<1.00389516] yes=1,no=2,missing=2
	1:[f0<-0.542236865] yes=3,no=4,missing=4
		3:[f11<-0.435340285] yes=7,no=8,missing=8
			7:[f7<-0.976978898] yes=15,no=16,missing=16
				15:[f0<-1.56378794] yes=27,no=28,missing=28
					27:leaf=-0.702731311
					28:leaf=-0.247894213
				16:leaf=-0.708933473
			8:[f14<0.587418437] yes=17,no=18,missing=18
				17:[f0<-1.56378794] yes=29,no=30,missing=30
					29:leaf=-0.350074351
					30:leaf=0.0700681582
				18:[f5<1.00010526] yes=31,no=32,missing=32
					31:leaf=-0.328406334
					32:leaf=0.220197052
		4:[f0<0.990089774] yes=9,no=10,missing=10
			9:[f14<0.765398324] yes=19,no=20,missing=20
				19:[f12<-0.436591089] yes=33,no=34,missing=34
					33:leaf=0.22537829
					34:leaf=-0.134880111
				20:[f2<-0.232170418] yes=35,no=36,missing=36
					35:leaf=-0.400924444
					36:leaf=0.0723284706
			10:[f6<0.0360554233] yes=21,no=22,missing=22
				21:[f2<1.95859241] yes=37,no=38,missing=38
					37:leaf=0.182833299
					38:leaf=0.967092931
				22:[f2<-0.103302017] yes=39,no=40,missing=40
					39:leaf=-0.104113132
					40:leaf=0.271258473
	2:[f0<-1.05301237] yes=5,no=6,missing=6
		5:[f0<-2.0745635] yes=11,no=12,missing=12
			11:leaf=-1.00343883
			12:[f5<2.24210715] yes=23,no=24,missing=24
				23:leaf=-0.587492466
				24:leaf=-0.0942324623
		6:[f2<-0.361038834] yes=13,no=14,missing=14
			13:leaf=-1.82561982
			14:[f9<-0.718507826] yes=25,no=26,missing=26
				25:leaf=0.694944143
				26:[f2<1.95859241] yes=41,no=42,missing=42
					41:leaf=0.266108215
					42:leaf=0.463511795
booster[23]:
0:[f0<0.990089774] yes=1,no=2,missing=2
	1:[f5<1.95140839] yes=3,no=4,missing=4
		3:[f2<-0.232170418] yes=7,no=8,missing=8
			7:[f11<0.126542643] yes=15,no=16,missing=16
				15:[f2<-0.361038834] yes=29,no=30,missing=30
					29:leaf=-1.43002403
					30:leaf=-0.340533882
				16:[f4<-0.347520322] yes=31,no=32,missing=32
					31:leaf=-0.35053584
					32:leaf=0.0554485805
			8:[f5<-0.519085348] yes=17,no=18,missing=18
				17:[f2<4.53596067] yes=33,no=34,missing=34
					33:leaf=-0.0524107814
					34:leaf=-0.65485394
				18:[f5<0.496048391] yes=35,no=36,missing=36
					35:leaf=0.250588208
					36:leaf=0.706510425
		4:[f0<-2.0745635] yes=9,no=10,missing=10
			9:leaf=-0.883907855
			10:[f0<-0.542236865] yes=19,no=20,missing=20
				19:[f0<-1.56378794] yes=37,no=38,missing=38
					37:leaf=0.41495356
					38:leaf=0.698750794
				20:leaf=0.367108345
	2:[f5<-0.181115776] yes=5,no=6,missing=6
		5:[f2<1.95859241] yes=11,no=12,missing=12
			11:[f9<-0.761414289] yes=21,no=22,missing=22
				21:[f3<0.30147177] yes=39,no=40,missing=40
					39:leaf=0.427863896
					40:leaf=0.0611594841
				22:[f6<0.0361433476] yes=41,no=42,missing=42
					41:leaf=0.024958428
					42:leaf=-0.260247707
			12:[f6<-0.763428271] yes=23,no=24,missing=24
				23:leaf=1.43825722
				24:leaf=0.272238404
		6:[f2<0.669908404] yes=13,no=14,missing=14
			13:[f9<0.516444981] yes=25,no=26,missing=26
				25:[f3<-1.74771214] yes=43,no=44,missing=44
					43:leaf=0.341687173
					44:leaf=0.56113857
				26:[f0<2.01164079] yes=45,no=46,missing=46
					45:leaf=0.266678482
					46:leaf=-0.0822373852
			14:[f2<1.95859241] yes=27,no=28,missing=28
				27:leaf=-0.519716918
				28:leaf=0.272305727
booster[24]:
0:[f1<-0.73758918] yes=1,no=2,missing=2
	1:[f2<-0.232170418] yes=3,no=4,missing=4
		3:[f10<-0.172847196] yes=7,no=8,missing=8
			7:[f0<0.990089774] yes=15,no=16,missing=16
				15:[f14<0.785897315] yes=31,no=32,missing=32
					31:leaf=-0.501853645
					32:leaf=-0.846401989
				16:[f6<0.021067502] yes=33,no=34,missing=34
					33:leaf=0.00141109223
					34:leaf=-0.912033975
			8:[f0<-0.0314613059] yes=17,no=18,missing=18
				17:[f6<0.0358598009] yes=35,no=36,missing=36
					35:leaf=0.0353912264
					36:leaf=-0.50750035
				18:[f14<-1.06188476] yes=37,no=38,missing=38
					37:leaf=0.613244951
					38:leaf=0.0360270888
		4:[f14<0.273421615] yes=9,no=10,missing=10
			9:[f0<-0.542236865] yes=19,no=20,missing=20
				19:leaf=-0.540381134
				20:[f2<1.95859241] yes=39,no=40,missing=40
					39:leaf=0.134183601
					40:leaf=0.559239745
			10:[f0<-0.542236865] yes=21,no=22,missing=22
				21:[f4<-1.27663863] yes=41,no=42,missing=42
					41:leaf=0.671766341
					42:leaf=0.0193687212
				22:[f3<-3.38705921] yes=43,no=44,missing=44
					43:leaf=0.449707419
					44:leaf=1.18280029
	2:[f5<-0.196053103] yes=5,no=6,missing=6
		5:[f2<-0.232170418] yes=11,no=12,missing=12
			11:[f1<1.10153019] yes=23,no=24,missing=24
				23:[f6<0.1474628] yes=45,no=46,missing=46
					45:leaf=0.024415303
					46:leaf=-0.460204989
				24:[f6<0.0353793874] yes=47,no=48,missing=48
					47:leaf=0.352321833
					48:leaf=0.0425915644
			12:[f1<1.10153019] yes=25,no=26,missing=26
				25:leaf=0.481938452
				26:[f10<-0.186954424] yes=49,no=50,missing=50
					49:leaf=-0.67679584
					50:leaf=-0.29967916
		6:[f0<-1.05301237] yes=13,no=14,missing=14
			13:[f12<-0.604992688] yes=27,no=28,missing=28
				27:leaf=-0.622391403
				28:[f4<-1.27663863] yes=51,no=52,missing=52
					51:leaf=-0.281033993
					52:leaf=-0
			14:[f1<-0.0479194149] yes=29,no=30,missing=30
				29:[f14<1.29837298] yes=53,no=54,missing=54
					53:leaf=0.218660325
					54:leaf=-1.21652544
				30:[f0<0.990089774] yes=55,no=56,missing=56
					55:leaf=0.53984338
					56:leaf=0.206837803
booster[25]:
0:[f1<-0.96747911] yes=1,no=2,missing=2
	1:[f8<0.054535877] yes=3,no=4,missing=4
		3:[f14<0.785897315] yes=7,no=8,missing=8
			7:[f6<0.0358598009] yes=15,no=16,missing=16
				15:[f0<0.990089774] yes=29,no=30,missing=30
					29:leaf=0.0769690573
					30:leaf=0.478152543
				16:[f0<-0.0314613059] yes=31,no=32,missing=32
					31:leaf=-0.592714965
					32:leaf=-0.0821916908
			8:[f0<0.990089774] yes=17,no=18,missing=18
				17:leaf=-0.616132915
				18:[f4<-1.0897882] yes=33,no=34,missing=34
					33:leaf=-0.217850283
					34:leaf=0.231697425
		4:[f0<-0.542236865] yes=9,no=10,missing=10
			9:[f7<-0.325138867] yes=19,no=20,missing=20
				19:[f9<1.94659328] yes=35,no=36,missing=36
					35:leaf=-1.23745346
					36:leaf=-0.546916485
				20:leaf=-0.343903452
			10:[f9<2.11005306] yes=21,no=22,missing=22
				21:[f12<-0.303153127] yes=37,no=38,missing=38
					37:leaf=-0.634414315
					38:leaf=-0.166111395
				22:leaf=0.122763909
	2:[f0<-1.05301237] yes=5,no=6,missing=6
		5:[f0<-2.0745635] yes=11,no=12,missing=12
			11:leaf=-0.988361955
			12:[f10<1.52089131] yes=23,no=24,missing=24
				23:[f13<-0.58050102] yes=39,no=40,missing=40
					39:leaf=-0.64498055
					40:leaf=-0.361493617
				24:[f4<-0.52848959] yes=41,no=42,missing=42
					41:leaf=0.45534119
					42:leaf=0.122092508
		6:[f5<1.00389516] yes=13,no=14,missing=14
			13:[f4<1.56348741] yes=25,no=26,missing=26
				25:[f2<1.95859241] yes=43,no=44,missing=44
					43:leaf=0.00910806376
					44:leaf=0.220148727
				26:[f1<1.10153019] yes=45,no=46,missing=46
					45:leaf=-0.51882869
					46:leaf=0.0847211927
			14:[f7<-0.38218689] yes=27,no=28,missing=28
				27:[f0<1.85840809] yes=47,no=48,missing=48
					47:leaf=0.265946835
					48:leaf=0.629722178
				28:[f0<-0.542236865] yes=49,no=50,missing=50
					49:leaf=-0.144638672
					50:leaf=-0.397284776
booster[26]:
0:[f0<0.990089774] yes=1,no=2,missing=2
	1:[f1<-0.852534175] yes=3,no=4,missing=4
		3:[f2<-0.103302017] yes=7,no=8,missing=8
			7:[f9<0.747888029] yes=15,no=16,missing=16
				15:[f15<3.12476015] yes=31,no=32,missing=32
					31:leaf=-0.414280564
					32:leaf=0.0682368875
				16:[f9<2.05556655] yes=33,no=34,missing=34
					33:leaf=-1.0634377
					34:leaf=-0.632276058
			8:[f0<-1.05301237] yes=17,no=18,missing=18
				17:leaf=-0.547302425
				18:[f14<-0.0194216333] yes=35,no=36,missing=36
					35:leaf=0.392203689
					36:leaf=0.896044075
		4:[f0<-1.05301237] yes=9,no=10,missing=10
			9:[f12<-0.604992688] yes=19,no=20,missing=20
				19:leaf=-0.481977493
				20:[f0<-1.56378794] yes=37,no=38,missing=38
					37:leaf=-0.180587307
					38:leaf=-0.385398209
			10:[f6<1.95485437] yes=21,no=22,missing=22
				21:[f7<-0.363170892] yes=39,no=40,missing=40
					39:leaf=0.345481753
					40:leaf=0.0364160724
				22:[f2<-0.232170418] yes=41,no=42,missing=42
					41:leaf=-0.15917635
					42:leaf=-0.586128533
	2:[f4<0.478360564] yes=5,no=6,missing=6
		5:[f1<1.10153019] yes=11,no=12,missing=12
			11:[f2<-0.232170418] yes=23,no=24,missing=24
				23:[f12<2.14623785] yes=43,no=44,missing=44
					43:leaf=0.346712053
					44:leaf=-0.222532392
				24:[f4<-1.46348894] yes=45,no=46,missing=46
					45:leaf=0.210483253
					46:leaf=0.960734308
			12:[f2<-0.232170418] yes=25,no=26,missing=26
				25:[f4<0.386329889] yes=47,no=48,missing=48
					47:leaf=0.210501388
					48:leaf=-0.269339919
				26:[f2<1.95859241] yes=49,no=50,missing=50
					49:leaf=-0.584132254
					50:leaf=-0.0226892605
		6:[f1<1.10153019] yes=13,no=14,missing=14
			13:[f2<-0.232170418] yes=27,no=28,missing=28
				27:[f4<1.56348741] yes=51,no=52,missing=52
					51:leaf=-0.184161246
					52:leaf=-0.591183841
				28:leaf=0.657834113
			14:[f4<1.56348741] yes=29,no=30,missing=30
				29:[f2<-0.232170418] yes=53,no=54,missing=54
					53:leaf=0.00403285958
					54:leaf=-0.431857735
				30:[f3<0.30147177] yes=55,no=56,missing=56
					55:leaf=0.273468733
					56:leaf=0.462772787
booster[27]:
0:[f0<-0.0314613059] yes=1,no=2,missing=2
	1:[f1<-0.73758918] yes=3,no=4,missing=4
		3:[f9<0.684489667] yes=7,no=8,missing=8
			7:[f13<1.82026362] yes=15,no=16,missing=15
				15:[f6<0.0358598009] yes=31,no=32,missing=32
					31:leaf=0.0196901504
					32:leaf=-0.311778933
				16:[f0<-1.56378794] yes=33,no=34,missing=34
					33:leaf=-1.16504431
					34:leaf=-0.345525652
			8:[f2<-0.232170418] yes=17,no=18,missing=18
				17:[f1<-0.852534175] yes=35,no=36,missing=36
					35:leaf=-0.862107933
					36:leaf=-0.467576385
				18:leaf=0.366498888
		4:[f6<0.0362388529] yes=9,no=10,missing=10
			9:[f8<0.9049927] yes=19,no=20,missing=20
				19:[f1<1.10153019] yes=37,no=38,missing=38
					37:leaf=-0.179564536
					38:leaf=0.213862151
				20:[f0<-1.56378794] yes=39,no=40,missing=40
					39:leaf=-0
					40:leaf=0.705172658
			10:[f0<-1.56378794] yes=21,no=22,missing=22
				21:leaf=-0.605858862
				22:[f1<-0.0479194149] yes=41,no=42,missing=42
					41:leaf=-0.458547264
					42:leaf=-0.0832578242
	2:[f1<-0.96747911] yes=5,no=6,missing=6
		5:[f7<1.69649601] yes=11,no=12,missing=12
			11:[f9<2.05556655] yes=23,no=24,missing=24
				23:[f13<-0.576897383] yes=43,no=44,missing=43
					43:leaf=-0.240054622
					44:leaf=-0.454173267
				24:leaf=0.399511248
			12:[f0<0.990089774] yes=25,no=26,missing=26
				25:leaf=0.0903363898
				26:leaf=0.444404095
		6:[f11<0.0229127947] yes=13,no=14,missing=14
			13:[f1<-0.0479194149] yes=27,no=28,missing=28
				27:[f9<2.00108004] yes=45,no=46,missing=46
					45:leaf=0.16140984
					46:leaf=-0.738503814
				28:[f9<1.83339882] yes=47,no=48,missing=48
					47:leaf=0.201158956
					48:leaf=0.746126413
			14:[f1<-0.852534175] yes=29,no=30,missing=30
				29:[f2<-0.232170418] yes=49,no=50,missing=50
					49:leaf=-0.175072446
					50:leaf=0.744064093
				30:[f11<0.437511623] yes=51,no=52,missing=52
					51:leaf=0.11438942
					52:leaf=-0.152035147
booster[28]:
0:[f0<-0.0314613059] yes=1,no=2,missing=2
	1:[f1<-0.852534175] yes=3,no=4,missing=4
		3:[f2<0.669908404] yes=7,no=8,missing=8
			7:[f13<1.95725811] yes=15,no=16,missing=16
				15:[f4<-1.46348894] yes=29,no=30,missing=30
					29:leaf=0.0745925158
					30:leaf=-0.557002783
				16:[f4<-1.27663863] yes=31,no=32,missing=32
					31:leaf=-0.723584831
					32:leaf=0.0152721722
			8:[f0<-1.05301237] yes=17,no=18,missing=18
				17:leaf=-0.306669503
				18:[f5<-0.210079893] yes=33,no=34,missing=34
					33:leaf=0.192596108
					34:leaf=1.06349385
		4:[f9<1.94659328] yes=9,no=10,missing=10
			9:[f10<-0.80247879] yes=19,no=20,missing=20
				19:[f1<-0.73758918] yes=35,no=36,missing=36
					35:leaf=-0.163367033
					36:leaf=0.525038838
				20:[f8<0.0112055372] yes=37,no=38,missing=38
					37:leaf=0.0215931982
					38:leaf=-0.276353836
			10:leaf=-0.657437265
	2:[f1<-0.96747911] yes=5,no=6,missing=6
		5:[f4<-0.360400677] yes=11,no=12,missing=12
			11:[f5<0.962736845] yes=21,no=22,missing=22
				21:[f0<0.990089774] yes=39,no=40,missing=40
					39:leaf=-0.306150526
					40:leaf=-0.149576306
				22:leaf=-0.592226565
			12:[f6<0.0204379596] yes=23,no=24,missing=24
				23:[f0<0.990089774] yes=41,no=42,missing=42
					41:leaf=-0.0735217184
					42:leaf=0.4781515
				24:[f7<0.420045733] yes=43,no=44,missing=44
					43:leaf=-0.181873247
					44:leaf=0.104503199
		6:[f5<0.103263006] yes=13,no=14,missing=14
			13:[f2<4.53596067] yes=25,no=26,missing=26
				25:[f3<0.30147177] yes=45,no=46,missing=46
					45:leaf=0.222122237
					46:leaf=0.0377511941
				26:[f4<-1.0897882] yes=47,no=48,missing=48
					47:leaf=-1.00183105
					48:leaf=-0.0402561277
			14:[f9<2.05556655] yes=27,no=28,missing=28
				27:[f9<-0.718507826] yes=49,no=50,missing=50
					49:leaf=0.736675262
					50:leaf=0.237338319
				28:[f1<-0.0479194149] yes=51,no=52,missing=52
					51:leaf=-0.613545656
					52:leaf=0.494382054
booster[29]:
0:[f0<-0.0314613059] yes=1,no=2,missing=2
	1:[f1<-0.852534175] yes=3,no=4,missing=4
		3:[f2<0.669908404] yes=7,no=8,missing=8
			7:[f14<-0.0194216333] yes=15,no=16,missing=16
				15:[f0<-2.0745635] yes=29,no=30,missing=30
					29:leaf=-0.616193175
					30:leaf=-0.049914252
				16:[f16<2.16349053] yes=31,no=32,missing=32
					31:leaf=-0.605706811
					32:leaf=-0.107533313
			8:[f0<-1.56378794] yes=17,no=18,missing=18
				17:leaf=-0.462152898
				18:[f5<-0.539032757] yes=33,no=34,missing=34
					33:leaf=0.0418754183
					34:leaf=0.556934834
		4:[f0<-1.05301237] yes=9,no=10,missing=10
			9:[f12<-0.441957504] yes=19,no=20,missing=20
				19:[f8<-0.0132053746] yes=35,no=36,missing=36
					35:leaf=-0.852822423
					36:leaf=-0.327966154
				20:[f14<0.427949935] yes=37,no=38,missing=38
					37:leaf=0.0615281351
					38:leaf=-0.275341332
			10:[f12<-0.323500305] yes=21,no=22,missing=22
				21:[f9<1.94659328] yes=39,no=40,missing=40
					39:leaf=0.153167814
					40:leaf=-0.429666549
				22:[f1<1.10153019] yes=41,no=42,missing=42
					41:leaf=-0.273361534
					42:leaf=0.156504676
	2:[f5<0.962736845] yes=5,no=6,missing=6
		5:[f9<1.83339882] yes=11,no=12,missing=12
			11:[f3<0.30147177] yes=23,no=24,missing=24
				23:[f10<-0.175509155] yes=43,no=44,missing=44
					43:leaf=0.288009077
					44:leaf=-0.142482474
				24:[f5<-1.05477929] yes=45,no=46,missing=46
					45:leaf=-0.223182186
					46:leaf=0.0124458335
			12:leaf=-0.882062554
		6:[f13<-0.57667315] yes=13,no=14,missing=13
			13:[f1<-0.73758918] yes=25,no=26,missing=26
				25:[f2<-0.232170418] yes=47,no=48,missing=48
					47:leaf=-0.0935328379
					48:leaf=0.535387933
				26:[f0<0.990089774] yes=49,no=50,missing=50
					49:leaf=0.419632405
					50:leaf=0.145503208
			14:[f1<-0.96747911] yes=27,no=28,missing=28
				27:leaf=-0.380856544
				28:[f1<-0.852534175] yes=51,no=52,missing=52
					51:leaf=0.329628438
					52:leaf=0.727246344
booster[30]:
0:[f11<-1.29874313] yes=1,no=2,missing=2
	1:[f0<-1.56378794] yes=3,no=4,missing=4
		3:leaf=-0.364265233
		4:[f4<-0.332632095] yes=7,no=8,missing=8
			7:leaf=0.57381314
			8:[f0<1.85840809] yes=13,no=14,missing=14
				13:[f3<0.30147177] yes=23,no=24,missing=24
					23:leaf=0.0819317997
					24:leaf=0.214014888
				14:leaf=0.620258033
	2:[f0<-0.542236865] yes=5,no=6,missing=6
		5:[f8<0.0677451193] yes=9,no=10,missing=10
			9:[f14<0.639475703] yes=15,no=16,missing=16
				15:[f0<-2.0745635] yes=25,no=26,missing=26
					25:leaf=-0.431189835
					26:leaf=0.076277867
				16:[f13<-0.58050102] yes=27,no=28,missing=28
					27:leaf=-0.0174154304
					28:leaf=-0.18966426
			10:[f4<-1.27663863] yes=17,no=18,missing=18
				17:[f0<-1.05301237] yes=29,no=30,missing=30
					29:leaf=-0.261331201
					30:leaf=0.0412077792
				18:[f16<1.42398918] yes=31,no=32,missing=32
					31:leaf=-0.256723166
					32:leaf=-0.565196693
		6:[f12<-0.307310402] yes=11,no=12,missing=12
			11:[f13<-0.578963459] yes=19,no=20,missing=19
				19:[f4<-0.452254653] yes=33,no=34,missing=34
					33:leaf=-0.564546287
					34:leaf=0.0585346632
				20:[f12<-0.664475024] yes=35,no=36,missing=36
					35:leaf=-0.229075983
					36:leaf=0.260357291
			12:[f0<1.85840809] yes=21,no=22,missing=22
				21:[f3<0.30147177] yes=37,no=38,missing=38
					37:leaf=0.0965454355
					38:leaf=-0.0981333256
				22:[f6<0.0199877918] yes=39,no=40,missing=40
					39:leaf=0.821309268
					40:leaf=-0.0131698465
booster[31]:
0:[f1<-0.96747911] yes=1,no=2,missing=2
	1:[f15<-0.269042671] yes=3,no=4,missing=4
		3:[f0<-0.542236865] yes=7,no=8,missing=8
			7:[f7<-0.363170892] yes=15,no=16,missing=16
				15:leaf=-0.842172086
				16:leaf=-0.39097935
			8:[f13<-0.579027534] yes=17,no=18,missing=17
				17:[f0<0.990089774] yes=31,no=32,missing=32
					31:leaf=-0.0497429334
					32:leaf=-0.300904751
				18:leaf=-0.523264349
		4:[f11<0.444238126] yes=9,no=10,missing=10
			9:[f0<0.990089774] yes=19,no=20,missing=20
				19:[f9<0.693401396] yes=33,no=34,missing=34
					33:leaf=-0.0476715229
					34:leaf=-0.828483999
				20:[f6<-0.288038999] yes=35,no=36,missing=36
					35:leaf=0.378369123
					36:leaf=0.114607342
			10:[f0<-0.0314613059] yes=21,no=22,missing=22
				21:leaf=-0.814271808
				22:[f4<0.506253004] yes=37,no=38,missing=38
					37:leaf=-0.28809911
					38:leaf=-0.114612468
	2:[f5<-0.00884227362] yes=5,no=6,missing=6
		5:[f12<-0.312172025] yes=11,no=12,missing=12
			11:[f4<-0.334543526] yes=23,no=24,missing=24
				23:leaf=0.763405979
				24:[f1<-0.852534175] yes=39,no=40,missing=40
					39:leaf=0.178336665
					40:leaf=-0.00867242925
			12:[f0<1.85840809] yes=25,no=26,missing=26
				25:[f3<0.30147177] yes=41,no=42,missing=42
					41:leaf=0.143896952
					42:leaf=-0.148990318
				26:leaf=0.868982971
		6:[f0<-1.05301237] yes=13,no=14,missing=14
			13:[f0<-2.0745635] yes=27,no=28,missing=28
				27:leaf=-0.586675942
				28:[f5<2.24210715] yes=43,no=44,missing=44
					43:leaf=-0.256103694
					44:leaf=0.384567261
			14:[f1<-0.852534175] yes=29,no=30,missing=30
				29:[f2<-0.232170418] yes=45,no=46,missing=46
					45:leaf=-0.165896267
					46:leaf=0.570940137
				30:[f2<-0.232170418] yes=47,no=48,missing=48
					47:leaf=0.219428048
					48:leaf=0.036510922
booster[32]:
0:[f1<-0.96747911] yes=1,no=2,missing=2
	1:[f0<-0.0314613059] yes=3,no=4,missing=4
		3:[f13<1.57206309] yes=7,no=8,missing=8
			7:[f9<2.05556655] yes=15,no=16,missing=16
				15:leaf=-0.793934941
				16:leaf=-0.234185442
			8:[f4<-0.52848959] yes=17,no=18,missing=18
				17:leaf=-0.60377419
				18:[f5<-0.524953306] yes=27,no=28,missing=28
					27:leaf=-0.271500409
					28:leaf=0.429255337
		4:[f13<-0.576897383] yes=9,no=10,missing=9
			9:[f13<-0.579363883] yes=19,no=20,missing=19
				19:[f7<0.420045733] yes=29,no=30,missing=30
					29:leaf=-0.205304906
					30:leaf=0.0958072618
				20:[f4<-0.452254653] yes=31,no=32,missing=32
					31:leaf=0.021915812
					32:leaf=0.440560549
			10:[f0<0.990089774] yes=21,no=22,missing=22
				21:leaf=-0.432235986
				22:leaf=-0.161413699
	2:[f2<-0.361038834] yes=5,no=6,missing=6
		5:[f5<-0.539032757] yes=11,no=12,missing=12
			11:leaf=-0.239115372
			12:leaf=-1.22483587
		6:[f5<1.00389516] yes=13,no=14,missing=14
			13:[f1<-0.0479194149] yes=23,no=24,missing=24
				23:[f2<-0.232170418] yes=33,no=34,missing=34
					33:leaf=-0.173939705
					34:leaf=0.557659507
				24:[f5<0.925368428] yes=35,no=36,missing=36
					35:leaf=0.0210737977
					36:leaf=0.405840337
			14:[f1<1.10153019] yes=25,no=26,missing=26
				25:[f0<-2.0745635] yes=37,no=38,missing=38
					37:leaf=-0.521589696
					38:leaf=0.269767612
				26:[f0<1.85840809] yes=39,no=40,missing=40
					39:leaf=-0.00260199001
					40:leaf=0.459315598
booster[33]:
0:[f0<-1.05301237] yes=1,no=2,missing=2
	1:[f5<2.24210715] yes=3,no=4,missing=4
		3:[f11<0.447037905] yes=7,no=8,missing=8
			7:[f5<-0.522843301] yes=13,no=14,missing=14
				13:[f1<-0.0479194149] yes=23,no=24,missing=24
					23:leaf=-0.236064225
					24:leaf=0.0745546967
				14:[f0<-2.0745635] yes=25,no=26,missing=26
					25:leaf=-0.520473957
					26:leaf=-0.278737545
			8:leaf=-0.707337439
		4:leaf=-0.702688634
	2:[f1<-0.852534175] yes=5,no=6,missing=6
		5:[f2<-0.103302017] yes=9,no=10,missing=10
			9:[f15<-0.251553178] yes=15,no=16,missing=16
				15:[f5<1.00389516] yes=27,no=28,missing=28
					27:leaf=-0.392738074
					28:leaf=-0.81562376
				16:[f0<0.990089774] yes=29,no=30,missing=30
					29:leaf=-0.199477151
					30:leaf=0.229171246
			10:[f6<-0.763428271] yes=17,no=18,missing=18
				17:[f0<-0.542236865] yes=31,no=32,missing=32
					31:leaf=0.266522944
					32:leaf=1.18993282
				18:[f3<0.30147177] yes=33,no=34,missing=34
					33:leaf=0.0142152151
					34:leaf=0.446959615
		6:[f2<-0.232170418] yes=11,no=12,missing=12
			11:[f9<1.52245247] yes=19,no=20,missing=20
				19:[f1<1.10153019] yes=35,no=36,missing=36
					35:leaf=0.00466373377
					36:leaf=0.149282753
				20:[f12<-0.644695163] yes=37,no=38,missing=38
					37:leaf=-0.0348664522
					38:leaf=0.387582183
			12:[f9<-0.614277124] yes=21,no=22,missing=22
				21:leaf=-0.552326441
				22:[f0<0.990089774] yes=39,no=40,missing=40
					39:leaf=0.154583395
					40:leaf=-0.42868197
booster[34]:
0:[f2<-0.361038834] yes=1,no=2,missing=2
	1:[f5<-0.210079893] yes=3,no=4,missing=4
		3:leaf=-0.380494982
		4:leaf=-1.41731811
	2:[f1<2.2509799] yes=5,no=6,missing=6
		5:[f5<-0.533232927] yes=7,no=8,missing=8
			7:[f3<0.30147177] yes=11,no=12,missing=12
				11:[f9<-0.614277124] yes=17,no=18,missing=18
					17:leaf=0.268140078
					18:leaf=-0.146596491
				12:[f7<0.426123083] yes=19,no=20,missing=20
					19:leaf=-0.164912984
					20:leaf=-0.0239764191
			8:[f14<1.23687589] yes=13,no=14,missing=14
				13:[f1<-0.852534175] yes=21,no=22,missing=22
					21:leaf=0.0122222276
					22:leaf=0.101407439
				14:[f1<-0.0479194149] yes=23,no=24,missing=24
					23:leaf=-0.390266329
					24:leaf=0.203236431
		6:[f8<-0.45185867] yes=9,no=10,missing=10
			9:[f8<-0.717047393] yes=15,no=16,missing=16
				15:leaf=0.829208612
				16:leaf=0.31506592
			10:leaf=-0.0363535993
booster[35]:
0:[f0<-1.05301237] yes=1,no=2,missing=2
	1:[f5<2.24210715] yes=3,no=4,missing=4
		3:[f8<0.0112055372] yes=7,no=8,missing=8
			7:[f5<-0.526503742] yes=15,no=16,missing=16
				15:[f1<-0.0479194149] yes=25,no=26,missing=26
					25:leaf=-0.289026946
					26:leaf=-0.0166227035
				16:[f0<-2.0745635] yes=27,no=28,missing=28
					27:leaf=-0.365504652
					28:leaf=0.308528602
			8:[f5<-0.210079893] yes=17,no=18,missing=18
				17:leaf=-0.116163105
				18:[f0<-1.56378794] yes=29,no=30,missing=30
					29:leaf=-0.334221154
					30:leaf=-0.580874324
		4:[f0<-2.0745635] yes=9,no=10,missing=10
			9:leaf=-0.401053458
			10:leaf=-1.17112303
	2:[f11<-1.30811274] yes=5,no=6,missing=6
		5:[f1<-0.96747911] yes=11,no=12,missing=12
			11:leaf=0.777470231
			12:[f0<-0.542236865] yes=19,no=20,missing=20
				19:[f1<1.10153019] yes=31,no=32,missing=32
					31:leaf=0.00936757959
					32:leaf=0.357148498
				20:leaf=0.578666031
		6:[f14<1.23687589] yes=13,no=14,missing=14
			13:[f1<-0.96747911] yes=21,no=22,missing=22
				21:[f16<0.261176825] yes=33,no=34,missing=33
					33:leaf=-0.0481723845
					34:leaf=-0.391282409
				22:[f5<-0.189664289] yes=35,no=36,missing=36
					35:leaf=-0.013465628
					36:leaf=0.102135606
			14:[f1<-0.0479194149] yes=23,no=24,missing=24
				23:[f0<0.990089774] yes=37,no=38,missing=38
					37:leaf=-0.892986298
					38:leaf=0.0510183163
				24:[f0<-0.542236865] yes=39,no=40,missing=40
					39:leaf=-0.40966779
					40:leaf=0.462307155
booster[36]:
0:[f0<-1.05301237] yes=1,no=2,missing=2
	1:[f11<-1.30811274] yes=3,no=4,missing=4
		3:leaf=0.376988769
		4:[f11<0.688425541] yes=7,no=8,missing=8
			7:[f11<0.443803161] yes=13,no=14,missing=14
				13:[f5<1.95140839] yes=19,no=20,missing=20
					19:leaf=-0.261695772
					20:leaf=-0.0687297136
				14:leaf=0.0490293838
			8:leaf=-0.644287527
	2:[f2<-0.361038834] yes=5,no=6,missing=6
		5:[f5<-0.539032757] yes=9,no=10,missing=10
			9:leaf=0.128696278
			10:leaf=-1.20956075
		6:[f7<-0.976978898] yes=11,no=12,missing=12
			11:[f14<-1.06188476] yes=15,no=16,missing=16
				15:[f0<0.990089774] yes=21,no=22,missing=22
					21:leaf=0.170908302
					22:leaf=0.326611072
				16:[f0<-0.542236865] yes=23,no=24,missing=24
					23:leaf=0.0238281023
					24:leaf=0.152798802
			12:[f13<-0.578963459] yes=17,no=18,missing=18
				17:[f4<0.367644846] yes=25,no=26,missing=26
					25:leaf=-0.259465754
					26:leaf=-0.0389109738
				18:[f11<0.447724283] yes=27,no=28,missing=28
					27:leaf=0.0697671697
					28:leaf=-0.0602572113
booster[37]:
0:[f0<-0.0314613059] yes=1,no=2,missing=2
	1:[f10<1.52089131] yes=3,no=4,missing=4
		3:[f1<1.10153019] yes=7,no=8,missing=8
			7:[f12<-0.311659873] yes=15,no=16,missing=16
				15:[f1<-0.852534175] yes=29,no=30,missing=30
					29:leaf=-0.273819298
					30:leaf=0.092132993
				16:[f2<0.669908404] yes=31,no=32,missing=32
					31:leaf=-0.356636941
					32:leaf=0.3287175
			8:[f10<0.125638753] yes=17,no=18,missing=18
				17:[f0<-1.05301237] yes=33,no=34,missing=34
					33:leaf=-0.156030029
					34:leaf=0.387695342
				18:[f0<-1.56378794] yes=35,no=36,missing=36
					35:leaf=-0.1426415
					36:leaf=-0.528666496
		4:[f0<-2.0745635] yes=9,no=10,missing=10
			9:leaf=-0.484364241
			10:[f1<-0.852534175] yes=19,no=20,missing=20
				19:[f0<-1.56378794] yes=37,no=38,missing=38
					37:leaf=0.151939452
					38:leaf=0.606666446
				20:[f1<-0.0479194149] yes=39,no=40,missing=40
					39:leaf=-0.415846705
					40:leaf=0.333501846
	2:[f5<-0.189866975] yes=5,no=6,missing=6
		5:[f5<-0.190575004] yes=11,no=12,missing=12
			11:[f2<4.53596067] yes=21,no=22,missing=22
				21:[f2<1.95859241] yes=41,no=42,missing=42
					41:leaf=-0.0131794335
					42:leaf=0.24491325
				22:[f6<-0.763428271] yes=43,no=44,missing=44
					43:leaf=-0.874604106
					44:leaf=-0.0593122616
			12:[f1<-0.852534175] yes=23,no=24,missing=24
				23:leaf=-0.924383402
				24:leaf=-0.046886567
		6:[f9<0.693401396] yes=13,no=14,missing=14
			13:[f2<0.669908404] yes=25,no=26,missing=26
				25:[f0<0.990089774] yes=45,no=46,missing=46
					45:leaf=0.104450986
					46:leaf=0.247189134
				26:[f0<0.990089774] yes=47,no=48,missing=48
					47:leaf=0.203879222
					48:leaf=-0.229709268
			14:[f1<-0.0479194149] yes=27,no=28,missing=28
				27:[f0<0.990089774] yes=49,no=50,missing=50
					49:leaf=-0.397415102
					50:leaf=0.12948589
				28:[f9<1.78344619] yes=51,no=52,missing=52
					51:leaf=0.0350083709
					52:leaf=0.402855694
booster[38]:
0:[f1<-0.73758918] yes=1,no=2,missing=2
	1:[f10<-0.172847196] yes=3,no=4,missing=4
		3:[f0<0.990089774] yes=7,no=8,missing=8
			7:[f4<-1.46348894] yes=15,no=16,missing=16
				15:[f0<-0.542236865] yes=31,no=32,missing=32
					31:leaf=0.0666819215
					32:leaf=0.405106455
				16:[f16<0.261176825] yes=33,no=34,missing=34
					33:leaf=-0.142196044
					34:leaf=-0.339495122
			8:[f1<-0.852534175] yes=17,no=18,missing=18
				17:[f4<0.424447387] yes=35,no=36,missing=36
					35:leaf=-0.053320419
					36:leaf=-0.565063298
				18:[f14<0.591389894] yes=37,no=38,missing=38
					37:leaf=-0.0395205952
					38:leaf=0.643805683
		4:[f0<-0.542236865] yes=9,no=10,missing=10
			9:[f6<0.0358598009] yes=19,no=20,missing=20
				19:[f1<-0.96747911] yes=39,no=40,missing=40
					39:leaf=0.648365796
					40:leaf=-0.153855264
				20:[f5<-0.246772274] yes=41,no=42,missing=42
					41:leaf=-0.387840331
					42:leaf=-0.080361478
			10:[f1<-0.96747911] yes=21,no=22,missing=22
				21:[f4<0.499210089] yes=43,no=44,missing=44
					43:leaf=0.052985236
					44:leaf=-0.223127618
				22:[f1<-0.852534175] yes=45,no=46,missing=46
					45:leaf=0.356273502
					46:leaf=-0.00745254057
	2:[f9<1.52245247] yes=5,no=6,missing=6
		5:[f13<3.91452622] yes=11,no=12,missing=12
			11:[f1<2.2509799] yes=23,no=24,missing=24
				23:[f5<2.24210715] yes=47,no=48,missing=48
					47:leaf=-0.0183036476
					48:leaf=-0.257183254
				24:[f8<-0.717047393] yes=49,no=50,missing=50
					49:leaf=0.735766888
					50:leaf=-0
			12:[f9<0.52544111] yes=25,no=26,missing=26
				25:[f4<-0.355992645] yes=51,no=52,missing=52
					51:leaf=0.229361102
					52:leaf=0.077784434
				26:leaf=-0.403358519
		6:[f0<-1.56378794] yes=13,no=14,missing=14
			13:[f13<-0.579027534] yes=27,no=28,missing=27
				27:leaf=0.158767253
				28:leaf=-0.247149378
			14:[f13<-0.579027534] yes=29,no=30,missing=30
				29:leaf=-0.240133315
				30:[f10<-0.883184671] yes=53,no=54,missing=54
					53:leaf=0.179530039
					54:leaf=0.368195146
booster[39]:
0:[f1<-0.96747911] yes=1,no=2,missing=2
	1:[f6<0.1474628] yes=3,no=4,missing=4
		3:[f9<2.11005306] yes=7,no=8,missing=8
			7:[f14<0.785897315] yes=15,no=16,missing=16
				15:[f8<0.0112055372] yes=25,no=26,missing=26
					25:leaf=0.00226218696
					26:leaf=-0.207922712
				16:[f9<1.93330395] yes=27,no=28,missing=28
					27:leaf=-0.233863801
					28:leaf=-0.582011521
			8:leaf=0.305869013
		4:[f0<-0.542236865] yes=9,no=10,missing=10
			9:leaf=-0.651995122
			10:leaf=-0.354747593
	2:[f10<-0.186954424] yes=5,no=6,missing=6
		5:[f1<-0.852534175] yes=11,no=12,missing=12
			11:[f2<-0.232170418] yes=17,no=18,missing=18
				17:[f10<-0.450923413] yes=29,no=30,missing=30
					29:leaf=-0.573022604
					30:leaf=-0.24938786
				18:[f14<-0.0194216333] yes=31,no=32,missing=32
					31:leaf=0.0400712304
					32:leaf=0.698442936
			12:[f2<-0.232170418] yes=19,no=20,missing=20
				19:[f0<-1.05301237] yes=33,no=34,missing=34
					33:leaf=-0.277752519
					34:leaf=0.0867535844
				20:[f9<-0.614277124] yes=35,no=36,missing=36
					35:leaf=-0.581393719
					36:leaf=0.0240039658
		6:[f1<1.10153019] yes=13,no=14,missing=14
			13:[f0<-2.0745635] yes=21,no=22,missing=22
				21:leaf=-0.413792372
				22:[f1<-0.0479194149] yes=37,no=38,missing=38
					37:leaf=0.14591153
					38:leaf=0.303556025
			14:[f6<0.0355911553] yes=23,no=24,missing=24
				23:[f0<0.990089774] yes=39,no=40,missing=40
					39:leaf=0.382843316
					40:leaf=0.100251846
				24:[f12<-0.438116729] yes=41,no=42,missing=42
					41:leaf=0.00551981805
					42:leaf=-0.351879746
booster[40]:
0:[f2<-0.361038834] yes=1,no=2,missing=2
	1:[f4<0.386329889] yes=3,no=4,missing=4
		3:leaf=-1.00051546
		4:leaf=0.649889231
	2:[f1<-0.96747911] yes=5,no=6,missing=6
		5:[f8<0.9049927] yes=7,no=8,missing=8
			7:[f6<1.22135544] yes=11,no=12,missing=12
				11:[f9<-0.718507826] yes=19,no=20,missing=20
					19:leaf=0.390831411
					20:leaf=-0.0711638555
				12:leaf=-0.620819211
			8:[f0<-0.542236865] yes=13,no=14,missing=14
				13:[f4<-0.566607118] yes=21,no=22,missing=22
					21:leaf=-1.01384497
					22:leaf=-0.320278972
				14:[f4<-1.27663863] yes=23,no=24,missing=24
					23:leaf=0.0334343873
					24:leaf=-0.461550981
		6:[f2<4.53596067] yes=9,no=10,missing=10
			9:[f0<-1.05301237] yes=15,no=16,missing=16
				15:[f0<-2.0745635] yes=25,no=26,missing=26
					25:leaf=-0.412627548
					26:leaf=-0.103828497
				16:[f9<1.94659328] yes=27,no=28,missing=28
					27:leaf=0.0349666066
					28:leaf=-0.144417197
			10:[f6<-0.75383991] yes=17,no=18,missing=18
				17:leaf=-0.746755004
				18:[f0<0.990089774] yes=29,no=30,missing=30
					29:leaf=0.0553857796
					30:leaf=-0.371693701
booster[41]:
0:[f1<-0.73758918] yes=1,no=2,missing=2
	1:[f2<-0.103302017] yes=3,no=4,missing=4
		3:[f15<-0.261192828] yes=7,no=8,missing=8
			7:[f7<0.257385612] yes=15,no=16,missing=16
				15:[f1<-0.96747911] yes=31,no=32,missing=32
					31:leaf=-0.108094826
					32:leaf=-0.286210895
				16:leaf=-0.983859003
			8:[f10<-0.447896361] yes=17,no=18,missing=18
				17:leaf=0.738390386
				18:[f5<1.03747368] yes=33,no=34,missing=34
					33:leaf=-0.0874902159
					34:leaf=0.172816068
		4:[f6<-0.763428271] yes=9,no=10,missing=10
			9:[f0<-0.542236865] yes=19,no=20,missing=20
				19:leaf=0.201852053
				20:leaf=0.971434534
			10:[f5<-0.210079893] yes=21,no=22,missing=22
				21:[f0<-0.542236865] yes=35,no=36,missing=36
					35:leaf=-0.121526323
					36:leaf=0.272664428
				22:[f2<0.669908404] yes=37,no=38,missing=38
					37:leaf=0.169088647
					38:leaf=0.443617374
	2:[f2<-0.232170418] yes=5,no=6,missing=6
		5:[f0<-0.0314613059] yes=11,no=12,missing=12
			11:[f12<-0.64164108] yes=23,no=24,missing=24
				23:[f1<-0.0479194149] yes=39,no=40,missing=40
					39:leaf=-0.555116951
					40:leaf=-0.0622635745
				24:[f5<0.103263006] yes=41,no=42,missing=42
					41:leaf=0.0104157953
					42:leaf=0.319791645
			12:[f4<0.386329889] yes=25,no=26,missing=26
				25:[f0<0.990089774] yes=43,no=44,missing=44
					43:leaf=0.258163273
					44:leaf=0.117112763
				26:[f10<-0.378772974] yes=45,no=46,missing=46
					45:leaf=-0.243205905
					46:leaf=0.100521483
		6:[f12<-0.309671193] yes=13,no=14,missing=14
			13:[f0<0.990089774] yes=27,no=28,missing=28
				27:[f12<-0.439560235] yes=47,no=48,missing=48
					47:leaf=0.161462948
					48:leaf=-0.210961238
				28:[f2<4.53596067] yes=49,no=50,missing=50
					49:leaf=-0.188986897
					50:leaf=-0.38689509
			14:[f5<-0.181115776] yes=29,no=30,missing=30
				29:[f2<1.95859241] yes=51,no=52,missing=52
					51:leaf=-0.81670028
					52:leaf=-0.465876669
				30:leaf=0.066709809
booster[42]:
0:[f0<-0.542236865] yes=1,no=2,missing=2
	1:[f6<-0.813814878] yes=3,no=4,missing=4
		3:[f1<-0.0479194149] yes=7,no=8,missing=8
			7:[f1<-0.852534175] yes=13,no=14,missing=14
				13:[f0<-1.56378794] yes=25,no=26,missing=26
					25:leaf=-0.820777416
					26:leaf=0.442632318
				14:leaf=-1.75697422
			8:[f1<1.10153019] yes=15,no=16,missing=16
				15:leaf=-0.152851328
				16:leaf=0.393232673
		4:[f6<-0.810411036] yes=9,no=10,missing=10
			9:[f0<-2.0745635] yes=17,no=18,missing=18
				17:leaf=-0.269258648
				18:[f1<-0.96747911] yes=27,no=28,missing=28
					27:leaf=0.555415452
					28:leaf=0.294154763
			10:[f13<1.95725811] yes=19,no=20,missing=20
				19:[f1<-0.0479194149] yes=29,no=30,missing=30
					29:leaf=-0.221399456
					30:leaf=-0.0137081938
				20:[f14<0.59114033] yes=31,no=32,missing=32
					31:leaf=0.0638023466
					32:leaf=-0.280163884
	2:[f1<2.2509799] yes=5,no=6,missing=6
		5:[f7<0.426108092] yes=11,no=12,missing=12
			11:[f1<-0.852534175] yes=21,no=22,missing=22
				21:[f13<-0.579475999] yes=33,no=34,missing=33
					33:leaf=-0.15720959
					34:leaf=0.123394854
				22:[f1<1.10153019] yes=35,no=36,missing=36
					35:leaf=0.197807819
					36:leaf=0.0539248362
			12:[f0<1.85840809] yes=23,no=24,missing=24
				23:[f4<-1.0897882] yes=37,no=38,missing=38
					37:leaf=-0.122408025
					38:leaf=-0.0139198657
				24:[f4<0.348212421] yes=39,no=40,missing=40
					39:leaf=0.715873539
					40:leaf=0.0705470964
		6:leaf=0.675163686
booster[43]:
0:[f0<-1.05301237] yes=1,no=2,missing=2
	1:[f5<2.24210715] yes=3,no=4,missing=4
		3:[f11<0.450110495] yes=7,no=8,missing=8
			7:[f8<0.917560339] yes=13,no=14,missing=14
				13:[f1<-0.96747911] yes=23,no=24,missing=24
					23:leaf=0.0278040841
					24:leaf=-0.219283342
				14:[f0<-1.56378794] yes=25,no=26,missing=26
					25:leaf=0.253950179
					26:leaf=-0.237299368
			8:leaf=0.47857523
		4:leaf=-1.65457034
	2:[f1<-0.0479194149] yes=5,no=6,missing=6
		5:[f2<-0.232170418] yes=9,no=10,missing=10
			9:[f15<-0.261192828] yes=15,no=16,missing=16
				15:[f13<-0.576561034] yes=27,no=28,missing=27
					27:leaf=-0.255495369
					28:leaf=0.0149690975
				16:[f9<0.693401396] yes=29,no=30,missing=30
					29:leaf=0.0416997895
					30:leaf=-0.252947003
			10:[f6<-0.763428271] yes=17,no=18,missing=18
				17:[f0<-0.542236865] yes=31,no=32,missing=32
					31:leaf=0.203321695
					32:leaf=0.889472604
				18:[f5<1.03747368] yes=33,no=34,missing=34
					33:leaf=0.154848069
					34:leaf=0.483550131
		6:[f2<-0.232170418] yes=11,no=12,missing=12
			11:[f12<-0.603465617] yes=19,no=20,missing=20
				19:[f0<0.990089774] yes=35,no=36,missing=36
					35:leaf=0.440383166
					36:leaf=0.0468375124
				20:[f9<-0.761414289] yes=37,no=38,missing=38
					37:leaf=0.157077804
					38:leaf=0.0037253201
			12:[f5<-0.520589292] yes=21,no=22,missing=22
				21:[f4<0.493880868] yes=39,no=40,missing=40
					39:leaf=-0.548396289
					40:leaf=-0.171134055
				22:[f0<0.990089774] yes=41,no=42,missing=42
					41:leaf=0.181773931
					42:leaf=-0.182078168
booster[44]:
0:[f0<-1.05301237] yes=1,no=2,missing=2
	1:[f8<-0.717047393] yes=3,no=4,missing=4
		3:[f4<-0.52848959] yes=7,no=8,missing=8
			7:[f0<-2.0745635] yes=15,no=16,missing=16
				15:leaf=-0.0825517476
				16:leaf=0.246039659
			8:[f1<-0.0479194149] yes=17,no=18,missing=18
				17:[f0<-2.0745635] yes=29,no=30,missing=30
					29:leaf=0.0255746227
					30:leaf=-0.210951805
				18:leaf=0.0845878497
		4:[f8<0.941720665] yes=9,no=10,missing=10
			9:[f6<0.0360700227] yes=19,no=20,missing=20
				19:[f4<0.458230168] yes=31,no=32,missing=32
					31:leaf=-0.231131986
					32:leaf=0.106782578
				20:leaf=-0.336603701
			10:[f0<-1.56378794] yes=21,no=22,missing=22
				21:leaf=0.234860167
				22:leaf=-0.219460919
	2:[f12<-0.309196085] yes=5,no=6,missing=6
		5:[f12<-0.309605122] yes=11,no=12,missing=12
			11:[f0<-0.542236865] yes=23,no=24,missing=24
				23:[f13<-0.58062917] yes=33,no=34,missing=34
					33:leaf=-0.309929818
					34:leaf=0.0446180552
				24:[f7<-0.344154865] yes=35,no=36,missing=36
					35:leaf=0.120783597
					36:leaf=0.0152019896
			12:leaf=0.641894281
		6:[f12<-0.307558864] yes=13,no=14,missing=14
			13:[f0<-0.542236865] yes=25,no=26,missing=26
				25:[f4<-0.367302388] yes=37,no=38,missing=38
					37:leaf=0.0152805643
					38:leaf=-0.338718981
				26:leaf=-0.785419762
			14:[f0<1.9094857] yes=27,no=28,missing=28
				27:[f5<-0.00884227362] yes=39,no=40,missing=40
					39:leaf=-0.0720828399
					40:leaf=0.0569124594
				28:[f6<0.0199877918] yes=41,no=42,missing=42
					41:leaf=0.885962605
					42:leaf=-0.164257765
booster[45]:
0:[f0<-0.0314613059] yes=1,no=2,missing=2
	1:[f1<-0.96747911] yes=3,no=4,missing=4
		3:[f12<-0.745864272] yes=7,no=8,missing=8
			7:leaf=0.393602222
			8:[f10<-0.163136289] yes=15,no=16,missing=16
				15:[f4<-0.566607118] yes=29,no=30,missing=30
					29:leaf=-0.540684104
					30:leaf=-0.109018564
				16:[f13<1.57206309] yes=31,no=32,missing=32
					31:leaf=-0.939426422
					32:leaf=-0.288661659
		4:[f4<-0.566607118] yes=9,no=10,missing=10
			9:[f1<-0.0479194149] yes=17,no=18,missing=18
				17:[f1<-0.852534175] yes=33,no=34,missing=34
					33:leaf=0.0196578559
					34:leaf=0.336894214
				18:[f1<1.10153019] yes=35,no=36,missing=36
					35:leaf=-0.191930607
					36:leaf=0.023129113
			10:[f8<0.0112055372] yes=19,no=20,missing=20
				19:[f1<1.10153019] yes=37,no=38,missing=38
					37:leaf=-0.073016502
					38:leaf=0.109227255
				20:[f7<0.257941097] yes=39,no=40,missing=40
					39:leaf=-0.135154098
					40:leaf=-0.598615289
	2:[f10<-0.903361142] yes=5,no=6,missing=6
		5:[f2<0.669908404] yes=11,no=12,missing=12
			11:[f1<-0.852534175] yes=21,no=22,missing=22
				21:[f13<-0.576336801] yes=41,no=42,missing=41
					41:leaf=-0.689143538
					42:leaf=-0.132582471
				22:[f0<0.990089774] yes=43,no=44,missing=44
					43:leaf=0.374240309
					44:leaf=-0.14043133
			12:[f1<1.10153019] yes=23,no=24,missing=24
				23:[f3<0.30147177] yes=45,no=46,missing=46
					45:leaf=-0.0701924339
					46:leaf=0.367988855
				24:leaf=-0.226400524
		6:[f2<4.53596067] yes=13,no=14,missing=14
			13:[f1<-0.0479194149] yes=25,no=26,missing=26
				25:[f2<-0.103302017] yes=47,no=48,missing=48
					47:leaf=-0.0432153195
					48:leaf=0.460338622
				26:[f2<-0.232170418] yes=49,no=50,missing=50
					49:leaf=0.133340284
					50:leaf=-0.0737726241
			14:[f7<1.62989986] yes=27,no=28,missing=28
				27:[f0<0.990089774] yes=51,no=52,missing=52
					51:leaf=0.0622477904
					52:leaf=-0.230143383
				28:leaf=-0.659769118
booster[46]:
0:[f5<-0.179552004] yes=1,no=2,missing=2
	1:[f5<-0.184523404] yes=3,no=4,missing=4
		3:[f3<-3.5919776] yes=7,no=8,missing=8
			7:[f9<-0.614277124] yes=13,no=14,missing=14
				13:leaf=0.315994412
				14:leaf=0.10295821
			8:[f3<-3.38705921] yes=15,no=16,missing=16
				15:[f10<-0.261787325] yes=21,no=22,missing=22
					21:leaf=-0.000488692895
					22:leaf=-0.541364908
				16:[f3<0.30147177] yes=23,no=24,missing=24
					23:leaf=0.166271582
					24:leaf=-0.0447866581
		4:[f0<-0.542236865] yes=9,no=10,missing=10
			9:[f4<-0.367302388] yes=17,no=18,missing=18
				17:leaf=-0.0496803485
				18:leaf=-0.288860321
			10:leaf=-0.901893616
	2:[f2<-0.361038834] yes=5,no=6,missing=6
		5:leaf=-1.07671034
		6:[f9<2.16453981] yes=11,no=12,missing=12
			11:[f0<0.990089774] yes=19,no=20,missing=20
				19:[f1<-0.0479194149] yes=25,no=26,missing=26
					25:leaf=-0.0866248086
					26:leaf=0.144990548
				20:[f1<1.10153019] yes=27,no=28,missing=28
					27:leaf=0.265629202
					28:leaf=-0.029165715
			12:leaf=-0.581595182
booster[47]:
0:[f0<-1.05301237] yes=1,no=2,missing=2
	1:[f5<2.24210715] yes=3,no=4,missing=4
		3:[f4<1.3392669] yes=7,no=8,missing=8
			7:[f5<-0.210079893] yes=13,no=14,missing=14
				13:[f1<-0.0479194149] yes=23,no=24,missing=24
					23:leaf=-0.137187555
					24:leaf=0.131325662
				14:[f0<-1.56378794] yes=25,no=26,missing=26
					25:leaf=-0.16551654
					26:leaf=-0.445888877
			8:leaf=-0.466321051
		4:leaf=0.14694193
	2:[f1<-0.0479194149] yes=5,no=6,missing=6
		5:[f2<-0.103302017] yes=9,no=10,missing=10
			9:[f15<-0.261192828] yes=15,no=16,missing=16
				15:[f7<0.257385612] yes=27,no=28,missing=28
					27:leaf=-0.129484445
					28:leaf=-1.06304646
				16:[f14<0.785897315] yes=29,no=30,missing=30
					29:leaf=0.0415304713
					30:leaf=-0.154482439
			10:[f6<-0.763428271] yes=17,no=18,missing=18
				17:[f0<-0.542236865] yes=31,no=32,missing=32
					31:leaf=0.195345193
					32:leaf=0.780770421
				18:[f3<0.30147177] yes=33,no=34,missing=34
					33:leaf=-0.130692333
					34:leaf=0.215564907
		6:[f2<-0.232170418] yes=11,no=12,missing=12
			11:[f11<0.0229127947] yes=19,no=20,missing=20
				19:[f15<-0.269875497] yes=35,no=36,missing=36
					35:leaf=0.210561901
					36:leaf=0.0557318442
				20:[f1<1.10153019] yes=37,no=38,missing=38
					37:leaf=-0.106243782
					38:leaf=0.0795004368
			12:[f9<-0.614277124] yes=21,no=22,missing=22
				21:[f4<0.348212421] yes=39,no=40,missing=40
					39:leaf=-0.463016957
					40:leaf=-0.225818515
				22:[f0<0.990089774] yes=41,no=42,missing=42
					41:leaf=0.111057438
					42:leaf=-0.275245637
booster[48]:
0:[f6<-0.810411036] yes=1,no=2,missing=2
	1:[f1<-0.96747911] yes=3,no=4,missing=4
		3:leaf=0.521102667
		4:[f4<-0.52848959] yes=7,no=8,missing=8
			7:[f1<-0.852534175] yes=13,no=14,missing=14
				13:leaf=0.288798332
				14:leaf=0.499918848
			8:[f1<-0.852534175] yes=15,no=16,missing=16
				15:leaf=0.09958563
				16:[f1<2.2509799] yes=25,no=26,missing=26
					25:leaf=0.286219239
					26:leaf=0.104882561
	2:[f2<1.95859241] yes=5,no=6,missing=6
		5:[f1<-0.852534175] yes=9,no=10,missing=10
			9:[f2<-0.232170418] yes=17,no=18,missing=18
				17:[f4<-0.371734709] yes=27,no=28,missing=28
					27:leaf=-0.228787214
					28:leaf=-0.0291969329
				18:[f14<-0.0194216333] yes=29,no=30,missing=30
					29:leaf=-0.183223024
					30:leaf=0.560881913
			10:[f6<0.051579535] yes=19,no=20,missing=20
				19:[f12<-0.309489608] yes=31,no=32,missing=32
					31:leaf=0.11186415
					32:leaf=-0.00829702523
				20:[f4<-0.299619436] yes=33,no=34,missing=34
					33:leaf=-0.214387923
					34:leaf=-0.0320749991
		6:[f1<1.10153019] yes=11,no=12,missing=12
			11:[f6<-0.763428271] yes=21,no=22,missing=22
				21:leaf=0.607876241
				22:[f3<0.30147177] yes=35,no=36,missing=36
					35:leaf=-0.0506284982
					36:leaf=0.273924232
			12:[f7<1.69649601] yes=23,no=24,missing=24
				23:[f8<0.917560339] yes=37,no=38,missing=38
					37:leaf=4.47758521e-06
					38:leaf=-0.180880859
				24:leaf=-0.594088614
booster[49]:
0:[f11<-1.30811274] yes=1,no=2,missing=2
	1:[f0<-1.56378794] yes=3,no=4,missing=4
		3:leaf=-0.118303455
		4:[f0<0.990089774] yes=7,no=8,missing=8
			7:leaf=0.398350924
			8:leaf=0.158105344
	2:[f2<-0.361038834] yes=5,no=6,missing=6
		5:[f5<-0.210079893] yes=9,no=10,missing=10
			9:[f6<-0.763428271] yes=13,no=14,missing=14
				13:leaf=-0.0219808463
				14:leaf=0.0694697648
			10:leaf=-0.978125632
		6:[f4<0.511203229] yes=11,no=12,missing=12
			11:[f14<0.765398324] yes=15,no=16,missing=16
				15:[f14<0.594577968] yes=19,no=20,missing=20
					19:leaf=0.0339792967
					20:leaf=0.161178693
				16:[f0<0.990089774] yes=21,no=22,missing=22
					21:leaf=-0.100969926
					22:leaf=0.116682649
			12:[f0<-0.0314613059] yes=17,no=18,missing=18
				17:[f4<1.56348741] yes=23,no=24,missing=24
					23:leaf=-0.224764526
					24:leaf=-0.0676966086
				18:[f0<0.990089774] yes=25,no=26,missing=26
					25:leaf=0.0400751717
					26:leaf=-0.0994955227
booster[50]:
0:[f6<-0.70148766] yes=1,no=2,missing=2
	1:[f12<-0.643168151] yes=3,no=4,missing=4
		3:[f1<-0.852534175] yes=7,no=8,missing=8
			7:[f0<-2.0745635] yes=13,no=14,missing=14
				13:leaf=-0.171947852
				14:[f0<-0.542236865] yes=23,no=24,missing=24
					23:leaf=0.705078125
					24:leaf=0.196482241
			8:[f1<1.10153019] yes=15,no=16,missing=16
				15:leaf=-0.235707954
				16:[f4<-0.52848959] yes=25,no=26,missing=26
					25:leaf=0.374176741
					26:leaf=0.0645312667
		4:[f0<2.01164079] yes=9,no=10,missing=10
			9:[f1<2.2509799] yes=17,no=18,missing=18
				17:[f0<0.990089774] yes=27,no=28,missing=28
					27:leaf=0.0401654057
					28:leaf=0.118406415
				18:leaf=0.457540452
			10:leaf=0.688827336
	2:[f14<1.31887209] yes=5,no=6,missing=6
		5:[f3<-3.38705921] yes=11,no=12,missing=12
			11:[f7<0.0932134241] yes=19,no=20,missing=20
				19:[f3<-3.5919776] yes=29,no=30,missing=30
					29:leaf=0.0648447424
					30:leaf=-0.0484164506
				20:leaf=-0.396220773
			12:[f1<-0.0479194149] yes=21,no=22,missing=22
				21:[f11<0.126542643] yes=31,no=32,missing=32
					31:leaf=-0.0878278166
					32:leaf=0.0780721828
				22:[f0<0.990089774] yes=33,no=34,missing=34
					33:leaf=0.0977780148
					34:leaf=-0.0299667474
		6:leaf=-0.523667753
booster[51]:
0:[f15<-0.26147452] yes=1,no=2,missing=2
	1:[f1<-0.0479194149] yes=3,no=4,missing=4
		3:[f2<0.669908404] yes=7,no=8,missing=8
			7:[f0<0.990089774] yes=15,no=16,missing=16
				15:[f6<0.0190822482] yes=29,no=30,missing=30
					29:leaf=-0.323468477
					30:leaf=-0.0815829635
				16:[f1<-0.852534175] yes=31,no=32,missing=32
					31:leaf=-0.304665178
					32:leaf=0.291025788
			8:[f0<0.990089774] yes=17,no=18,missing=18
				17:[f2<1.95859241] yes=33,no=34,missing=34
					33:leaf=0.104993053
					34:leaf=0.406785578
				18:[f3<-1.74771214] yes=35,no=36,missing=36
					35:leaf=-0.0797399506
					36:leaf=0.0399580114
		4:[f9<1.78344619] yes=9,no=10,missing=10
			9:[f2<-0.232170418] yes=19,no=20,missing=20
				19:[f1<1.10153019] yes=37,no=38,missing=38
					37:leaf=-0.173040181
					38:leaf=0.0163488556
				20:[f2<1.95859241] yes=39,no=40,missing=40
					39:leaf=-0.499896973
					40:leaf=-0.00385070499
			10:[f0<-0.542236865] yes=21,no=22,missing=22
				21:[f10<-0.842831731] yes=41,no=42,missing=42
					41:leaf=-0.298048317
					42:leaf=0.414889753
				22:[f0<0.990089774] yes=43,no=44,missing=44
					43:leaf=0.441766918
					44:leaf=0.0644726083
	2:[f10<-0.452088445] yes=5,no=6,missing=6
		5:[f2<-0.232170418] yes=11,no=12,missing=12
			11:[f4<-0.354936719] yes=23,no=24,missing=24
				23:[f4<-0.360880643] yes=45,no=46,missing=46
					45:leaf=0.452315509
					46:leaf=-0.17152068
				24:leaf=0.658210337
			12:leaf=0.102284744
		6:[f10<-0.450923413] yes=13,no=14,missing=14
			13:[f1<-0.73758918] yes=25,no=26,missing=26
				25:leaf=-0.784157991
				26:leaf=0.0684652254
			14:[f10<-0.449713975] yes=27,no=28,missing=28
				27:leaf=0.440865278
				28:[f2<4.53596067] yes=47,no=48,missing=48
					47:leaf=0.0209591128
					48:leaf=-0.144147918
booster[52]:
0:[f0<-1.05301237] yes=1,no=2,missing=2
	1:[f11<-1.30811274] yes=3,no=4,missing=4
		3:[f0<-2.0745635] yes=7,no=8,missing=8
			7:leaf=-0.177958935
			8:leaf=-1.41782713
		4:[f9<-0.0491527505] yes=9,no=10,missing=10
			9:[f0<-2.0745635] yes=15,no=16,missing=16
				15:[f1<-0.96747911] yes=23,no=24,missing=24
					23:leaf=0.0415722169
					24:leaf=-0.305394858
				16:[f4<-0.299619436] yes=25,no=26,missing=26
					25:leaf=0.142042115
					26:leaf=-0.0579682067
			10:[f9<1.88335133] yes=17,no=18,missing=18
				17:[f10<-0.378772974] yes=27,no=28,missing=28
					27:leaf=-0.324638009
					28:leaf=-0.144991532
				18:leaf=-0.117386103
	2:[f11<-1.30811274] yes=5,no=6,missing=6
		5:[f0<0.990089774] yes=11,no=12,missing=12
			11:leaf=0.533315897
			12:leaf=0.126738295
		6:[f11<-1.29874313] yes=13,no=14,missing=14
			13:[f1<1.10153019] yes=19,no=20,missing=20
				19:[f1<-0.0479194149] yes=29,no=30,missing=30
					29:leaf=0.0945700184
					30:leaf=0.717405736
				20:[f0<1.85840809] yes=31,no=32,missing=32
					31:leaf=-0.0200341363
					32:leaf=0.388475448
			14:[f0<2.01164079] yes=21,no=22,missing=22
				21:[f2<1.95859241] yes=33,no=34,missing=34
					33:leaf=-0.0274986252
					34:leaf=0.0989907756
				22:[f7<0.150261462] yes=35,no=36,missing=36
					35:leaf=-0.373711586
					36:leaf=-0.0707565546
booster[53]:
0:[f9<2.16453981] yes=1,no=2,missing=2
	1:[f1<-0.96747911] yes=3,no=4,missing=4
		3:[f9<2.11005306] yes=5,no=6,missing=6
			5:[f10<-0.161501765] yes=9,no=10,missing=10
				9:[f14<0.654117882] yes=15,no=16,missing=16
					15:leaf=0.0554608814
					16:leaf=-0.159949675
				10:[f8<-0.45185867] yes=17,no=18,missing=18
					17:leaf=-0.113052912
					18:leaf=-0.338591039
			6:leaf=0.616272032
		4:[f9<1.93330395] yes=7,no=8,missing=8
			7:[f14<0.437546194] yes=11,no=12,missing=12
				11:[f0<0.990089774] yes=19,no=20,missing=20
					19:leaf=0.0334856026
					20:leaf=-0.0270748343
				12:[f0<-1.05301237] yes=21,no=22,missing=22
					21:leaf=-0.20709978
					22:leaf=0.0735848323
			8:[f0<0.990089774] yes=13,no=14,missing=14
				13:[f1<1.10153019] yes=23,no=24,missing=24
					23:leaf=-0.507470608
					24:leaf=0.0517529771
				14:[f0<1.85840809] yes=25,no=26,missing=26
					25:leaf=0.183832377
					26:leaf=0.0129172048
	2:leaf=-0.479119539
booster[54]:
0:[f5<1.95140839] yes=1,no=2,missing=2
	1:[f2<-0.361038834] yes=3,no=4,missing=4
		3:[f5<-0.539032757] yes=7,no=8,missing=8
			7:leaf=0.0105771804
			8:leaf=-0.826150835
		4:[f2<4.53596067] yes=9,no=10,missing=10
			9:[f2<1.95859241] yes=15,no=16,missing=16
				15:[f1<-0.852534175] yes=23,no=24,missing=24
					23:leaf=-0.0644181222
					24:leaf=0.00675293012
				16:[f12<-0.310682237] yes=25,no=26,missing=26
					25:leaf=-0.0664215684
					26:leaf=0.304878533
			10:[f12<-0.30968526] yes=17,no=18,missing=18
				17:[f4<0.348212421] yes=27,no=28,missing=28
					27:leaf=0.169208482
					28:leaf=-0.134854198
				18:leaf=-0.39743951
	2:[f1<-0.852534175] yes=5,no=6,missing=6
		5:[f4<-0.52848959] yes=11,no=12,missing=12
			11:leaf=0.375564694
			12:[f1<-0.96747911] yes=19,no=20,missing=20
				19:leaf=0.664937437
				20:leaf=0.102190264
		6:[f1<-0.0479194149] yes=13,no=14,missing=14
			13:leaf=-0.200635046
			14:[f4<-0.52848959] yes=21,no=22,missing=22
				21:leaf=0.214391097
				22:leaf=0.0345599055
booster[55]:
0:[f0<-1.05301237] yes=1,no=2,missing=2
	1:[f11<-1.30811274] yes=3,no=4,missing=4
		3:[f0<-2.0745635] yes=7,no=8,missing=8
			7:leaf=-0.174780414
			8:leaf=-1.32144463
		4:[f12<-0.435893774] yes=9,no=10,missing=10
			9:[f4<0.519412279] yes=15,no=16,missing=16
				15:[f9<0.684489667] yes=23,no=24,missing=24
					23:leaf=-0.0392545313
					24:leaf=-0.204726323
				16:leaf=0.214656398
			10:[f1<-0.96747911] yes=17,no=18,missing=18
				17:leaf=0.03895697
				18:[f6<-0.75383991] yes=25,no=26,missing=26
					25:leaf=-0.628794372
					26:leaf=-0.218936071
	2:[f1<3.40042949] yes=5,no=6,missing=6
		5:[f13<1.82026362] yes=11,no=12,missing=11
			11:[f13<-0.578963459] yes=19,no=20,missing=19
				19:[f9<1.68354106] yes=27,no=28,missing=28
					27:leaf=0.00477881683
					28:leaf=-0.212387204
				20:[f1<-0.0479194149] yes=29,no=30,missing=30
					29:leaf=0.0331641547
					30:leaf=0.232376114
			12:[f2<4.53596067] yes=21,no=22,missing=22
				21:[f1<-0.852534175] yes=31,no=32,missing=32
					31:leaf=0.0440091714
					32:leaf=-0.131563202
				22:leaf=-0.631513476
		6:[f4<-0.332632095] yes=13,no=14,missing=14
			13:leaf=0.578369915
			14:leaf=0.00558323739
booster[56]:
0:[f9<2.16453981] yes=1,no=2,missing=2
	1:[f0<-1.05301237] yes=3,no=4,missing=4
		3:[f14<-0.0194216333] yes=5,no=6,missing=6
			5:[f0<-2.0745635] yes=9,no=10,missing=10
				9:[f1<-0.96747911] yes=17,no=18,missing=18
					17:leaf=0.18554534
					18:leaf=-0.273255318
				10:[f15<3.12476015] yes=19,no=20,missing=20
					19:leaf=0.0286872704
					20:leaf=0.366173685
			6:[f14<0.426432192] yes=11,no=12,missing=12
				11:[f7<-1.17697167] yes=21,no=22,missing=22
					21:leaf=-0.177148685
					22:leaf=-0.887724459
				12:[f4<0.497713745] yes=23,no=24,missing=24
					23:leaf=-0.121206492
					24:leaf=0.250433147
		4:[f1<-0.73758918] yes=7,no=8,missing=8
			7:[f2<-0.232170418] yes=13,no=14,missing=14
				13:[f8<-1.2687459] yes=25,no=26,missing=26
					25:leaf=-0.253531724
					26:leaf=-0.0604648553
				14:[f14<0.273421615] yes=27,no=28,missing=28
					27:leaf=0.0201252233
					28:leaf=0.405494481
			8:[f2<-0.232170418] yes=15,no=16,missing=16
				15:[f5<2.24210715] yes=29,no=30,missing=30
					29:leaf=0.0445396751
					30:leaf=-0.361734003
				16:[f2<1.95859241] yes=31,no=32,missing=32
					31:leaf=-0.257949799
					32:leaf=-0.0379974246
	2:leaf=-0.441517681
booster[57]:
0:[f9<2.16453981] yes=1,no=2,missing=2
	1:[f1<-0.96747911] yes=3,no=4,missing=4
		3:[f9<2.05556655] yes=5,no=6,missing=6
			5:[f8<-0.0499332994] yes=9,no=10,missing=10
				9:[f11<0.439920634] yes=15,no=16,missing=16
					15:leaf=0.200436547
					16:leaf=-0.0944938362
				10:[f0<0.990089774] yes=17,no=18,missing=18
					17:leaf=-0.286080241
					18:leaf=0.0715495348
			6:leaf=0.503157198
		4:[f9<1.83339882] yes=7,no=8,missing=8
			7:[f9<1.73349369] yes=11,no=12,missing=12
				11:[f0<-2.0745635] yes=19,no=20,missing=20
					19:leaf=-0.249290541
					20:leaf=0.0193322301
				12:[f0<-0.542236865] yes=21,no=22,missing=22
					21:leaf=0.598211467
					22:leaf=0.189619005
			8:[f1<-0.0479194149] yes=13,no=14,missing=14
				13:[f0<0.990089774] yes=23,no=24,missing=24
					23:leaf=-0.551897168
					24:leaf=0.28943789
				14:[f0<-0.542236865] yes=25,no=26,missing=26
					25:leaf=-0.059066616
					26:leaf=0.232809454
	2:leaf=-0.408327669
booster[58]:
0:[f1<2.2509799] yes=1,no=2,missing=2
	1:[f3<-3.38705921] yes=3,no=4,missing=4
		3:[f0<0.990089774] yes=7,no=8,missing=8
			7:[f0<-0.542236865] yes=11,no=12,missing=12
				11:leaf=0.0503295921
				12:leaf=0.27436173
			8:[f14<0.273421615] yes=13,no=14,missing=14
				13:[f6<-0.302805036] yes=19,no=20,missing=20
					19:leaf=0.0157865603
					20:leaf=-0.125753969
				14:[f3<-3.5919776] yes=21,no=22,missing=22
					21:leaf=-0.131936759
					22:leaf=-0.320373952
		4:[f0<0.990089774] yes=9,no=10,missing=10
			9:[f11<-0.390389651] yes=15,no=16,missing=16
				15:[f2<-0.103302017] yes=23,no=24,missing=24
					23:leaf=-0.135376573
					24:leaf=0.0819497108
				16:[f14<0.654117882] yes=25,no=26,missing=26
					25:leaf=0.070687376
					26:leaf=-0.0770004466
			10:[f8<2.49168682] yes=17,no=18,missing=18
				17:[f5<-0.64092201] yes=27,no=28,missing=28
					27:leaf=-0.0515747145
					28:leaf=0.0943719223
				18:[f2<0.669908404] yes=29,no=30,missing=30
					29:leaf=-0.442222565
					30:leaf=-0.035209462
	2:[f9<-0.39827165] yes=5,no=6,missing=6
		5:leaf=0.645203292
		6:leaf=0.187573805
booster[59]:
0:[f0<-1.05301237] yes=1,no=2,missing=2
	1:[f5<2.24210715] yes=3,no=4,missing=4
		3:[f4<-1.27663863] yes=7,no=8,missing=8
			7:leaf=-0.463882774
			8:[f5<1.03747368] yes=13,no=14,missing=14
				13:[f1<-0.0479194149] yes=23,no=24,missing=24
					23:leaf=-0.155475527
					24:leaf=-0.0595785007
				14:[f0<-2.0745635] yes=25,no=26,missing=26
					25:leaf=-0.112184212
					26:leaf=0.282691926
		4:leaf=-0.756807506
	2:[f14<1.23687589] yes=5,no=6,missing=6
		5:[f9<1.68354106] yes=9,no=10,missing=10
			9:[f14<0.58835268] yes=15,no=16,missing=16
				15:[f14<0.583182096] yes=27,no=28,missing=28
					27:leaf=0.0065677138
					28:leaf=0.299994171
				16:[f6<0.0205147322] yes=29,no=30,missing=30
					29:leaf=-0.0291516036
					30:leaf=-0.401119262
			10:[f1<-0.852534175] yes=17,no=18,missing=18
				17:[f0<-0.542236865] yes=31,no=32,missing=32
					31:leaf=-0.376561135
					32:leaf=0.0254723821
				18:[f4<-0.490372151] yes=33,no=34,missing=34
					33:leaf=0.200109243
					34:leaf=0.425632656
		6:[f4<-0.490372151] yes=11,no=12,missing=12
			11:[f1<-0.0479194149] yes=19,no=20,missing=20
				19:[f0<-0.542236865] yes=35,no=36,missing=36
					35:leaf=0.151562467
					36:leaf=-0.337187231
				20:[f0<-0.542236865] yes=37,no=38,missing=38
					37:leaf=-0.120966762
					38:leaf=0.30959776
			12:[f0<-0.542236865] yes=21,no=22,missing=22
				21:leaf=-0.190666512
				22:leaf=-0.820156217
booster[60]:
0:[f6<-0.813814878] yes=1,no=2,missing=2
	1:[f0<-1.56378794] yes=3,no=4,missing=4
		3:leaf=1.14334726
		4:[f1<-0.852534175] yes=7,no=8,missing=8
			7:[f0<-0.542236865] yes=13,no=14,missing=14
				13:leaf=0.715095162
				14:leaf=-0.00954815093
			8:[f1<-0.0479194149] yes=15,no=16,missing=16
				15:leaf=-0.27493605
				16:leaf=-0.000886512338
	2:[f14<1.23687589] yes=5,no=6,missing=6
		5:[f4<-1.0897882] yes=9,no=10,missing=10
			9:[f0<1.9094857] yes=17,no=18,missing=18
				17:[f2<-0.232170418] yes=25,no=26,missing=26
					25:leaf=-0.0773548037
					26:leaf=0.0749097914
				18:leaf=0.71387136
			10:[f2<0.669908404] yes=19,no=20,missing=20
				19:[f1<2.2509799] yes=27,no=28,missing=28
					27:leaf=0.0314670354
					28:leaf=-0.411937207
				20:[f9<-0.817333758] yes=29,no=30,missing=30
					29:leaf=-0.308257341
					30:leaf=-0.0359401219
		6:[f1<-0.0479194149] yes=11,no=12,missing=12
			11:[f0<-0.542236865] yes=21,no=22,missing=22
				21:[f4<-0.529237032] yes=31,no=32,missing=32
					31:leaf=-0.0815379247
					32:leaf=0.216077074
				22:[f0<0.990089774] yes=33,no=34,missing=34
					33:leaf=-1.04519403
					34:leaf=-0.0658445656
			12:[f0<-0.542236865] yes=23,no=24,missing=24
				23:[f0<-1.56378794] yes=35,no=36,missing=36
					35:leaf=0.0680755004
					36:leaf=-0.111873329
				24:[f0<0.990089774] yes=37,no=38,missing=38
					37:leaf=0.543822348
					38:leaf=-0
booster[61]:
0:[f6<-0.763428271] yes=1,no=2,missing=2
	1:[f1<-0.0479194149] yes=3,no=4,missing=4
		3:[f0<1.85840809] yes=7,no=8,missing=8
			7:[f0<-2.0745635] yes=13,no=14,missing=14
				13:leaf=-0.118522733
				14:[f4<-1.0897882] yes=23,no=24,missing=24
					23:leaf=0.0733136907
					24:leaf=0.20219934
			8:leaf=0.474151582
		4:[f1<1.10153019] yes=9,no=10,missing=10
			9:[f0<0.990089774] yes=15,no=16,missing=16
				15:[f0<-0.542236865] yes=25,no=26,missing=26
					25:leaf=-0.249405593
					26:leaf=0.104266599
				16:leaf=-0.344854444
