booster[0]:
0:[temperature<-0.0168224666] yes=1,no=2,missing=2
	1:[temperature<-1.5270499] yes=3,no=4,missing=4
		3:leaf=-2.38763499
		4:[vm<0.982725859] yes=7,no=8,missing=8
			7:[residence_time<-0.0682274923] yes=13,no=14,missing=14
				13:[pressure<-0.245483786] yes=25,no=26,missing=26
					25:[ac<1.70564985] yes=47,no=48,missing=48
						47:[temperature<-0.520231605] yes=79,no=80,missing=80
							79:leaf=-2.1351006
							80:leaf=-0.737107337
						48:leaf=-0.807714343
					26:[pressure<1.89490712] yes=49,no=50,missing=50
						49:leaf=-0.170022503
						50:leaf=0.359331816
				14:[wc<1.56268549] yes=27,no=28,missing=28
					27:[heat_rate<0.307050586] yes=51,no=52,missing=52
						51:[heat_rate<-3.28930426] yes=81,no=82,missing=82
							81:leaf=0.178047925
							82:leaf=0.48181653
						52:[cl<-0.49086386] yes=83,no=84,missing=84
							83:leaf=-0.207701042
							84:leaf=-0.632175446
					28:[residence_time<1.07032776] yes=53,no=54,missing=54
						53:leaf=-2.27201462
						54:leaf=-0.854342222
			8:[vm<1.92272258] yes=15,no=16,missing=16
				15:[residence_time<-0.751360655] yes=29,no=30,missing=30
					29:[pressure<-0.245483786] yes=55,no=56,missing=56
						55:[cl<-0.568158984] yes=85,no=86,missing=86
							85:leaf=-0.628879428
							86:leaf=-1.55210423
						56:leaf=1.24494898
					30:[residence_time<-0.0682274923] yes=57,no=58,missing=58
						57:leaf=-0.081834428
						58:[residence_time<1.07032776] yes=87,no=88,missing=88
							87:leaf=0.933044314
							88:leaf=0.205120936
				16:[residence_time<-0.0682274923] yes=31,no=32,missing=32
					31:[residence_time<-0.979071677] yes=59,no=60,missing=60
						59:leaf=0.59465301
						60:leaf=1.19072688
					32:leaf=2.02450037
	2:[vm<0.982725859] yes=5,no=6,missing=6
		5:[residence_time<-0.979071677] yes=9,no=10,missing=10
			9:[ac<-0.333239853] yes=17,no=18,missing=18
				17:leaf=-2.0981245
				18:[vm<-0.874633372] yes=33,no=34,missing=34
					33:[temperature<0.989995837] yes=61,no=62,missing=62
						61:leaf=-0.0743787885
						62:leaf=0.308356762
					34:[temperature<0.989995837] yes=63,no=64,missing=64
						63:[wc<0.461872518] yes=89,no=90,missing=90
							89:leaf=-1.6807034
							90:leaf=-0.148505241
						64:[vm<-0.544721901] yes=91,no=92,missing=92
							91:leaf=-0.912789524
							92:leaf=-0.432719767
			10:[vm<-0.538928092] yes=19,no=20,missing=20
				19:[temperature<0.989995837] yes=35,no=36,missing=36
					35:[wc<1.56268549] yes=65,no=66,missing=66
						65:[wc<0.501592219] yes=93,no=94,missing=94
							93:leaf=-0.3352319
							94:leaf=0.151603088
						66:[residence_time<-0.0682274923] yes=95,no=96,missing=96
							95:leaf=-1.34530509
							96:leaf=-0.84740895
					36:[pressure<-0.245483786] yes=67,no=68,missing=68
						67:[residence_time<1.07032776] yes=97,no=98,missing=98
							97:leaf=-0.116109207
							98:leaf=0.430954576
						68:[residence_time<-0.865216136] yes=99,no=100,missing=100
							99:leaf=1.40962529
							100:leaf=-0.00410693185
				20:[residence_time<-0.0682274923] yes=37,no=38,missing=38
					37:[temperature<0.989995837] yes=69,no=70,missing=70
						69:[wc<-0.292929769] yes=101,no=102,missing=102
							101:leaf=-0.52096808
							102:leaf=0.313548356
						70:[s<-0.659280062] yes=103,no=104,missing=104
							103:leaf=0.11754258
							104:leaf=0.810126483
					38:[vm<0.478907764] yes=71,no=72,missing=72
						71:[cl<-0.571833551] yes=105,no=106,missing=106
							105:leaf=0.470430702
							106:leaf=0.86919564
						72:[fuel_type_ebs1<5.33680439] yes=107,no=108,missing=108
							107:leaf=1.54617548
							108:leaf=0.697217286
		6:[fuel_type_ebs2<3.56709099] yes=11,no=12,missing=12
			11:[wc<-0.520879626] yes=21,no=22,missing=22
				21:[pressure<-0.245483786] yes=39,no=40,missing=40
					39:[cl<-0.568134725] yes=73,no=74,missing=74
						73:[residence_time<-0.865216136] yes=109,no=110,missing=110
							109:leaf=-0.615997672
							110:leaf=1.03856897
						74:leaf=1.37017083
					40:leaf=2.25364757
				22:[residence_time<-0.979071677] yes=41,no=42,missing=42
					41:leaf=1.00782108
					42:[pressure<4.41301394] yes=75,no=76,missing=76
						75:leaf=2.2996769
						76:leaf=1.36479223
			12:[residence_time<-0.865216136] yes=23,no=24,missing=24
				23:[cl<-0.56810236] yes=43,no=44,missing=44
					43:leaf=-1.40192378
					44:leaf=0.328212976
				24:[residence_time<-0.0682274923] yes=45,no=46,missing=46
					45:[temperature<0.989995837] yes=77,no=78,missing=78
						77:leaf=0.223745495
						78:leaf=1.32040787
					46:leaf=1.70453346
booster[1]:
0:[vm<0.982725859] yes=1,no=2,missing=2
	1:[residence_time<-0.0682274923] yes=3,no=4,missing=4
		3:[pressure<-0.245483786] yes=7,no=8,missing=8
			7:[s<-0.303628922] yes=15,no=16,missing=16
				15:[residence_time<-0.979071677] yes=27,no=28,missing=28
					27:[fc<-0.316218376] yes=45,no=46,missing=46
						45:leaf=-2.01714396
						46:[lhv<0.220680729] yes=69,no=70,missing=70
							69:leaf=-0.600251615
							70:leaf=-1.18516529
					28:[residence_time<-0.865216136] yes=47,no=48,missing=48
						47:[wc<-0.340638041] yes=71,no=72,missing=72
							71:leaf=-1.13163912
							72:leaf=-0.585317135
						48:[cl<-0.569777727] yes=73,no=74,missing=74
							73:leaf=0.075426355
							74:leaf=-0.530698419
				16:[wc<-0.371825904] yes=29,no=30,missing=30
					29:[fc<0.0228327122] yes=49,no=50,missing=50
						49:leaf=-1.27604711
						50:leaf=-0.227182195
					30:leaf=-1.96613216
			8:[fc<-0.764050305] yes=17,no=18,missing=18
				17:leaf=1.30906141
				18:leaf=0.510218024
		4:[vm<-0.258020192] yes=9,no=10,missing=10
			9:[s<-0.318128914] yes=19,no=20,missing=20
				19:[wc<0.514632523] yes=31,no=32,missing=32
					31:[residence_time<1.07032776] yes=51,no=52,missing=52
						51:[vm<-0.540935218] yes=75,no=76,missing=76
							75:leaf=-0.268106997
							76:leaf=0.304462671
						52:[pressure<1.89490712] yes=77,no=78,missing=78
							77:leaf=0.358715415
							78:leaf=-0
					32:[pressure<1.89490712] yes=53,no=54,missing=54
						53:[pressure<-0.245483786] yes=79,no=80,missing=80
							79:leaf=-0.0895098448
							80:leaf=-0.410239398
						54:[pressure<4.41301394] yes=81,no=82,missing=82
							81:leaf=0.159056008
							82:leaf=-0.0326084644
				20:[pressure<-0.245483786] yes=33,no=34,missing=34
					33:[residence_time<1.07032776] yes=55,no=56,missing=56
						55:[vm<-0.544721901] yes=83,no=84,missing=84
							83:leaf=-0.842622459
							84:leaf=0.234365821
						56:[vm<-0.544721901] yes=85,no=86,missing=86
							85:leaf=0.0923622176
							86:leaf=-0.922950804
					34:leaf=-0.949685454
			10:[wc<-0.369334936] yes=21,no=22,missing=22
				21:[s<-0.657271981] yes=35,no=36,missing=36
					35:[pressure<-0.245483786] yes=57,no=58,missing=58
						57:[wc<-0.521624029] yes=87,no=88,missing=88
							87:leaf=0.58272928
							88:leaf=-0.411137223
						58:leaf=1.34298503
					36:[vm<-0.190280452] yes=59,no=60,missing=60
						59:leaf=0.656174541
						60:leaf=1.29611719
				22:[pressure<-0.245483786] yes=37,no=38,missing=38
					37:[lhv<0.244470134] yes=61,no=62,missing=62
						61:leaf=0.708254457
						62:[lhv<0.248739839] yes=89,no=90,missing=90
							89:leaf=-0.819922924
							90:leaf=-0.0117032975
					38:leaf=0.784350932
	2:[residence_time<-0.0682274923] yes=5,no=6,missing=6
		5:[pressure<-0.245483786] yes=11,no=12,missing=12
			11:[wc<-0.558843851] yes=23,no=24,missing=24
				23:[cl<-0.568045676] yes=39,no=40,missing=40
					39:[cl<-0.568191409] yes=63,no=64,missing=64
						63:[cl<-0.569308341] yes=91,no=92,missing=92
							91:leaf=-0.735970855
							92:leaf=-0.206029832
						64:leaf=-1.58416295
					40:[wc<-1.2660203] yes=65,no=66,missing=66
						65:[cl<-0.566831648] yes=93,no=94,missing=94
							93:leaf=0.197291851
							94:leaf=0.991774321
						66:leaf=-0.963590801
				24:[residence_time<-0.751360655] yes=41,no=42,missing=42
					41:[pressure<-0.371389121] yes=67,no=68,missing=68
						67:leaf=-0
						68:[residence_time<-0.865216136] yes=95,no=96,missing=96
							95:leaf=0.652456403
							96:leaf=0.336224318
					42:leaf=1.21831286
			12:leaf=1.74366546
		6:[pressure<-0.245483786] yes=13,no=14,missing=14
			13:[vm<1.92272258] yes=25,no=26,missing=26
				25:[cl<-0.49086386] yes=43,no=44,missing=44
					43:leaf=1.26806366
					44:leaf=0.344897091
				26:leaf=2.00223899
			14:leaf=1.73170304
booster[2]:
0:[temperature<-0.0168224666] yes=1,no=2,missing=2
	1:[temperature<-1.5270499] yes=3,no=4,missing=4
		3:[n<0.459131807] yes=7,no=8,missing=8
			7:leaf=-2.41132712
			8:leaf=-1.29848802
		4:[vm<1.92272258] yes=9,no=10,missing=10
			9:[residence_time<-0.0682274923] yes=15,no=16,missing=16
				15:[pressure<-0.245483786] yes=27,no=28,missing=28
					27:[n<-1.29252744] yes=43,no=44,missing=44
						43:leaf=-0.721282601
						44:[h<1.76722372] yes=71,no=72,missing=72
							71:leaf=-1.63066733
							72:leaf=-2.46549582
					28:[vm<-0.221618876] yes=45,no=46,missing=46
						45:leaf=-0.158190534
						46:leaf=0.989083707
				16:[wc<1.56268549] yes=29,no=30,missing=30
					29:[c<0.850532115] yes=47,no=48,missing=48
						47:[wc<-0.343556434] yes=73,no=74,missing=74
							73:leaf=-0.781208336
							74:leaf=-0.157616287
						48:leaf=0.738568246
					30:[residence_time<1.07032776] yes=49,no=50,missing=50
						49:leaf=-1.94579446
						50:leaf=-0.71518755
			10:[residence_time<1.07032776] yes=17,no=18,missing=18
				17:leaf=1.07009649
				18:leaf=1.87224817
	2:[vm<0.982725859] yes=5,no=6,missing=6
		5:[residence_time<-0.979071677] yes=11,no=12,missing=12
			11:[n<-0.397343934] yes=19,no=20,missing=20
				19:leaf=-1.71221304
				20:[temperature<0.989995837] yes=31,no=32,missing=32
					31:[wc<0.428225547] yes=51,no=52,missing=52
						51:leaf=-1.43781185
						52:leaf=-0.384398341
					32:[n<0.468036413] yes=53,no=54,missing=54
						53:[vm<-0.53190124] yes=75,no=76,missing=76
							75:leaf=0.306367248
							76:leaf=-0.446109831
						54:leaf=-0.781721294
			12:[vm<-0.539000511] yes=21,no=22,missing=22
				21:[temperature<0.989995837] yes=33,no=34,missing=34
					33:[s<-0.318128914] yes=55,no=56,missing=56
						55:[heat_rate<0.307050586] yes=77,no=78,missing=78
							77:leaf=0.582761347
							78:leaf=0.018150311
						56:[wc<-1.07992125] yes=79,no=80,missing=80
							79:leaf=-0.563514769
							80:leaf=-1.2008307
					34:[pressure<-0.245483786] yes=57,no=58,missing=58
						57:[residence_time<1.07032776] yes=81,no=82,missing=82
							81:leaf=-0.111449756
							82:leaf=0.390023977
						58:[wc<-1.07992125] yes=83,no=84,missing=84
							83:leaf=2.03132582
							84:leaf=0.893921018
				22:[residence_time<-0.0682274923] yes=35,no=36,missing=36
					35:[temperature<0.989995837] yes=59,no=60,missing=60
						59:[h<0.73943007] yes=85,no=86,missing=86
							85:leaf=0.161181688
							86:leaf=-0.606132805
						60:[n<0.191384703] yes=87,no=88,missing=88
							87:leaf=0.724033415
							88:leaf=0.0733906478
					36:[vm<0.478907764] yes=61,no=62,missing=62
						61:[vm<-0.221618876] yes=89,no=90,missing=90
							89:leaf=0.560951769
							90:leaf=0.792080224
						62:leaf=1.33394909
		6:[fuel_type_ebs2<3.56709099] yes=13,no=14,missing=14
			13:[residence_time<-0.979071677] yes=23,no=24,missing=24
				23:leaf=0.566775084
				24:[wc<-0.558843851] yes=37,no=38,missing=38
					37:[pressure<-0.119578443] yes=63,no=64,missing=64
						63:[residence_time<-0.865216136] yes=91,no=92,missing=92
							91:leaf=0.199248835
							92:leaf=1.19002366
						64:leaf=2.18445039
					38:[pressure<0.635853648] yes=65,no=66,missing=66
						65:leaf=2.02734637
						66:[temperature<0.989995837] yes=93,no=94,missing=94
							93:leaf=1.89458966
							94:leaf=1.08127844
			14:[residence_time<-0.865216136] yes=25,no=26,missing=26
				25:[residence_time<-0.979071677] yes=39,no=40,missing=40
					39:leaf=-1.07777417
					40:[temperature<0.989995837] yes=67,no=68,missing=68
						67:leaf=-0.20071584
						68:leaf=0.175314054
				26:[residence_time<-0.751360655] yes=41,no=42,missing=42
					41:[temperature<0.989995837] yes=69,no=70,missing=70
						69:leaf=0.249416023
						70:leaf=0.80099535
					42:leaf=1.38061845
booster[3]:
0:[ac<-1.16533792] yes=1,no=2,missing=2
	1:[residence_time<-0.751360655] yes=3,no=4,missing=4
		3:[wc<-0.520879626] yes=7,no=8,missing=8
			7:leaf=0.0910961181
			8:[fuel_type_wood<2.71642184] yes=15,no=16,missing=16
				15:leaf=1.20409155
				16:[pressure<-0.245483786] yes=27,no=28,missing=28
					27:[residence_time<-0.979071677] yes=39,no=40,missing=40
						39:leaf=0.625229239
						40:[residence_time<-0.865216136] yes=57,no=58,missing=58
							57:leaf=0.173197031
							58:leaf=0.495571464
					28:[pressure<1.89490712] yes=41,no=42,missing=42
						41:leaf=1.58851373
						42:leaf=0.206811085
		4:[wc<-0.325809658] yes=9,no=10,missing=10
			9:[residence_time<-0.0682274923] yes=17,no=18,missing=18
				17:leaf=0.714615226
				18:leaf=1.73143899
			10:[pressure<1.89490712] yes=19,no=20,missing=20
				19:[heat_rate<0.307050586] yes=29,no=30,missing=30
					29:leaf=1.58752203
					30:leaf=1.04220784
				20:leaf=1.44775712
	2:[residence_time<-0.979071677] yes=5,no=6,missing=6
		5:[c<-0.000441357493] yes=11,no=12,missing=12
			11:[wc<-1.07992125] yes=21,no=22,missing=22
				21:leaf=-1.38212204
				22:[s<-0.432877123] yes=31,no=32,missing=32
					31:[c<-0.0611460581] yes=43,no=44,missing=44
						43:[lhv<-0.571196616] yes=59,no=60,missing=60
							59:leaf=-0.591424823
							60:leaf=-0.99140805
						44:leaf=-0.472197354
					32:leaf=-0.292066336
			12:leaf=-1.80309141
		6:[o<-0.845605791] yes=13,no=14,missing=14
			13:[pressure<-0.371389121] yes=23,no=24,missing=24
				23:leaf=-0.945234835
				24:[residence_time<-0.0682274923] yes=33,no=34,missing=34
					33:[pressure<-0.119578443] yes=45,no=46,missing=46
						45:[residence_time<-0.865216136] yes=61,no=62,missing=62
							61:leaf=-0.209816769
							62:leaf=0.450009465
						46:[wc<-1.45211935] yes=63,no=64,missing=64
							63:leaf=0.438689977
							64:leaf=1.43069291
					34:[n<-0.442766726] yes=47,no=48,missing=48
						47:leaf=1.13179255
						48:leaf=0.767113924
			14:[residence_time<-0.0682274923] yes=25,no=26,missing=26
				25:[c<0.0475531928] yes=35,no=36,missing=36
					35:[pressure<-0.119578443] yes=49,no=50,missing=50
						49:[s<-0.431071132] yes=65,no=66,missing=66
							65:leaf=-0.113804951
							66:leaf=-0.654423654
						50:[wc<-1.07992125] yes=67,no=68,missing=68
							67:leaf=1.32313716
							68:leaf=0.700353384
					36:[wc<-0.521624029] yes=51,no=52,missing=52
						51:[c<0.886999249] yes=69,no=70,missing=70
							69:leaf=-0.471107334
							70:leaf=0.175893769
						52:[wc<-0.292929769] yes=71,no=72,missing=72
							71:leaf=-1.12103426
							72:leaf=-1.73282194
				26:[h<-0.056713786] yes=37,no=38,missing=38
					37:[heat_rate<0.307050586] yes=53,no=54,missing=54
						53:[h<-0.81405586] yes=73,no=74,missing=74
							73:leaf=0.596045971
							74:leaf=0.191767186
						54:[ac<0.432430893] yes=75,no=76,missing=76
							75:leaf=-0.583835363
							76:leaf=-0.137472734
					38:[ac<0.12275058] yes=55,no=56,missing=56
						55:[h<1.86637986] yes=77,no=78,missing=78
							77:leaf=1.01903915
							78:leaf=0.240465701
						56:[pressure<-0.245483786] yes=79,no=80,missing=80
							79:leaf=-0.151585296
							80:leaf=0.588020504
booster[4]:
0:[temperature<-0.520231605] yes=1,no=2,missing=2
	1:[vm<1.05311] yes=3,no=4,missing=4
		3:[temperature<-1.5270499] yes=7,no=8,missing=8
			7:leaf=-2.16111827
			8:[o<-0.314989954] yes=15,no=16,missing=16
				15:[ac<0.268531561] yes=27,no=28,missing=28
					27:[wc<-1.45211935] yes=45,no=46,missing=46
						45:leaf=-0.0664024428
						46:[ac<0.12275058] yes=69,no=70,missing=70
							69:leaf=-1.64793277
							70:leaf=-1.14562964
					28:[wc<-0.33467558] yes=47,no=48,missing=48
						47:leaf=0.370286524
						48:leaf=-0.438946396
				16:[wc<-0.292929769] yes=29,no=30,missing=30
					29:leaf=-1.09501529
					30:[wc<0.4648031] yes=49,no=50,missing=50
						49:[heat_rate<0.307050586] yes=71,no=72,missing=72
							71:leaf=0.370043218
							72:leaf=-0.15461421
						50:[temperature<-1.02364075] yes=73,no=74,missing=74
							73:leaf=-0.125819325
							74:leaf=-0.600746274
		4:[temperature<-2.03045917] yes=9,no=10,missing=10
			9:leaf=-2.64824772
			10:[wc<-1.2660203] yes=17,no=18,missing=18
				17:[cl<-0.568045676] yes=31,no=32,missing=32
					31:[cl<-0.568126619] yes=51,no=52,missing=52
						51:leaf=-0.748493195
						52:leaf=-1.72918415
					32:[temperature<-1.02364075] yes=53,no=54,missing=54
						53:[cl<-0.488953739] yes=75,no=76,missing=76
							75:leaf=-1.30887127
							76:leaf=-0.154942259
						54:[fuel_type_ebs2<3.56709099] yes=77,no=78,missing=78
							77:leaf=0.832285881
							78:leaf=0.302214354
				18:[temperature<-1.5270499] yes=33,no=34,missing=34
					33:leaf=0.240592048
					34:leaf=1.38439977
	2:[vm<0.982725859] yes=5,no=6,missing=6
		5:[vm<-0.538574636] yes=11,no=12,missing=12
			11:[temperature<0.989995837] yes=19,no=20,missing=20
				19:[s<-0.318128914] yes=35,no=36,missing=36
					35:[heat_rate<0.307050586] yes=55,no=56,missing=56
						55:leaf=0.528764546
						56:[wc<0.503252864] yes=79,no=80,missing=80
							79:leaf=-0.323218733
							80:leaf=0.0840925947
					36:[wc<-1.07992125] yes=57,no=58,missing=58
						57:leaf=-0.428873628
						58:leaf=-0.91740793
				20:[heat_rate<-3.48910165] yes=37,no=38,missing=38
					37:leaf=0.677507281
					38:[ac<1.70564985] yes=59,no=60,missing=60
						59:[ac<0.435393602] yes=81,no=82,missing=82
							81:leaf=-0.0318760052
							82:leaf=0.130270466
						60:leaf=0.482416004
			12:[fuel_type_ebs2<3.56709099] yes=21,no=22,missing=22
				21:[cl<-0.570927083] yes=39,no=40,missing=40
					39:[temperature<0.989995837] yes=61,no=62,missing=62
						61:[wc<0.461872518] yes=83,no=84,missing=84
							83:leaf=-0.708482265
							84:leaf=0.34563303
						62:[s<-0.430596441] yes=85,no=86,missing=86
							85:leaf=0.529651642
							86:leaf=0.165991426
					40:[h<2.03730369] yes=63,no=64,missing=64
						63:[vm<0.978966057] yes=87,no=88,missing=88
							87:leaf=0.605220973
							88:leaf=0.208388001
						64:[temperature<1.84579134] yes=89,no=90,missing=90
							89:leaf=-0.0485134386
							90:leaf=0.831925452
				22:leaf=1.10510552
		6:[fuel_type_ebs2<3.56709099] yes=13,no=14,missing=14
			13:[wc<-0.520879626] yes=23,no=24,missing=24
				23:[cl<-0.568134725] yes=41,no=42,missing=42
					41:[cl<-0.568361342] yes=65,no=66,missing=66
						65:leaf=1.20511353
						66:leaf=-0.2533952
					42:[cl<-0.566831648] yes=67,no=68,missing=68
						67:leaf=1.87477756
						68:leaf=0.886055827
				24:leaf=1.66855896
			14:[cl<-0.568134725] yes=25,no=26,missing=26
				25:[temperature<0.989995837] yes=43,no=44,missing=44
					43:leaf=-1.49943852
					44:leaf=-0.682768524
				26:leaf=1.21376765
booster[5]:
0:[temperature<-0.520231605] yes=1,no=2,missing=2
	1:[temperature<-1.5270499] yes=3,no=4,missing=4
		3:[n<0.14772962] yes=7,no=8,missing=8
			7:leaf=-2.28564978
			8:leaf=-1.53740501
		4:[vm<1.92272258] yes=9,no=10,missing=10
			9:[residence_time<-0.0682274923] yes=15,no=16,missing=16
				15:[vm<0.982725859] yes=27,no=28,missing=28
					27:[wc<-1.45211935] yes=45,no=46,missing=46
						45:leaf=-0.0761320069
						46:[c<0.74113071] yes=71,no=72,missing=72
							71:leaf=-1.20591938
							72:leaf=-2.09102273
					28:[fuel_type_ebs1<5.33680439] yes=47,no=48,missing=48
						47:[wc<-0.558843851] yes=73,no=74,missing=74
							73:leaf=-0.955298424
							74:leaf=-0.272450686
						48:leaf=0.0512498468
				16:[wc<0.50842613] yes=29,no=30,missing=30
					29:[c<0.850532115] yes=49,no=50,missing=50
						49:[s<-0.30515933] yes=75,no=76,missing=76
							75:leaf=0.0438237451
							76:leaf=-0.634912014
						50:[residence_time<1.07032776] yes=77,no=78,missing=78
							77:leaf=0.384112686
							78:leaf=0.82414937
					30:[wc<1.56268549] yes=51,no=52,missing=52
						51:leaf=-0.584948421
						52:leaf=-1.18805575
			10:[residence_time<-0.979071677] yes=17,no=18,missing=18
				17:leaf=0.595717609
				18:leaf=1.36895347
	2:[vm<0.982725859] yes=5,no=6,missing=6
		5:[residence_time<-0.979071677] yes=11,no=12,missing=12
			11:[temperature<0.989995837] yes=19,no=20,missing=20
				19:[n<0.14772962] yes=31,no=32,missing=32
					31:leaf=-1.63878417
					32:[vm<-0.649043202] yes=53,no=54,missing=54
						53:leaf=-0.228024498
						54:[wc<0.461872518] yes=79,no=80,missing=80
							79:leaf=-1.21061015
							80:leaf=-0.447397441
				20:[n<-0.397343934] yes=33,no=34,missing=34
					33:leaf=-1.02207243
					34:[n<0.463155836] yes=55,no=56,missing=56
						55:[wc<-0.388397872] yes=81,no=82,missing=82
							81:leaf=-0.41316843
							82:leaf=0.159030274
						56:[wc<0.509702206] yes=83,no=84,missing=84
							83:leaf=-0.353075653
							84:leaf=-0.769428849
			12:[h<-0.0631342456] yes=21,no=22,missing=22
				21:[temperature<0.989995837] yes=35,no=36,missing=36
					35:[fc<0.150875181] yes=57,no=58,missing=58
						57:[wc<0.501592219] yes=85,no=86,missing=86
							85:leaf=-0.194948852
							86:leaf=0.0480413437
						58:[residence_time<-0.865216136] yes=87,no=88,missing=88
							87:leaf=-1.1942488
							88:leaf=-0.704847515
					36:[residence_time<-0.865216136] yes=59,no=60,missing=60
						59:[vm<-0.874633372] yes=89,no=90,missing=90
							89:leaf=-0.186964363
							90:leaf=0.850396574
						60:[residence_time<-0.751360655] yes=91,no=92,missing=92
							91:leaf=-0.837764621
							92:leaf=0.27278766
				22:[residence_time<-0.751360655] yes=37,no=38,missing=38
					37:[temperature<0.989995837] yes=61,no=62,missing=62
						61:[h<1.86637986] yes=93,no=94,missing=94
							93:leaf=-0.100052841
							94:leaf=-1.47237968
						62:[h<2.03730369] yes=95,no=96,missing=96
							95:leaf=0.679749012
							96:leaf=0.221290752
					38:[vm<0.478907764] yes=63,no=64,missing=64
						63:[vm<-0.221618876] yes=97,no=98,missing=98
							97:leaf=0.408990651
							98:leaf=0.691968858
						64:[residence_time<-0.0682274923] yes=99,no=100,missing=100
							99:leaf=0.425283611
							100:leaf=1.12821662
		6:[residence_time<-0.979071677] yes=13,no=14,missing=14
			13:[temperature<0.989995837] yes=23,no=24,missing=24
				23:leaf=-1.12178123
				24:[wc<-1.2660203] yes=39,no=40,missing=40
					39:leaf=-0.650463223
					40:leaf=1.12275326
			14:[fuel_type_ebs2<3.56709099] yes=25,no=26,missing=26
				25:[residence_time<1.07032776] yes=41,no=42,missing=42
					41:[temperature<0.989995837] yes=65,no=66,missing=66
						65:[residence_time<-0.865216136] yes=101,no=102,missing=102
							101:leaf=1.04840982
							102:leaf=1.61019886
						66:[h<1.66806769] yes=103,no=104,missing=104
							103:leaf=1.87881982
							104:leaf=0.835948229
					42:[wc<-1.2660203] yes=67,no=68,missing=68
						67:leaf=0.950437844
						68:leaf=1.40675795
				26:[residence_time<-0.865216136] yes=43,no=44,missing=44
					43:leaf=-0.358991474
					44:[residence_time<-0.751360655] yes=69,no=70,missing=70
						69:leaf=0.498930722
						70:leaf=1.22959101
booster[6]:
0:[temperature<-0.0168224666] yes=1,no=2,missing=2
	1:[temperature<-1.5270499] yes=3,no=4,missing=4
		3:[s<-0.611085951] yes=7,no=8,missing=8
			7:leaf=-2.49064183
			8:[o<-0.150879025] yes=15,no=16,missing=16
				15:leaf=-1.71720374
				16:leaf=-1.01261091
		4:[residence_time<-0.0682274923] yes=9,no=10,missing=10
			9:[o<-0.144980565] yes=17,no=18,missing=18
				17:[cl<-0.567001581] yes=29,no=30,missing=30
					29:[ac<0.12275058] yes=49,no=50,missing=50
						49:leaf=-1.84295189
						50:[o<-0.349724501] yes=79,no=80,missing=80
							79:leaf=-1.52751648
							80:leaf=-0.907211781
					30:[pressure<-0.245483786] yes=51,no=52,missing=52
						51:[wc<-0.521624029] yes=81,no=82,missing=82
							81:leaf=-1.21647573
							82:leaf=-0.237615436
						52:leaf=0.0951948166
				18:[fc<0.038798824] yes=31,no=32,missing=32
					31:leaf=0.71773535
					32:[pressure<-0.245483786] yes=53,no=54,missing=54
						53:[residence_time<-0.979071677] yes=83,no=84,missing=84
							83:leaf=-1.16146314
							84:leaf=-0.50616622
						54:leaf=0.585740983
			10:[vm<0.0892383084] yes=19,no=20,missing=20
				19:[s<-0.30515933] yes=33,no=34,missing=34
					33:[wc<-0.33467558] yes=55,no=56,missing=56
						55:leaf=0.479618311
						56:[vm<-0.523584187] yes=85,no=86,missing=86
							85:leaf=-0.02184215
							86:leaf=-0.300803959
					34:[residence_time<1.07032776] yes=57,no=58,missing=58
						57:leaf=-1.12731016
						58:[wc<-1.07992125] yes=87,no=88,missing=88
							87:leaf=-0.130010724
							88:leaf=-0.681749821
				20:[cl<-0.568158984] yes=35,no=36,missing=36
					35:[fc<-0.627678275] yes=59,no=60,missing=60
						59:leaf=-0.721868873
						60:leaf=0.576245487
					36:[temperature<-1.02364075] yes=61,no=62,missing=62
						61:leaf=-0.181905195
						62:leaf=1.06666863
	2:[vm<0.982725859] yes=5,no=6,missing=6
		5:[residence_time<-0.979071677] yes=11,no=12,missing=12
			11:[ac<-0.333239853] yes=21,no=22,missing=22
				21:leaf=-1.33697236
				22:[wc<-0.3534666] yes=37,no=38,missing=38
					37:[temperature<0.989995837] yes=63,no=64,missing=64
						63:leaf=-1.05257881
						64:[cl<-0.567058265] yes=89,no=90,missing=90
							89:leaf=-0.791987777
							90:leaf=-0.403625011
					38:[wc<0.503252864] yes=65,no=66,missing=66
						65:[temperature<0.989995837] yes=91,no=92,missing=92
							91:leaf=-0.434560657
							92:leaf=0.223781392
						66:leaf=-0.764719069
			12:[h<-0.0631342456] yes=23,no=24,missing=24
				23:[temperature<0.989995837] yes=39,no=40,missing=40
					39:[ac<0.433806658] yes=67,no=68,missing=68
						67:[residence_time<-0.865216136] yes=93,no=94,missing=94
							93:leaf=-1.13948357
							94:leaf=-0.569111168
						68:[pressure<0.635853648] yes=95,no=96,missing=96
							95:leaf=0.224937335
							96:leaf=-0.310699642
					40:[fuel_type_wood<2.71642184] yes=69,no=70,missing=70
						69:[residence_time<1.07032776] yes=97,no=98,missing=98
							97:leaf=0.0487550162
							98:leaf=0.331238925
						70:leaf=1.70402491
				24:[residence_time<-0.0682274923] yes=41,no=42,missing=42
					41:[temperature<0.989995837] yes=71,no=72,missing=72
						71:[h<1.91595781] yes=99,no=100,missing=100
							99:leaf=0.0480655283
							100:leaf=-1.42017412
						72:[cl<-0.570991814] yes=101,no=102,missing=102
							101:leaf=0.160118043
							102:leaf=0.623594165
					42:[vm<0.478907764] yes=73,no=74,missing=74
						73:[vm<-0.221618876] yes=103,no=104,missing=104
							103:leaf=0.403589606
							104:leaf=0.666974306
						74:leaf=1.10738504
		6:[fuel_type_ebs2<3.56709099] yes=13,no=14,missing=14
			13:[pressure<-0.371389121] yes=25,no=26,missing=26
				25:leaf=-0.128407046
				26:[residence_time<-0.979071677] yes=43,no=44,missing=44
					43:leaf=0.628506362
					44:[ac<-0.428398222] yes=75,no=76,missing=76
						75:leaf=1.46969759
						76:leaf=0.870244682
			14:[residence_time<-0.865216136] yes=27,no=28,missing=28
				27:[cl<-0.568134725] yes=45,no=46,missing=46
					45:leaf=-1.23654246
					46:leaf=-0.10677097
				28:[residence_time<-0.751360655] yes=47,no=48,missing=48
					47:[cl<-0.566944957] yes=77,no=78,missing=78
						77:leaf=0.0251030903
						78:leaf=0.635180414
					48:leaf=1.13594902
booster[7]:
0:[temperature<-0.520231605] yes=1,no=2,missing=2
	1:[temperature<-1.5270499] yes=3,no=4,missing=4
		3:[wc<0.470033377] yes=7,no=8,missing=8
			7:[fuel_type_ebs2<3.56709099] yes=15,no=16,missing=16
				15:leaf=-1.85758197
				16:leaf=-0.90469116
			8:leaf=-0.758109689
		4:[vm<1.92272258] yes=9,no=10,missing=10
			9:[wc<1.56268549] yes=17,no=18,missing=18
				17:[n<0.471591383] yes=27,no=28,missing=28
					27:[fuel_type_digestate<1.22282374] yes=41,no=42,missing=42
						41:[heat_rate<0.307050586] yes=57,no=58,missing=58
							57:leaf=0.388885707
							58:leaf=-0.242064387
						42:[vm<-0.200269505] yes=59,no=60,missing=60
							59:leaf=-0.223482922
							60:leaf=-0.808390737
					28:[wc<-1.07992125] yes=43,no=44,missing=44
						43:leaf=-1.04940915
						44:leaf=-0.668595612
				18:leaf=-1.53056192
			10:leaf=1.08150637
	2:[vm<0.982725859] yes=5,no=6,missing=6
		5:[fuel_type_coal<3.06679463] yes=11,no=12,missing=12
			11:[fuel_type_sewage<2.80079365] yes=19,no=20,missing=20
				19:[wc<-0.634772301] yes=29,no=30,missing=30
					29:[wc<-1.45211935] yes=45,no=46,missing=46
						45:[temperature<0.989995837] yes=61,no=62,missing=62
							61:leaf=0.846008122
							62:leaf=0.447466075
						46:leaf=0.93085587
					30:[temperature<0.989995837] yes=47,no=48,missing=48
						47:[n<-0.397343934] yes=63,no=64,missing=64
							63:leaf=-0.402557701
							64:leaf=0.101130262
						48:[wc<0.49847424] yes=65,no=66,missing=66
							65:leaf=0.389867008
							66:leaf=0.0555580705
				20:[temperature<0.989995837] yes=31,no=32,missing=32
					31:leaf=-0.481321067
					32:[heat_rate<-3.28930426] yes=49,no=50,missing=50
						49:leaf=-0.0923886448
						50:[heat_rate<0.307050586] yes=67,no=68,missing=68
							67:leaf=0.378675967
							68:leaf=0.0477647856
			12:[heat_rate<0.307050586] yes=21,no=22,missing=22
				21:[heat_rate<-3.28930426] yes=33,no=34,missing=34
					33:leaf=0.479491025
					34:leaf=0.0997256488
				22:[temperature<0.989995837] yes=35,no=36,missing=36
					35:leaf=-0.786432743
					36:leaf=-0.342123657
		6:[fuel_type_ebs2<3.56709099] yes=13,no=14,missing=14
			13:[wc<-0.520879626] yes=23,no=24,missing=24
				23:[cl<-0.568134725] yes=37,no=38,missing=38
					37:[cl<-0.569340706] yes=51,no=52,missing=52
						51:leaf=1.14244652
						52:leaf=-1.04044998
					38:[cl<-0.566831648] yes=53,no=54,missing=54
						53:leaf=1.56917059
						54:leaf=0.782293797
				24:leaf=1.29168487
			14:[cl<-0.56810236] yes=25,no=26,missing=26
				25:leaf=-0.947984874
				26:[cl<-0.56801331] yes=39,no=40,missing=40
					39:leaf=1.11376822
					40:[cl<-0.566888273] yes=55,no=56,missing=56
						55:[cl<-0.566944957] yes=69,no=70,missing=70
							69:leaf=-0.0365950726
							70:leaf=0.326331049
						56:leaf=0.975842953
booster[8]:
0:[temperature<-0.0168224666] yes=1,no=2,missing=2
	1:[temperature<-1.5270499] yes=3,no=4,missing=4
		3:[temperature<-2.03045917] yes=7,no=8,missing=8
			7:leaf=-2.18997288
			8:[h<-0.715970933] yes=15,no=16,missing=16
				15:leaf=-0.759298503
				16:[s<-0.609077871] yes=27,no=28,missing=28
					27:leaf=-1.99990118
					28:leaf=-1.18835676
		4:[fc<-0.81124121] yes=9,no=10,missing=10
			9:[residence_time<-0.979071677] yes=17,no=18,missing=18
				17:leaf=0.251303107
				18:leaf=1.12775695
			10:[residence_time<-0.0682274923] yes=19,no=20,missing=20
				19:[fc<2.51041985] yes=29,no=30,missing=30
					29:[ac<-0.390238672] yes=43,no=44,missing=44
						43:[cl<-0.568045676] yes=63,no=64,missing=64
							63:leaf=-0.855395377
							64:leaf=0.0261345524
						44:[lhv<0.268088758] yes=65,no=66,missing=66
							65:leaf=-0.807038546
							66:leaf=-1.56999159
					30:leaf=-1.90378284
				20:[fc<2.51041985] yes=31,no=32,missing=32
					31:[o<-0.236837223] yes=45,no=46,missing=46
						45:[residence_time<1.07032776] yes=67,no=68,missing=68
							67:leaf=-0.153782725
							68:leaf=0.531104445
						46:[h<-0.0690249503] yes=69,no=70,missing=70
							69:leaf=-0.298724562
							70:leaf=0.0539192408
					32:[residence_time<1.07032776] yes=47,no=48,missing=48
						47:leaf=-1.66394424
						48:leaf=-0.00709212385
	2:[ac<-0.965517759] yes=5,no=6,missing=6
		5:[residence_time<-0.979071677] yes=11,no=12,missing=12
			11:leaf=0.325408727
			12:[n<-1.29252744] yes=21,no=22,missing=22
				21:[residence_time<1.07032776] yes=33,no=34,missing=34
					33:leaf=1.48538303
					34:leaf=1.09910023
				22:leaf=0.698848009
		6:[residence_time<-0.979071677] yes=13,no=14,missing=14
			13:[temperature<0.989995837] yes=23,no=24,missing=24
				23:[n<0.14772962] yes=35,no=36,missing=36
					35:leaf=-1.52918851
					36:[s<-0.318128914] yes=49,no=50,missing=50
						49:[ac<0.429819494] yes=71,no=72,missing=72
							71:leaf=-0.692671239
							72:leaf=0.0127878571
						50:leaf=-0.859014928
				24:[cl<-0.566888273] yes=37,no=38,missing=38
					37:[n<-0.397343934] yes=51,no=52,missing=52
						51:[cl<-0.568158984] yes=73,no=74,missing=74
							73:leaf=-1.026353
							74:leaf=-0.453480244
						52:[fc<0.0232774764] yes=75,no=76,missing=76
							75:leaf=0.0792054981
							76:leaf=-0.432235658
					38:[fc<-0.764050305] yes=53,no=54,missing=54
						53:leaf=-0.284973651
						54:leaf=0.598971248
			14:[h<-0.0505400077] yes=25,no=26,missing=26
				25:[ac<0.429896206] yes=39,no=40,missing=40
					39:[residence_time<-0.0682274923] yes=55,no=56,missing=56
						55:[residence_time<-0.865216136] yes=77,no=78,missing=78
							77:leaf=-0.961395085
							78:leaf=-0.572956204
						56:[heat_rate<0.307050586] yes=79,no=80,missing=80
							79:leaf=0.466123939
							80:leaf=-0.198473677
					40:[residence_time<-0.865216136] yes=57,no=58,missing=58
						57:[n<0.468439132] yes=81,no=82,missing=82
							81:leaf=-0.187072694
							82:leaf=0.572630644
						58:[n<0.470689923] yes=83,no=84,missing=84
							83:leaf=0.281385213
							84:leaf=-0.0339838304
				26:[residence_time<-0.0682274923] yes=41,no=42,missing=42
					41:[cl<-0.568134725] yes=59,no=60,missing=60
						59:[temperature<0.989995837] yes=85,no=86,missing=86
							85:leaf=-0.666359484
							86:leaf=0.440282613
						60:[fuel_type_ebs1<5.33680439] yes=87,no=88,missing=88
							87:leaf=0.591543198
							88:leaf=1.50891566
					42:[fc<-0.642509699] yes=61,no=62,missing=62
						61:[heat_rate<-3.48910165] yes=89,no=90,missing=90
							89:leaf=0.385582477
							90:leaf=1.08423579
						62:[fc<0.0382953361] yes=91,no=92,missing=92
							91:leaf=0.675938785
							92:leaf=0.331855178
booster[9]:
0:[residence_time<-0.979071677] yes=1,no=2,missing=2
	1:[o<-0.164625943] yes=3,no=4,missing=4
		3:[n<0.170441017] yes=7,no=8,missing=8
			7:leaf=-1.38285935
			8:[vm<-0.194053173] yes=15,no=16,missing=16
				15:[fc<0.0231233817] yes=29,no=30,missing=30
					29:[cl<1.60465503] yes=47,no=48,missing=48
						47:leaf=-1.26324284
						48:[wc<-1.07992125] yes=69,no=70,missing=70
							69:leaf=-0.894310713
							70:leaf=-0.39889437
					30:leaf=-0.414344639
				16:leaf=-0.293542594
		4:[vm<-0.258020192] yes=9,no=10,missing=10
			9:[fc<0.0390626751] yes=17,no=18,missing=18
				17:[wc<0.487674713] yes=31,no=32,missing=32
					31:leaf=-0.429059923
					32:leaf=-0.0802041814
				18:leaf=-0.726256311
			10:[wc<-0.325809658] yes=19,no=20,missing=20
				19:leaf=-0
				20:leaf=-0.0909337848
	2:[vm<0.0892383084] yes=5,no=6,missing=6
		5:[heat_rate<0.307050586] yes=11,no=12,missing=12
			11:[residence_time<-0.865216136] yes=21,no=22,missing=22
				21:leaf=1.07851064
				22:[o<-0.164625943] yes=33,no=34,missing=34
					33:[heat_rate<-3.28930426] yes=49,no=50,missing=50
						49:[fc<-0.764050305] yes=71,no=72,missing=72
							71:leaf=0.0480304845
							72:leaf=0.34730795
						50:[heat_rate<-1.69092429] yes=73,no=74,missing=74
							73:leaf=0.57859391
							74:leaf=0.341948569
					34:leaf=0.00801689923
			12:[fc<1.96627188] yes=23,no=24,missing=24
				23:[fc<0.0233694371] yes=35,no=36,missing=36
					35:[residence_time<-0.0682274923] yes=51,no=52,missing=52
						51:[pressure<0.635853648] yes=75,no=76,missing=76
							75:leaf=-0.455115706
							76:leaf=0.960836112
						52:[cl<-0.569777727] yes=77,no=78,missing=78
							77:leaf=0.457069814
							78:leaf=-0.232223883
					36:[pressure<1.89490712] yes=53,no=54,missing=54
						53:[vm<-0.206523418] yes=79,no=80,missing=80
							79:leaf=-0.0308907274
							80:leaf=0.411951631
						54:[residence_time<1.07032776] yes=81,no=82,missing=82
							81:leaf=0.52753669
							82:leaf=0.203225136
				24:[residence_time<1.07032776] yes=37,no=38,missing=38
					37:[fuel_type_Lignin<6.76930809] yes=55,no=56,missing=56
						55:leaf=-1.09665918
						56:[residence_time<-0.0682274923] yes=83,no=84,missing=84
							83:leaf=-0.60342294
							84:leaf=-0.0732987523
					38:[pressure<-0.245483786] yes=57,no=58,missing=58
						57:leaf=-0.0767673478
						58:leaf=-0.886530995
		6:[pressure<-0.245483786] yes=13,no=14,missing=14
			13:[residence_time<-0.751360655] yes=25,no=26,missing=26
				25:[h<1.50818694] yes=39,no=40,missing=40
					39:[h<-0.715970933] yes=59,no=60,missing=60
						59:leaf=-0.50895822
						60:[residence_time<-0.865216136] yes=85,no=86,missing=86
							85:leaf=0.269399554
							86:leaf=-0.0283374973
					40:[cl<-0.568045676] yes=61,no=62,missing=62
						61:[h<2.09138179] yes=87,no=88,missing=88
							87:leaf=-1.22069979
							88:leaf=-0.352787286
						62:[wc<-1.2660203] yes=89,no=90,missing=90
							89:leaf=0.179201707
							90:leaf=-0.664705873
				26:[o<-0.758586586] yes=41,no=42,missing=42
					41:[h<1.9291476] yes=63,no=64,missing=64
						63:[cl<-0.566944957] yes=91,no=92,missing=92
							91:leaf=0.609251976
							92:leaf=0.211584434
						64:[wc<-0.482915431] yes=93,no=94,missing=94
							93:leaf=0.0772989392
							94:leaf=-0.566854596
					42:[vm<1.01603806] yes=65,no=66,missing=66
						65:[residence_time<1.07032776] yes=95,no=96,missing=96
							95:leaf=1.03104877
							96:leaf=0.596350729
						66:[residence_time<1.07032776] yes=97,no=98,missing=98
							97:leaf=0.757265747
							98:leaf=1.40740883
			14:[residence_time<1.07032776] yes=27,no=28,missing=28
				27:[pressure<-0.119578443] yes=43,no=44,missing=44
					43:leaf=0.728043258
					44:leaf=1.29347563
				28:[wc<-0.444951236] yes=45,no=46,missing=46
					45:leaf=1.03683174
					46:[pressure<1.89490712] yes=67,no=68,missing=68
						67:leaf=0.193616495
						68:leaf=0.851935267
booster[10]:
0:[temperature<-0.0168224666] yes=1,no=2,missing=2
	1:[ac<-1.25411928] yes=3,no=4,missing=4
		3:[temperature<-1.5270499] yes=7,no=8,missing=8
			7:leaf=-0.642789066
			8:[residence_time<-0.979071677] yes=15,no=16,missing=16
				15:leaf=-0
				16:[fuel_type_Hemicellulose<6.76930809] yes=29,no=30,missing=30
					29:leaf=0.677169919
					30:leaf=1.23645878
		4:[temperature<-1.5270499] yes=9,no=10,missing=10
			9:[c<1.43065286] yes=17,no=18,missing=18
				17:[n<0.14772962] yes=31,no=32,missing=32
					31:leaf=-1.83171654
					32:[cl<-0.569721103] yes=49,no=50,missing=50
						49:[n<0.213289961] yes=69,no=70,missing=70
							69:leaf=-0.226163536
							70:leaf=-1.11100221
						50:leaf=-1.66156161
				18:leaf=-0.804063022
			10:[pressure<-0.119578443] yes=19,no=20,missing=20
				19:[residence_time<-0.0682274923] yes=33,no=34,missing=34
					33:[c<0.0517301038] yes=51,no=52,missing=52
						51:[cl<-0.571194172] yes=71,no=72,missing=72
							71:leaf=-0.554288208
							72:leaf=-1.0120225
						52:[c<1.43065286] yes=73,no=74,missing=74
							73:leaf=-1.49374163
							74:leaf=-0.747630954
					34:[ac<-0.64484936] yes=53,no=54,missing=54
						53:[residence_time<1.07032776] yes=75,no=76,missing=76
							75:leaf=-0.481962979
							76:leaf=-1.05501735
						54:[residence_time<1.07032776] yes=77,no=78,missing=78
							77:leaf=-0.437618643
							78:leaf=0.170965672
				20:[cl<-0.566831648] yes=35,no=36,missing=36
					35:leaf=1.36425042
					36:leaf=0.204928085
	2:[ac<-0.965517759] yes=5,no=6,missing=6
		5:[pressure<0.635853648] yes=11,no=12,missing=12
			11:[temperature<0.989995837] yes=21,no=22,missing=22
				21:[h<-0.147000313] yes=37,no=38,missing=38
					37:leaf=1.39703119
					38:[residence_time<-0.865216136] yes=55,no=56,missing=56
						55:leaf=0.298126996
						56:leaf=1.1398809
				22:[n<-1.29252744] yes=39,no=40,missing=40
					39:leaf=1.49455452
					40:leaf=0.737911344
			12:[pressure<1.89490712] yes=23,no=24,missing=24
				23:leaf=0.124748163
				24:leaf=1.0480082
		6:[residence_time<-0.979071677] yes=13,no=14,missing=14
			13:[n<-0.397343934] yes=25,no=26,missing=26
				25:[temperature<0.989995837] yes=41,no=42,missing=42
					41:leaf=-1.3429091
					42:leaf=-0.854172528
				26:[ac<0.141750187] yes=43,no=44,missing=44
					43:[c<-0.0246789325] yes=57,no=58,missing=58
						57:leaf=0.0607132614
						58:leaf=-0.0923849791
					44:[ac<1.70564985] yes=59,no=60,missing=60
						59:leaf=-0.472988904
						60:leaf=-0
			14:[h<-0.0631342456] yes=27,no=28,missing=28
				27:[temperature<0.989995837] yes=45,no=46,missing=46
					45:[heat_rate<0.307050586] yes=61,no=62,missing=62
						61:leaf=0.46857962
						62:[n<0.468439132] yes=79,no=80,missing=80
							79:leaf=-0.468643874
							80:leaf=-0.0877855495
					46:[pressure<-0.245483786] yes=63,no=64,missing=64
						63:[residence_time<1.07032776] yes=81,no=82,missing=82
							81:leaf=-0.0870376602
							82:leaf=0.2545605
						64:[residence_time<-0.865216136] yes=83,no=84,missing=84
							83:leaf=1.05263972
							84:leaf=0.0184602384
				28:[residence_time<-0.0682274923] yes=47,no=48,missing=48
					47:[pressure<-0.245483786] yes=65,no=66,missing=66
						65:[temperature<0.989995837] yes=85,no=86,missing=86
							85:leaf=-0.259035438
							86:leaf=0.452695638
						66:[ac<-0.428398222] yes=87,no=88,missing=88
							87:leaf=1.26056147
							88:leaf=0.715466678
					48:[n<0.0430112481] yes=67,no=68,missing=68
						67:[temperature<0.989995837] yes=89,no=90,missing=90
							89:leaf=1.00365293
							90:leaf=0.68941766
						68:[n<0.125018224] yes=91,no=92,missing=92
							91:leaf=0.322351873
							92:leaf=0.502964914
booster[11]:
0:[vm<0.982725859] yes=1,no=2,missing=2
	1:[pressure<-0.119578443] yes=3,no=4,missing=4
		3:[n<-0.374632537] yes=7,no=8,missing=8
			7:[cl<-0.569437802] yes=15,no=16,missing=16
				15:[wc<-0.444951236] yes=27,no=28,missing=28
					27:leaf=-0.798823118
					28:leaf=-0.539281845
				16:[n<-0.397343934] yes=29,no=30,missing=30
					29:[fuel_type_Lignin<6.76930809] yes=43,no=44,missing=44
						43:[n<-0.42005533] yes=57,no=58,missing=58
							57:leaf=-0.573135078
							58:leaf=-0.334103823
						44:leaf=-0.275296003
					30:leaf=-0.0468231589
			8:[fuel_type_ebs2<3.56709099] yes=17,no=18,missing=18
				17:[h<0.685351968] yes=31,no=32,missing=32
					31:[wc<-0.340638041] yes=45,no=46,missing=46
						45:[cl<-0.570360482] yes=59,no=60,missing=60
							59:leaf=-0.642177403
							60:leaf=-0.185258642
						46:[cl<1.60465503] yes=61,no=62,missing=62
							61:leaf=-0.0737403855
							62:leaf=0.178817227
					32:[wc<-0.444951236] yes=47,no=48,missing=48
						47:leaf=0.329140812
						48:[wc<-0.434492528] yes=63,no=64,missing=64
							63:leaf=-0.747683525
							64:leaf=-0.403437972
				18:leaf=0.66549927
		4:[vm<-0.874633372] yes=9,no=10,missing=10
			9:[pressure<1.89490712] yes=19,no=20,missing=20
				19:leaf=-0.236337066
				20:[wc<0.352297157] yes=33,no=34,missing=34
					33:leaf=-0.912408769
					34:leaf=-0.312386721
			10:[vm<-0.199810714] yes=21,no=22,missing=22
				21:[pressure<1.89490712] yes=35,no=36,missing=36
					35:[pressure<0.635853648] yes=49,no=50,missing=50
						49:leaf=0.453175724
						50:[vm<-0.544721901] yes=65,no=66,missing=66
							65:leaf=-0.306801051
							66:leaf=0.234539703
					36:[fc<-0.764050305] yes=51,no=52,missing=52
						51:leaf=0.647123575
						52:[fc<0.0391309895] yes=67,no=68,missing=68
							67:leaf=0.126048401
							68:leaf=0.390445322
				22:[wc<-0.444951236] yes=37,no=38,missing=38
					37:leaf=0.919015229
					38:leaf=0.514136851
	2:[fuel_type_ebs2<3.56709099] yes=5,no=6,missing=6
		5:[pressure<-0.371389121] yes=11,no=12,missing=12
			11:leaf=-0.62268877
			12:[ac<-0.371239066] yes=23,no=24,missing=24
				23:[pressure<-0.245483786] yes=39,no=40,missing=40
					39:[vm<2.21111512] yes=53,no=54,missing=54
						53:[fuel_type_ebs1<5.33680439] yes=69,no=70,missing=70
							69:leaf=0.643790424
							70:leaf=0.439549834
						54:leaf=0.390853941
					40:leaf=0.800142765
				24:leaf=0.141748637
		6:[cl<-0.568126619] yes=13,no=14,missing=14
			13:leaf=-0.31485188
			14:[cl<-0.56671834] yes=25,no=26,missing=26
				25:[cl<-0.566831648] yes=41,no=42,missing=42
					41:[cl<-0.566888273] yes=55,no=56,missing=56
						55:[cl<-0.568045676] yes=71,no=72,missing=72
							71:leaf=0.170223996
							72:leaf=0.56818229
						56:leaf=-0.877673447
					42:leaf=0.737526655
				26:leaf=-0.316697121
booster[12]:
0:[temperature<-0.520231605] yes=1,no=2,missing=2
	1:[vm<1.01603806] yes=3,no=4,missing=4
		3:[temperature<-1.5270499] yes=7,no=8,missing=8
			7:[n<0.14772962] yes=15,no=16,missing=16
				15:leaf=-1.65106511
				16:leaf=-1.22113311
			8:[residence_time<-0.0682274923] yes=17,no=18,missing=18
				17:[o<-0.314989954] yes=31,no=32,missing=32
					31:[n<-0.378321677] yes=51,no=52,missing=52
						51:leaf=-1.50289178
						52:[cl<-0.570360482] yes=79,no=80,missing=80
							79:leaf=-1.29353106
							80:leaf=-0.580387831
					32:[s<-0.318128914] yes=53,no=54,missing=54
						53:[residence_time<-0.865216136] yes=81,no=82,missing=82
							81:leaf=-0.281526387
							82:leaf=-0.736483991
						54:[residence_time<-0.979071677] yes=83,no=84,missing=84
							83:leaf=-1.24439561
							84:leaf=-0.739425659
				18:[h<-0.398135871] yes=33,no=34,missing=34
					33:[residence_time<1.07032776] yes=55,no=56,missing=56
						55:[s<-0.313318759] yes=85,no=86,missing=86
							85:leaf=-0.451682985
							86:leaf=-1.02753699
						56:[fc<-0.754419565] yes=87,no=88,missing=88
							87:leaf=0.0670265704
							88:leaf=-0.602896154
					34:[cl<-0.570927083] yes=57,no=58,missing=58
						57:[fc<0.0384582616] yes=89,no=90,missing=90
							89:leaf=0.414593458
							90:leaf=0.0608815067
						58:[o<-0.406576574] yes=91,no=92,missing=92
							91:leaf=-0.514237344
							92:leaf=-0.0320176259
		4:[temperature<-1.5270499] yes=9,no=10,missing=10
			9:[residence_time<-0.865216136] yes=19,no=20,missing=20
				19:leaf=-1.79953527
				20:leaf=-0.47945717
			10:[vm<1.92272258] yes=21,no=22,missing=22
				21:[residence_time<-0.0682274923] yes=35,no=36,missing=36
					35:[cl<-0.566831648] yes=59,no=60,missing=60
						59:[cl<-0.566944957] yes=93,no=94,missing=94
							93:leaf=-0.169647768
							94:leaf=-1.08550096
						60:leaf=0.187319413
					36:[temperature<-1.02364075] yes=61,no=62,missing=62
						61:leaf=-0.157861739
						62:[residence_time<1.07032776] yes=95,no=96,missing=96
							95:leaf=0.160840958
							96:leaf=0.883246422
				22:[residence_time<-0.0682274923] yes=37,no=38,missing=38
					37:leaf=0.557509363
					38:leaf=0.988062084
	2:[vm<0.982725859] yes=5,no=6,missing=6
		5:[residence_time<-0.979071677] yes=11,no=12,missing=12
			11:[temperature<0.989995837] yes=23,no=24,missing=24
				23:[o<-0.147175655] yes=39,no=40,missing=40
					39:leaf=-1.09366143
					40:leaf=-0.325381517
				24:[n<-0.397343934] yes=41,no=42,missing=42
					41:leaf=-0.9079386
					42:[n<0.463155836] yes=63,no=64,missing=64
						63:[c<0.0481836721] yes=97,no=98,missing=98
							97:leaf=0.28706339
							98:leaf=-0.279320925
						64:leaf=-0.485813141
			12:[h<-0.612521708] yes=25,no=26,missing=26
				25:[temperature<0.989995837] yes=43,no=44,missing=44
					43:[h<-1.0780431] yes=65,no=66,missing=66
						65:[residence_time<-0.0682274923] yes=99,no=100,missing=100
							99:leaf=-0.410053223
							100:leaf=-0.0468629003
						66:[residence_time<1.07032776] yes=101,no=102,missing=102
							101:leaf=-0.297278941
							102:leaf=-0.52393657
					44:[vm<-1.0596174] yes=67,no=68,missing=68
						67:[residence_time<1.07032776] yes=103,no=104,missing=104
							103:leaf=-0.338392764
							104:leaf=0.330132186
						68:[residence_time<-0.865216136] yes=105,no=106,missing=106
							105:leaf=0.534373641
							106:leaf=0.288492143
				26:[cl<-0.570449531] yes=45,no=46,missing=46
					45:[o<-0.417783558] yes=69,no=70,missing=70
						69:[residence_time<-0.751360655] yes=107,no=108,missing=108
							107:leaf=-0.9113518
							108:leaf=0.0431776047
						70:[s<-0.430069059] yes=109,no=110,missing=110
							109:leaf=0.188632712
							110:leaf=0.612765253
					46:[residence_time<-0.865216136] yes=71,no=72,missing=72
						71:[h<1.91595781] yes=111,no=112,missing=112
							111:leaf=0.183394894
							112:leaf=-0.641452551
						72:[residence_time<-0.0682274923] yes=113,no=114,missing=114
							113:leaf=0.390841454
							114:leaf=0.626054108
		6:[residence_time<-0.979071677] yes=13,no=14,missing=14
			13:[temperature<0.989995837] yes=27,no=28,missing=28
				27:leaf=-0.95136565
				28:leaf=0.183572233
			14:[c<0.042711325] yes=29,no=30,missing=30
				29:[residence_time<1.07032776] yes=47,no=48,missing=48
					47:[temperature<0.989995837] yes=73,no=74,missing=74
						73:leaf=0.966709912
						74:leaf=1.38417828
					48:leaf=0.956080079
				30:[cl<-0.568134725] yes=49,no=50,missing=50
					49:[cl<-0.571833551] yes=75,no=76,missing=76
						75:leaf=0.79839015
						76:[residence_time<-0.865216136] yes=115,no=116,missing=116
							115:leaf=-0.762410879
							116:leaf=0.368833065
					50:[fuel_type_ebs1<5.33680439] yes=77,no=78,missing=78
						77:[residence_time<-0.751360655] yes=117,no=118,missing=118
							117:leaf=0.474272817
							118:leaf=0.824461401
						78:[residence_time<-0.865216136] yes=119,no=120,missing=120
							119:leaf=1.3127054
							120:leaf=0.691522539
booster[13]:
0:[fuel_type_wood<2.71642184] yes=1,no=2,missing=2
	1:[residence_time<-0.0682274923] yes=3,no=4,missing=4
		3:[pressure<-0.245483786] yes=7,no=8,missing=8
			7:[residence_time<-0.865216136] yes=13,no=14,missing=14
				13:[c<-0.0364381149] yes=23,no=24,missing=24
					23:[cl<-0.57130748] yes=43,no=44,missing=44
						43:[residence_time<-0.979071677] yes=69,no=70,missing=70
							69:leaf=-0.212993488
							70:leaf=0.0976996571
						44:[vm<-0.524234295] yes=71,no=72,missing=72
							71:leaf=-0.630642772
							72:leaf=-0.284214765
					24:[cl<-0.567001581] yes=45,no=46,missing=46
						45:[ac<0.12275058] yes=73,no=74,missing=74
							73:leaf=-1.04740095
							74:leaf=-0.718699217
						46:[wc<-0.596808076] yes=75,no=76,missing=76
							75:leaf=-0.248910144
							76:leaf=-0.702563286
				14:[vm<1.05311] yes=25,no=26,missing=26
					25:[n<-0.42005533] yes=47,no=48,missing=48
						47:leaf=-0.932390988
						48:[cl<-0.570360482] yes=77,no=78,missing=78
							77:leaf=-0.39447844
							78:leaf=-0.110810913
					26:[cl<-0.566831648] yes=49,no=50,missing=50
						49:[cl<-0.568158984] yes=79,no=80,missing=80
							79:leaf=-0.062035393
							80:leaf=-0.461058527
						50:leaf=0.883508503
			8:[vm<-0.221618876] yes=15,no=16,missing=16
				15:[pressure<1.89490712] yes=27,no=28,missing=28
					27:[wc<0.352297157] yes=51,no=52,missing=52
						51:[pressure<0.635853648] yes=81,no=82,missing=82
							81:leaf=-0.0942789838
							82:leaf=0.10609398
						52:leaf=0.639475405
					28:[fc<-0.764050305] yes=53,no=54,missing=54
						53:leaf=0.915986657
						54:leaf=0.41487363
				16:[pressure<0.635853648] yes=29,no=30,missing=30
					29:leaf=0.527257025
					30:leaf=1.20465457
		4:[vm<0.0892383084] yes=9,no=10,missing=10
			9:[heat_rate<-1.69092429] yes=17,no=18,missing=18
				17:[o<-0.164625943] yes=31,no=32,missing=32
					31:[wc<-1.45211935] yes=55,no=56,missing=56
						55:leaf=0.11882256
						56:leaf=0.369562387
					32:[heat_rate<-3.48910165] yes=57,no=58,missing=58
						57:leaf=0.0993175954
						58:leaf=-0.1296518
				18:[vm<-0.542527676] yes=33,no=34,missing=34
					33:[pressure<-0.245483786] yes=59,no=60,missing=60
						59:[residence_time<1.07032776] yes=83,no=84,missing=84
							83:leaf=-0.235804319
							84:leaf=0.0555657223
						60:[wc<0.352297157] yes=85,no=86,missing=86
							85:leaf=-0.727195442
							86:leaf=-0.310235173
					34:[fc<1.96627188] yes=61,no=62,missing=62
						61:[cl<-0.569777727] yes=87,no=88,missing=88
							87:leaf=0.243847832
							88:leaf=-0.0331759527
						62:leaf=-0.773949027
			10:[s<-0.661288142] yes=19,no=20,missing=20
				19:[residence_time<1.07032776] yes=35,no=36,missing=36
					35:leaf=0.554255188
					36:leaf=1.05837524
				20:[s<-0.643273175] yes=37,no=38,missing=38
					37:[residence_time<1.07032776] yes=63,no=64,missing=64
						63:leaf=0.0712261721
						64:[wc<-0.482915431] yes=89,no=90,missing=90
							89:leaf=-0.0201654602
							90:leaf=-0.630111575
					38:[cl<-0.49086386] yes=65,no=66,missing=66
						65:[s<-0.638635755] yes=91,no=92,missing=92
							91:leaf=0.301527739
							92:leaf=0.622285664
						66:[heat_rate<0.307050586] yes=93,no=94,missing=94
							93:leaf=0.339317948
							94:leaf=-0.525579154
	2:[residence_time<-0.979071677] yes=5,no=6,missing=6
		5:leaf=0.111867324
		6:[wc<-1.07992125] yes=11,no=12,missing=12
			11:leaf=1.36093366
			12:[residence_time<-0.751360655] yes=21,no=22,missing=22
				21:[pressure<-0.245483786] yes=39,no=40,missing=40
					39:[residence_time<-0.865216136] yes=67,no=68,missing=68
						67:leaf=0.220073581
						68:leaf=0.563518763
					40:leaf=0.924908578
				22:[residence_time<1.07032776] yes=41,no=42,missing=42
					41:leaf=1.038203
					42:leaf=0.730634212
booster[14]:
0:[temperature<-0.0168224666] yes=1,no=2,missing=2
	1:[temperature<-1.5270499] yes=3,no=4,missing=4
		3:[wc<0.470033377] yes=7,no=8,missing=8
			7:[s<-0.745686293] yes=15,no=16,missing=16
				15:leaf=-0.828092277
				16:leaf=-1.56113088
			8:leaf=-0.791925251
		4:[s<-0.665304363] yes=9,no=10,missing=10
			9:[residence_time<-0.751360655] yes=17,no=18,missing=18
				17:[residence_time<-0.865216136] yes=29,no=30,missing=30
					29:[wc<-0.325809658] yes=49,no=50,missing=50
						49:leaf=0.464343637
						50:leaf=0.0512445457
					30:leaf=-0.69402045
				18:[residence_time<-0.0682274923] yes=31,no=32,missing=32
					31:leaf=0.425510913
					32:leaf=0.842081845
			10:[residence_time<1.07032776] yes=19,no=20,missing=20
				19:[pressure<-0.119578443] yes=33,no=34,missing=34
					33:[residence_time<-0.865216136] yes=51,no=52,missing=52
						51:[h<-1.0780431] yes=77,no=78,missing=78
							77:leaf=-0.245441541
							78:leaf=-1.0983777
						52:[o<-0.164625943] yes=79,no=80,missing=80
							79:leaf=-0.559913754
							80:leaf=0.196613401
					34:[fc<-0.716666818] yes=53,no=54,missing=54
						53:[wc<-1.2660203] yes=81,no=82,missing=82
							81:leaf=0.855640113
							82:leaf=0.318518162
						54:leaf=0.0106460061
				20:[fc<0.0235123187] yes=35,no=36,missing=36
					35:[wc<0.352297157] yes=55,no=56,missing=56
						55:[vm<0.941894054] yes=83,no=84,missing=84
							83:leaf=0.0282435939
							84:leaf=0.570397675
						56:leaf=1.0747534
					36:[c<-0.436824113] yes=57,no=58,missing=58
						57:leaf=-0.0940896869
						58:leaf=-0.721191108
	2:[vm<0.478907764] yes=5,no=6,missing=6
		5:[temperature<0.989995837] yes=11,no=12,missing=12
			11:[residence_time<-0.979071677] yes=21,no=22,missing=22
				21:[o<-0.164625943] yes=37,no=38,missing=38
					37:[h<-1.0780431] yes=59,no=60,missing=60
						59:leaf=-0.384221613
						60:leaf=-0.957253993
					38:leaf=0.145693511
				22:[wc<1.56268549] yes=39,no=40,missing=40
					39:[wc<-1.45211935] yes=61,no=62,missing=62
						61:[pressure<-0.245483786] yes=85,no=86,missing=86
							85:leaf=0.25167188
							86:leaf=0.592899084
						62:[wc<-0.364755034] yes=87,no=88,missing=88
							87:leaf=-0.239924297
							88:leaf=0.0702158064
					40:[pressure<-0.245483786] yes=63,no=64,missing=64
						63:[residence_time<-0.0682274923] yes=89,no=90,missing=90
							89:leaf=-0.532443821
							90:leaf=-0.121605173
						64:leaf=-0.575862408
			12:[wc<0.505757511] yes=23,no=24,missing=24
				23:[wc<-0.362492442] yes=41,no=42,missing=42
					41:[pressure<1.89490712] yes=65,no=66,missing=66
						65:[residence_time<-0.979071677] yes=91,no=92,missing=92
							91:leaf=-0.342504472
							92:leaf=0.130904481
						66:[wc<-1.45211935] yes=93,no=94,missing=94
							93:leaf=0.428930163
							94:leaf=0.999590218
					42:[temperature<1.84579134] yes=67,no=68,missing=68
						67:[wc<0.49847424] yes=95,no=96,missing=96
							95:leaf=0.50007683
							96:leaf=0.155304313
						68:[s<-0.4340249] yes=97,no=98,missing=98
							97:leaf=0.08723896
							98:leaf=0.353971303
				24:[residence_time<1.07032776] yes=43,no=44,missing=44
					43:[pressure<-0.245483786] yes=69,no=70,missing=70
						69:[wc<1.56268549] yes=99,no=100,missing=100
							99:leaf=-0.224600792
							100:leaf=-0.53650552
						70:leaf=0.690764427
					44:[fuel_type_coal<3.06679463] yes=71,no=72,missing=72
						71:[heat_rate<0.307050586] yes=101,no=102,missing=102
							101:leaf=-0.0558496639
							102:leaf=0.119296916
						72:[heat_rate<-1.69092429] yes=103,no=104,missing=104
							103:leaf=0.536054909
							104:leaf=0.189468279
		6:[residence_time<-0.979071677] yes=13,no=14,missing=14
			13:[temperature<0.989995837] yes=25,no=26,missing=26
				25:leaf=-0.94282788
				26:[vm<0.982725859] yes=45,no=46,missing=46
					45:leaf=-0.405532658
					46:leaf=0.303423703
			14:[pressure<-0.371389121] yes=27,no=28,missing=28
				27:leaf=-0.554438293
				28:[c<0.042711325] yes=47,no=48,missing=48
					47:[pressure<0.635853648] yes=73,no=74,missing=74
						73:leaf=1.07224679
						74:[residence_time<-0.865216136] yes=105,no=106,missing=106
							105:leaf=1.07287836
							106:leaf=0.263272434
					48:[pressure<-0.245483786] yes=75,no=76,missing=76
						75:[residence_time<-0.865216136] yes=107,no=108,missing=108
							107:leaf=-0.318537682
							108:leaf=0.564644456
						76:[residence_time<1.07032776] yes=109,no=110,missing=110
							109:leaf=1.04825723
							110:leaf=0.688694894
booster[15]:
0:[fuel_type_wood<2.71642184] yes=1,no=2,missing=2
	1:[residence_time<-0.0682274923] yes=3,no=4,missing=4
		3:[pressure<-0.245483786] yes=7,no=8,missing=8
			7:[c<0.0517301038] yes=13,no=14,missing=14
				13:[c<-1.27130413] yes=23,no=24,missing=24
					23:leaf=-0.488533229
					24:[residence_time<-0.979071677] yes=39,no=40,missing=40
						39:[cl<1.60465503] yes=59,no=60,missing=60
							59:leaf=-0.506278098
							60:leaf=0.0950292349
						40:[cl<-0.571833551] yes=61,no=62,missing=62
							61:leaf=0.0925033167
							62:leaf=-0.142827004
				14:[residence_time<-0.865216136] yes=25,no=26,missing=26
					25:[cl<-0.566888273] yes=41,no=42,missing=42
						41:[fuel_type_ebs2<3.56709099] yes=63,no=64,missing=64
							63:leaf=-0.971712947
							64:leaf=-0.597964346
						42:[fc<-0.68700397] yes=65,no=66,missing=66
							65:leaf=0.11908602
							66:leaf=-0.587626576
					26:[fc<-0.642509699] yes=43,no=44,missing=44
						43:[cl<-0.566831648] yes=67,no=68,missing=68
							67:leaf=-0.104136579
							68:leaf=0.486955762
						44:[residence_time<-0.751360655] yes=69,no=70,missing=70
							69:leaf=0.058201801
							70:leaf=-0.850823522
			8:[fc<1.22952425] yes=15,no=16,missing=16
				15:[cl<-0.566831648] yes=27,no=28,missing=28
					27:[ac<-0.428398222] yes=45,no=46,missing=46
						45:leaf=0.897183776
						46:leaf=0.505375385
					28:[fc<-0.764050305] yes=47,no=48,missing=48
						47:[pressure<1.89490712] yes=71,no=72,missing=72
							71:leaf=0.400759339
							72:leaf=0.980275631
						48:leaf=0.0526740849
				16:[pressure<0.635853648] yes=29,no=30,missing=30
					29:leaf=-0.0808247998
					30:leaf=0.339648217
		4:[o<-0.758586586] yes=9,no=10,missing=10
			9:[cl<-0.49086386] yes=17,no=18,missing=18
				17:[pressure<-0.245483786] yes=31,no=32,missing=32
					31:[residence_time<1.07032776] yes=49,no=50,missing=50
						49:[fc<-0.716666818] yes=73,no=74,missing=74
							73:leaf=0.356993407
							74:leaf=0.870790184
						50:[fc<-0.701835394] yes=75,no=76,missing=76
							75:leaf=0.511008024
							76:leaf=0.166167825
					32:[cl<-0.566888273] yes=51,no=52,missing=52
						51:leaf=0.821044266
						52:leaf=0.379762292
				18:[fuel_type_ebs2<3.56709099] yes=33,no=34,missing=34
					33:[heat_rate<-1.69092429] yes=53,no=54,missing=54
						53:leaf=0.35469839
						54:[pressure<-0.245483786] yes=77,no=78,missing=78
							77:leaf=0.0454649143
							78:leaf=0.376534343
					34:leaf=-0.498019338
			10:[fc<-0.81124121] yes=19,no=20,missing=20
				19:leaf=0.793650806
				20:[fuel_type_ebs2<3.56709099] yes=35,no=36,missing=36
					35:[fc<0.0392736942] yes=55,no=56,missing=56
						55:[cl<-0.49086386] yes=79,no=80,missing=80
							79:leaf=0.152700886
							80:leaf=-0.0154589517
						56:[heat_rate<-3.48910165] yes=81,no=82,missing=82
							81:leaf=0.234707445
							82:leaf=-0.139534771
					36:leaf=0.522357881
	2:[residence_time<-0.979071677] yes=5,no=6,missing=6
		5:leaf=0.136123508
		6:[pressure<4.41301394] yes=11,no=12,missing=12
			11:[residence_time<-0.751360655] yes=21,no=22,missing=22
				21:[pressure<-0.245483786] yes=37,no=38,missing=38
					37:[residence_time<-0.865216136] yes=57,no=58,missing=58
						57:leaf=0.200685084
						58:leaf=0.464413464
					38:leaf=0.828816712
				22:leaf=0.74636519
			12:leaf=0.108512208
booster[16]:
0:[temperature<-0.520231605] yes=1,no=2,missing=2
	1:[temperature<-1.5270499] yes=3,no=4,missing=4
		3:[wc<-1.2660203] yes=7,no=8,missing=8
			7:leaf=-0.393365353
			8:[vm<2.21111512] yes=15,no=16,missing=16
				15:[n<0.14772962] yes=23,no=24,missing=24
					23:leaf=-1.57832909
					24:leaf=-1.04467714
				16:leaf=-0.418395191
		4:[vm<1.92272258] yes=9,no=10,missing=10
			9:[wc<1.56268549] yes=17,no=18,missing=18
				17:[wc<-0.343035847] yes=25,no=26,missing=26
					25:[wc<-1.2660203] yes=35,no=36,missing=36
						35:[cl<-0.568045676] yes=55,no=56,missing=56
							55:leaf=-0.84768939
							56:leaf=0.0621532798
						36:[lhv<1.46199954] yes=57,no=58,missing=58
							57:leaf=-0.637568235
							58:leaf=-1.02320886
					26:[h<0.626929045] yes=37,no=38,missing=38
						37:[h<-0.0390875302] yes=59,no=60,missing=60
							59:leaf=-0.196983188
							60:leaf=0.210937694
						38:[wc<0.371651441] yes=61,no=62,missing=62
							61:leaf=-0.874401271
							62:leaf=-0.360202283
				18:leaf=-0.94155252
			10:leaf=0.688514948
	2:[ac<-1.16533792] yes=5,no=6,missing=6
		5:[temperature<0.989995837] yes=11,no=12,missing=12
			11:leaf=0.689278722
			12:leaf=0.868303776
		6:[h<-0.0618294179] yes=13,no=14,missing=14
			13:[temperature<0.989995837] yes=19,no=20,missing=20
				19:[h<-0.612521708] yes=27,no=28,missing=28
					27:[heat_rate<-1.69092429] yes=39,no=40,missing=40
						39:leaf=0.358294278
						40:[ac<-0.64484936] yes=63,no=64,missing=64
							63:leaf=-0.370063663
							64:leaf=-0.186672419
					28:[wc<0.503252864] yes=41,no=42,missing=42
						41:leaf=-0.0878805965
						42:[wc<0.514632523] yes=65,no=66,missing=66
							65:leaf=0.345447391
							66:leaf=0.154937565
				20:[wc<0.352297157] yes=29,no=30,missing=30
					29:[fuel_type_sewage<2.80079365] yes=43,no=44,missing=44
						43:[wc<-0.292929769] yes=67,no=68,missing=68
							67:leaf=0.765061975
							68:leaf=0.400749266
						44:[heat_rate<0.307050586] yes=69,no=70,missing=70
							69:leaf=0.345392585
							70:leaf=0.169492483
					30:[heat_rate<-3.28930426] yes=45,no=46,missing=46
						45:[wc<1.56268549] yes=71,no=72,missing=72
							71:leaf=-0.109649703
							72:leaf=0.329546809
						46:[temperature<1.84579134] yes=73,no=74,missing=74
							73:leaf=-0.0449567363
							74:leaf=0.19132556
			14:[temperature<0.989995837] yes=21,no=22,missing=22
				21:[cl<-0.5703848] yes=31,no=32,missing=32
					31:[wc<-0.330662876] yes=47,no=48,missing=48
						47:leaf=-0.411141157
						48:[wc<0.461872518] yes=75,no=76,missing=76
							75:leaf=-0.0492595807
							76:leaf=0.150979519
					32:[cl<-0.566888273] yes=49,no=50,missing=50
						49:[lhv<0.244470134] yes=77,no=78,missing=78
							77:leaf=0.536132872
							78:leaf=0.213889748
						50:leaf=0.592787981
				22:[vm<-0.180311218] yes=33,no=34,missing=34
					33:[wc<-0.362492442] yes=51,no=52,missing=52
						51:[lhv<0.263989836] yes=79,no=80,missing=80
							79:leaf=-0.270457774
							80:leaf=0.112293199
						52:[temperature<1.84579134] yes=81,no=82,missing=82
							81:leaf=0.44193545
							82:leaf=0.17461957
					34:[cl<-0.56810236] yes=53,no=54,missing=54
						53:[cl<-0.569340706] yes=83,no=84,missing=84
							83:leaf=0.46390149
							84:leaf=-0.350078285
						54:[wc<-0.558843851] yes=85,no=86,missing=86
							85:leaf=0.706753016
							86:leaf=0.309860617
booster[17]:
0:[temperature<-0.520231605] yes=1,no=2,missing=2
	1:[temperature<-1.5270499] yes=3,no=4,missing=4
		3:[n<-1.29252744] yes=7,no=8,missing=8
			7:leaf=-1.61790311
			8:[cl<-0.571121335] yes=15,no=16,missing=16
				15:leaf=-0.557295263
				16:[fuel_type_ebs2<3.56709099] yes=27,no=28,missing=28
					27:[fc<-0.814660132] yes=45,no=46,missing=46
						45:leaf=-0.652268112
						46:leaf=-1.30154288
					28:leaf=-0.445585668
		4:[n<-0.735318959] yes=9,no=10,missing=10
			9:[wc<-0.325809658] yes=17,no=18,missing=18
				17:leaf=0.666767538
				18:[residence_time<-0.751360655] yes=29,no=30,missing=30
					29:[residence_time<-0.865216136] yes=47,no=48,missing=48
						47:leaf=0.097806789
						48:leaf=-0.431294829
					30:[residence_time<1.07032776] yes=49,no=50,missing=50
						49:leaf=0.774603784
						50:leaf=0.153963819
			10:[residence_time<-0.0682274923] yes=19,no=20,missing=20
				19:[fuel_type_HTC-MSW<3.6351459] yes=31,no=32,missing=32
					31:[s<-0.611085951] yes=51,no=52,missing=52
						51:leaf=-1.20455301
						52:[wc<-1.45211935] yes=75,no=76,missing=76
							75:leaf=0.100003734
							76:leaf=-0.788048029
					32:leaf=0.131795079
				20:[o<-0.825953364] yes=33,no=34,missing=34
					33:[residence_time<1.07032776] yes=53,no=54,missing=54
						53:leaf=0.111702129
						54:leaf=0.719248891
					34:[s<-0.306169033] yes=55,no=56,missing=56
						55:[s<-0.307549506] yes=77,no=78,missing=78
							77:leaf=-0.161880493
							78:leaf=0.477888793
						56:[residence_time<1.07032776] yes=79,no=80,missing=80
							79:leaf=-0.967591882
							80:leaf=-0.301729739
	2:[s<-0.661288142] yes=5,no=6,missing=6
		5:[temperature<1.84579134] yes=11,no=12,missing=12
			11:[wc<-0.521624029] yes=21,no=22,missing=22
				21:[residence_time<-0.0682274923] yes=35,no=36,missing=36
					35:[residence_time<-0.865216136] yes=57,no=58,missing=58
						57:leaf=-0.318334103
						58:leaf=0.172042727
					36:leaf=0.797733426
				22:[residence_time<1.07032776] yes=37,no=38,missing=38
					37:[temperature<0.989995837] yes=59,no=60,missing=60
						59:[residence_time<-0.865216136] yes=81,no=82,missing=82
							81:leaf=0.344675183
							82:leaf=0.803462684
						60:leaf=1.04422438
					38:[temperature<0.989995837] yes=61,no=62,missing=62
						61:leaf=0.826712012
						62:[heat_rate<0.307050586] yes=83,no=84,missing=84
							83:leaf=0.666510105
							84:leaf=0.455168813
			12:leaf=1.09803927
		6:[residence_time<-0.979071677] yes=13,no=14,missing=14
			13:[fuel_type_HTC-MSW<3.6351459] yes=23,no=24,missing=24
				23:[temperature<0.989995837] yes=39,no=40,missing=40
					39:[n<0.14772962] yes=63,no=64,missing=64
						63:leaf=-1.08420479
						64:leaf=-0.662792206
					40:[wc<0.483677894] yes=65,no=66,missing=66
						65:[wc<-0.374760091] yes=85,no=86,missing=86
							85:leaf=-0.422275305
							86:leaf=0.387385219
						66:leaf=-0.824864328
				24:leaf=0.320218533
			14:[temperature<0.989995837] yes=25,no=26,missing=26
				25:[o<-0.825953364] yes=41,no=42,missing=42
					41:[cl<-0.568134725] yes=67,no=68,missing=68
						67:[cl<-0.569308341] yes=87,no=88,missing=88
							87:leaf=0.444482714
							88:leaf=-0.796426594
						68:[wc<-0.596808076] yes=89,no=90,missing=90
							89:leaf=0.552892447
							90:leaf=0.16498293
					42:[fuel_type_digestate<1.22282374] yes=69,no=70,missing=70
						69:[heat_rate<0.307050586] yes=91,no=92,missing=92
							91:leaf=0.396093637
							92:leaf=-0.255225867
						70:[residence_time<-0.751360655] yes=93,no=94,missing=94
							93:leaf=-0.175012037
							94:leaf=0.224036932
				26:[fc<0.0227987412] yes=43,no=44,missing=44
					43:[c<0.863480866] yes=71,no=72,missing=72
						71:[residence_time<-0.751360655] yes=95,no=96,missing=96
							95:leaf=0.486545861
							96:leaf=0.332545251
						72:[residence_time<1.07032776] yes=97,no=98,missing=98
							97:leaf=0.776180506
							98:leaf=0.456694156
					44:[fc<0.023123946] yes=73,no=74,missing=74
						73:leaf=-0.262973636
						74:[fc<0.0387517996] yes=99,no=100,missing=100
							99:leaf=0.414493471
							100:leaf=0.179080829
booster[18]:
0:[temperature<-0.0168224666] yes=1,no=2,missing=2
	1:[temperature<-1.5270499] yes=3,no=4,missing=4
		3:[n<0.14772962] yes=7,no=8,missing=8
			7:leaf=-1.49572372
			8:leaf=-0.830772221
		4:[residence_time<-0.0682274923] yes=9,no=10,missing=10
			9:[vm<1.05311] yes=15,no=16,missing=16
				15:[residence_time<-0.979071677] yes=25,no=26,missing=26
					25:[ac<-1.16533792] yes=41,no=42,missing=42
						41:leaf=-0.0446367227
						42:leaf=-1.17080581
					26:[ac<1.70564985] yes=43,no=44,missing=44
						43:[o<-0.141539976] yes=65,no=66,missing=66
							65:leaf=-0.791327775
							66:leaf=-0.434872389
						44:leaf=0.123583473
				16:[cl<-0.568045676] yes=27,no=28,missing=28
					27:leaf=-0.883050203
					28:[cl<-0.566944957] yes=45,no=46,missing=46
						45:leaf=0.81166029
						46:[cl<-0.566831648] yes=67,no=68,missing=68
							67:leaf=-0.46284318
							68:leaf=0.35138762
			10:[wc<0.50660044] yes=17,no=18,missing=18
				17:[s<-0.601536691] yes=29,no=30,missing=30
					29:[h<1.9291476] yes=47,no=48,missing=48
						47:[wc<0.371651441] yes=69,no=70,missing=70
							69:leaf=0.653049648
							70:leaf=0.288893938
						48:leaf=-0.184995964
					30:[temperature<-1.02364075] yes=49,no=50,missing=50
						49:[wc<-1.2660203] yes=71,no=72,missing=72
							71:leaf=-0.200080618
							72:leaf=-0.691356778
						50:[lhv<0.248739839] yes=73,no=74,missing=74
							73:leaf=-0.120069936
							74:leaf=0.219442427
				18:[wc<1.56268549] yes=31,no=32,missing=32
					31:leaf=-0.45585224
					32:leaf=-1.02374709
	2:[ac<-0.965517759] yes=5,no=6,missing=6
		5:[residence_time<-0.979071677] yes=11,no=12,missing=12
			11:leaf=0.198227182
			12:[residence_time<1.07032776] yes=19,no=20,missing=20
				19:leaf=0.912630022
				20:[temperature<1.84579134] yes=33,no=34,missing=34
					33:[temperature<0.989995837] yes=51,no=52,missing=52
						51:leaf=0.836383939
						52:leaf=0.479510069
					34:leaf=0.961483538
		6:[residence_time<-0.979071677] yes=13,no=14,missing=14
			13:[ac<1.70564985] yes=21,no=22,missing=22
				21:[o<-0.146687508] yes=35,no=36,missing=36
					35:[temperature<0.989995837] yes=53,no=54,missing=54
						53:[h<0.73943007] yes=75,no=76,missing=76
							75:leaf=-0.615978539
							76:leaf=-0.991239309
						54:[c<-0.000441357493] yes=77,no=78,missing=78
							77:leaf=-0.0100236842
							78:leaf=-0.566941142
					36:[temperature<0.989995837] yes=55,no=56,missing=56
						55:leaf=0.147531956
						56:[wc<0.509702206] yes=79,no=80,missing=80
							79:leaf=0.128504515
							80:leaf=-0.34095034
				22:leaf=0.414940447
			14:[vm<-0.538928092] yes=23,no=24,missing=24
				23:[temperature<0.989995837] yes=37,no=38,missing=38
					37:[h<-0.612521708] yes=57,no=58,missing=58
						57:[heat_rate<0.307050586] yes=81,no=82,missing=82
							81:leaf=0.299022943
							82:leaf=-0.304699898
						58:[residence_time<-0.751360655] yes=83,no=84,missing=84
							83:leaf=0.388492405
							84:leaf=-0.0596948005
					38:[residence_time<1.07032776] yes=59,no=60,missing=60
						59:[wc<1.56268549] yes=85,no=86,missing=86
							85:leaf=0.126387805
							86:leaf=-0.410887688
						60:[fuel_type_coal<3.06679463] yes=87,no=88,missing=88
							87:leaf=0.0964946076
							88:leaf=0.46404019
				24:[residence_time<-0.865216136] yes=39,no=40,missing=40
					39:[cl<-0.568134725] yes=61,no=62,missing=62
						61:[temperature<0.989995837] yes=89,no=90,missing=90
							89:leaf=-0.618102372
							90:leaf=0.155426994
						62:[vm<1.05311] yes=91,no=92,missing=92
							91:leaf=0.215649873
							92:leaf=0.891701996
					40:[vm<-0.192884549] yes=63,no=64,missing=64
						63:[vm<-0.197094649] yes=93,no=94,missing=94
							93:leaf=0.276619643
							94:leaf=-0.364266008
						64:[cl<-0.491673231] yes=95,no=96,missing=96
							95:leaf=0.485143155
							96:leaf=0.156983986
booster[19]:
0:[temperature<-0.0168224666] yes=1,no=2,missing=2
	1:[temperature<-1.5270499] yes=3,no=4,missing=4
		3:[s<-0.659280062] yes=7,no=8,missing=8
			7:leaf=-1.54687297
			8:leaf=-0.940452456
		4:[vm<1.05311] yes=9,no=10,missing=10
			9:[residence_time<-0.0682274923] yes=15,no=16,missing=16
				15:[o<-0.314989954] yes=27,no=28,missing=28
					27:[n<0.14772962] yes=47,no=48,missing=48
						47:leaf=-0.959826529
						48:[residence_time<-0.865216136] yes=73,no=74,missing=74
							73:leaf=-0.676961303
							74:leaf=-0.265224785
					28:[vm<-0.649043202] yes=49,no=50,missing=50
						49:[residence_time<-0.865216136] yes=75,no=76,missing=76
							75:leaf=-0.267395496
							76:leaf=0.121992618
						50:[s<-0.432929575] yes=77,no=78,missing=78
							77:leaf=-0.264976412
							78:leaf=-0.522363782
				16:[wc<1.56268549] yes=29,no=30,missing=30
					29:[h<0.626929045] yes=51,no=52,missing=52
						51:[vm<-0.202911451] yes=79,no=80,missing=80
							79:leaf=-0.00243836083
							80:leaf=-0.234859675
						52:[residence_time<1.07032776] yes=81,no=82,missing=82
							81:leaf=-0
							82:leaf=0.604847431
					30:leaf=-0.899797797
			10:[fuel_type_ebs2<3.56709099] yes=17,no=18,missing=18
				17:[residence_time<-0.0682274923] yes=31,no=32,missing=32
					31:leaf=0.363415986
					32:leaf=0.705250204
				18:[residence_time<1.07032776] yes=33,no=34,missing=34
					33:[residence_time<-0.979071677] yes=53,no=54,missing=54
						53:leaf=-0.510370493
						54:[residence_time<-0.0682274923] yes=83,no=84,missing=84
							83:leaf=-0.0672183558
							84:leaf=-0.375196606
					34:[temperature<-1.02364075] yes=55,no=56,missing=56
						55:leaf=-0.18948862
						56:leaf=0.657413185
	2:[vm<0.978966057] yes=5,no=6,missing=6
		5:[residence_time<-0.979071677] yes=11,no=12,missing=12
			11:[ac<1.70564985] yes=19,no=20,missing=20
				19:[vm<-0.544721901] yes=35,no=36,missing=36
					35:[temperature<0.989995837] yes=57,no=58,missing=58
						57:[h<-0.612521708] yes=85,no=86,missing=86
							85:leaf=-0.531636119
							86:leaf=0.1939978
						58:[h<-0.612521708] yes=87,no=88,missing=88
							87:leaf=-0.197354585
							88:leaf=-0.783017755
					36:[temperature<0.989995837] yes=59,no=60,missing=60
						59:leaf=-0.639392197
						60:[wc<-0.374760091] yes=89,no=90,missing=90
							89:leaf=-0.161881313
							90:leaf=0.251200914
				20:leaf=0.22932145
			12:[vm<-0.544721901] yes=21,no=22,missing=22
				21:[heat_rate<0.307050586] yes=37,no=38,missing=38
					37:[h<-0.612521708] yes=61,no=62,missing=62
						61:[fuel_type_sewage<2.80079365] yes=91,no=92,missing=92
							91:leaf=0.452658862
							92:leaf=0.122041993
						62:[heat_rate<-3.48910165] yes=93,no=94,missing=94
							93:leaf=0.161527842
							94:leaf=0.012848339
					38:[wc<1.56268549] yes=63,no=64,missing=64
						63:[residence_time<-0.865216136] yes=95,no=96,missing=96
							95:leaf=0.224681437
							96:leaf=0.00199965877
						64:[temperature<0.989995837] yes=97,no=98,missing=98
							97:leaf=-0.394830078
							98:leaf=-0.0744685829
				22:[residence_time<-0.751360655] yes=39,no=40,missing=40
					39:[temperature<0.989995837] yes=65,no=66,missing=66
						65:[h<1.86637986] yes=99,no=100,missing=100
							99:leaf=-0.0174687989
							100:leaf=-1.06372058
						66:[s<-0.309451431] yes=101,no=102,missing=102
							101:leaf=0.430587858
							102:leaf=-0.0115917288
					40:[vm<-0.199810714] yes=67,no=68,missing=68
						67:[vm<-0.201841906] yes=103,no=104,missing=104
							103:leaf=0.239230454
							104:leaf=-0.00756723201
						68:[h<1.86637986] yes=105,no=106,missing=106
							105:leaf=0.354565322
							106:leaf=0.61858815
		6:[residence_time<-0.979071677] yes=13,no=14,missing=14
			13:[temperature<0.989995837] yes=23,no=24,missing=24
				23:leaf=-0.747671008
				24:[wc<-0.521624029] yes=41,no=42,missing=42
					41:leaf=-0.340753436
					42:leaf=0.574897826
			14:[temperature<1.99681413] yes=25,no=26,missing=26
				25:[fuel_type_ebs2<3.56709099] yes=43,no=44,missing=44
					43:[residence_time<1.07032776] yes=69,no=70,missing=70
						69:[temperature<0.989995837] yes=107,no=108,missing=108
							107:leaf=0.332559854
							108:leaf=0.825689256
						70:[temperature<0.989995837] yes=109,no=110,missing=110
							109:leaf=0.723192453
							110:leaf=0.380901903
					44:[residence_time<-0.751360655] yes=71,no=72,missing=72
						71:[temperature<0.989995837] yes=111,no=112,missing=112
							111:leaf=-0.188673794
							112:leaf=0.362557918
						72:leaf=0.57349354
				26:[vm<1.01603806] yes=45,no=46,missing=46
					45:leaf=0.953925014
					46:leaf=0.429043382
booster[20]:
0:[vm<0.982725859] yes=1,no=2,missing=2
	1:[residence_time<-0.979071677] yes=3,no=4,missing=4
		3:[n<0.14772962] yes=7,no=8,missing=8
			7:leaf=-0.816876173
			8:[vm<-0.543750465] yes=15,no=16,missing=16
				15:leaf=-0.657003939
				16:[vm<-0.19915697] yes=27,no=28,missing=28
					27:[wc<0.489024192] yes=47,no=48,missing=48
						47:leaf=0.13367936
						48:leaf=-0.224263966
					28:[h<0.626929045] yes=49,no=50,missing=50
						49:leaf=-0.200781524
						50:leaf=-0.447204083
		4:[residence_time<-0.0682274923] yes=9,no=10,missing=10
			9:[pressure<-0.245483786] yes=17,no=18,missing=18
				17:[n<-0.42005533] yes=29,no=30,missing=30
					29:[c<0.74113071] yes=51,no=52,missing=52
						51:leaf=-0.196518227
						52:leaf=-0.662648678
					30:[cl<-0.571833551] yes=53,no=54,missing=54
						53:[residence_time<-0.865216136] yes=75,no=76,missing=76
							75:leaf=0.121120118
							76:leaf=-0.134304941
						54:[residence_time<-0.865216136] yes=77,no=78,missing=78
							77:leaf=-0.43876949
							78:leaf=-0.142837435
				18:[n<0.213289961] yes=31,no=32,missing=32
					31:[pressure<0.635853648] yes=55,no=56,missing=56
						55:leaf=-0.0749173835
						56:leaf=0.302110195
					32:[wc<-1.07992125] yes=57,no=58,missing=58
						57:[pressure<1.89490712] yes=79,no=80,missing=80
							79:leaf=0.336607754
							80:leaf=0.965543628
						58:leaf=0.443843365
			10:[vm<0.478907764] yes=19,no=20,missing=20
				19:[pressure<-0.245483786] yes=33,no=34,missing=34
					33:[h<-1.0780431] yes=59,no=60,missing=60
						59:leaf=0.213955194
						60:[h<0.527813137] yes=81,no=82,missing=82
							81:leaf=0.016165616
							82:leaf=-0.145605147
					34:[h<-0.612521708] yes=61,no=62,missing=62
						61:leaf=-0.504656136
						62:[lhv<0.244640917] yes=83,no=84,missing=84
							83:leaf=-0.0093181124
							84:leaf=0.280862838
				20:[pressure<-0.245483786] yes=35,no=36,missing=36
					35:[h<1.86637986] yes=63,no=64,missing=64
						63:[fuel_type_ebs1<5.33680439] yes=85,no=86,missing=86
							85:leaf=0.362461329
							86:leaf=-0.00723173469
						64:[wc<-0.521624029] yes=87,no=88,missing=88
							87:leaf=0.270102322
							88:leaf=-0.0175313149
					36:leaf=0.564545155
	2:[residence_time<-0.0682274923] yes=5,no=6,missing=6
		5:[pressure<-0.245483786] yes=11,no=12,missing=12
			11:[cl<-0.566831648] yes=21,no=22,missing=22
				21:[wc<-1.2660203] yes=37,no=38,missing=38
					37:[cl<-0.567001581] yes=65,no=66,missing=66
						65:[cl<-0.568158984] yes=89,no=90,missing=90
							89:leaf=-0.276807308
							90:leaf=-0.952885389
						66:[cl<-0.566944957] yes=91,no=92,missing=92
							91:leaf=0.509859025
							92:leaf=-0.414449424
					38:[pressure<-0.371389121] yes=67,no=68,missing=68
						67:leaf=-0.361061692
						68:[residence_time<-0.865216136] yes=93,no=94,missing=94
							93:leaf=0.280970305
							94:leaf=-0.11455033
				22:[wc<-1.2660203] yes=39,no=40,missing=40
					39:leaf=0.764599264
					40:[vm<2.21111512] yes=69,no=70,missing=70
						69:[residence_time<-0.865216136] yes=95,no=96,missing=96
							95:leaf=0.0441907085
							96:leaf=0.130513176
						70:leaf=0.259996027
			12:[pressure<-0.119578443] yes=23,no=24,missing=24
				23:leaf=0.305674016
				24:[cl<-0.56801331] yes=41,no=42,missing=42
					41:leaf=0.696125746
					42:leaf=0.385149688
		6:[residence_time<2.20888305] yes=13,no=14,missing=14
			13:[cl<-0.56739819] yes=25,no=26,missing=26
				25:[pressure<-0.245483786] yes=43,no=44,missing=44
					43:leaf=0.507331312
					44:leaf=0.383042663
				26:[fuel_type_ebs2<3.56709099] yes=45,no=46,missing=46
					45:[vm<2.21111512] yes=71,no=72,missing=72
						71:leaf=0.266568601
						72:leaf=0.57049185
					46:[cl<-0.566774964] yes=73,no=74,missing=74
						73:leaf=0.0229669344
						74:leaf=-0.146255985
			14:leaf=0.799142003
booster[21]:
0:[temperature<-0.0168224666] yes=1,no=2,missing=2
	1:[temperature<-1.5270499] yes=3,no=4,missing=4
		3:[n<-1.3019954] yes=7,no=8,missing=8
			7:leaf=-0.423469245
			8:[s<-0.609077871] yes=15,no=16,missing=16
				15:leaf=-1.18931127
				16:[vm<-0.544721901] yes=29,no=30,missing=30
					29:leaf=-1.05378771
					30:[cl<-0.566888273] yes=47,no=48,missing=48
						47:leaf=-0.755392492
						48:leaf=-0.276833564
		4:[vm<1.92272258] yes=9,no=10,missing=10
			9:[pressure<-0.119578443] yes=17,no=18,missing=18
				17:[ac<1.70564985] yes=31,no=32,missing=32
					31:[o<-0.164625943] yes=49,no=50,missing=50
						49:[c<1.43065286] yes=67,no=68,missing=68
							67:leaf=-0.559191287
							68:leaf=-0.219841406
						50:[s<-0.432911187] yes=69,no=70,missing=70
							69:leaf=-0.287424564
							70:leaf=-0.0829387009
					32:[heat_rate<-1.69092429] yes=51,no=52,missing=52
						51:leaf=0.168008044
						52:leaf=0.0217484534
				18:[vm<-0.221618876] yes=33,no=34,missing=34
					33:leaf=0.188159153
					34:leaf=0.764194489
			10:[fuel_type_Hemicellulose<6.76930809] yes=19,no=20,missing=20
				19:leaf=0.392363369
				20:leaf=0.714185894
	2:[vm<0.982725859] yes=5,no=6,missing=6
		5:[vm<-0.538928092] yes=11,no=12,missing=12
			11:[temperature<0.989995837] yes=21,no=22,missing=22
				21:[ac<0.433806658] yes=35,no=36,missing=36
					35:leaf=-0.400913358
					36:[heat_rate<0.307050586] yes=53,no=54,missing=54
						53:leaf=0.25562644
						54:[vm<-0.874633372] yes=71,no=72,missing=72
							71:leaf=-0.208358809
							72:leaf=-0.0123048099
				22:[pressure<1.89490712] yes=37,no=38,missing=38
					37:[temperature<1.84579134] yes=55,no=56,missing=56
						55:[ac<1.70564985] yes=73,no=74,missing=74
							73:leaf=0.00192790199
							74:leaf=0.272091925
						56:leaf=0.521390975
					38:leaf=0.656584978
			12:[cl<-0.57047379] yes=23,no=24,missing=24
				23:[temperature<0.989995837] yes=39,no=40,missing=40
					39:[vm<-0.20355548] yes=57,no=58,missing=58
						57:[vm<-0.535654902] yes=75,no=76,missing=76
							75:leaf=0.225763962
							76:leaf=0.0444527343
						58:[c<-0.0611460581] yes=77,no=78,missing=78
							77:leaf=-0.0592884533
							78:leaf=-0.409505337
					40:[vm<0.0521663204] yes=59,no=60,missing=60
						59:[vm<-0.526849031] yes=79,no=80,missing=80
							79:leaf=0.151776239
							80:leaf=-0.0806437731
						60:leaf=0.386238396
				24:[o<-0.816995502] yes=41,no=42,missing=42
					41:[pressure<0.635853648] yes=61,no=62,missing=62
						61:[o<-0.83646512] yes=81,no=82,missing=82
							81:leaf=0.145666376
							82:leaf=-0.128584236
						62:leaf=0.563064814
					42:[o<-0.428082287] yes=63,no=64,missing=64
						63:[cl<-0.569437802] yes=83,no=84,missing=84
							83:leaf=0.834759951
							84:leaf=0.354906261
						64:[pressure<-0.245483786] yes=85,no=86,missing=86
							85:leaf=0.332485318
							86:leaf=0.0575194657
		6:[fuel_type_ebs2<3.56709099] yes=13,no=14,missing=14
			13:[pressure<4.41301394] yes=25,no=26,missing=26
				25:[ac<-0.428398222] yes=43,no=44,missing=44
					43:[cl<-0.566831648] yes=65,no=66,missing=66
						65:leaf=0.614849091
						66:[vm<1.92272258] yes=87,no=88,missing=88
							87:leaf=0.22701554
							88:leaf=0.608490229
					44:leaf=0.150447562
				26:leaf=0.0327583253
			14:[cl<-0.568134725] yes=27,no=28,missing=28
				27:[temperature<0.989995837] yes=45,no=46,missing=46
					45:leaf=-0.754295826
					46:leaf=-0.225641221
				28:leaf=0.48560515
booster[22]:
0:[temperature<-0.0168224666] yes=1,no=2,missing=2
	1:[temperature<-1.5270499] yes=3,no=4,missing=4
		3:[n<-1.29252744] yes=7,no=8,missing=8
			7:leaf=-1.44869328
			8:[temperature<-2.03045917] yes=15,no=16,missing=16
				15:leaf=-1.14120901
				16:[o<1.42585039] yes=29,no=30,missing=30
					29:[n<0.14772962] yes=49,no=50,missing=50
						49:leaf=-1.03727067
						50:leaf=-0.570647418
					30:leaf=0.0882536471
		4:[n<-0.735318959] yes=9,no=10,missing=10
			9:[pressure<-0.245483786] yes=17,no=18,missing=18
				17:[wc<-0.325809658] yes=31,no=32,missing=32
					31:[wc<-0.520879626] yes=51,no=52,missing=52
						51:leaf=0.101823054
						52:leaf=0.400865078
					32:leaf=-0.19652538
				18:leaf=1.00488698
			10:[s<-0.640181601] yes=19,no=20,missing=20
				19:leaf=-0.799764991
				20:[vm<-0.543750465] yes=33,no=34,missing=34
					33:[heat_rate<0.307050586] yes=53,no=54,missing=54
						53:leaf=0.259565055
						54:[temperature<-0.520231605] yes=77,no=78,missing=78
							77:leaf=-0.60186553
							78:leaf=-0.16355072
					34:[lhv<0.244470134] yes=55,no=56,missing=56
						55:[wc<0.4648031] yes=79,no=80,missing=80
							79:leaf=0.265273511
							80:leaf=-0.173507974
						56:[wc<-0.32771343] yes=81,no=82,missing=82
							81:leaf=-0.0927398205
							82:leaf=-0.338558167
	2:[vm<0.978966057] yes=5,no=6,missing=6
		5:[temperature<0.989995837] yes=11,no=12,missing=12
			11:[n<-0.397343934] yes=21,no=22,missing=22
				21:leaf=-0.378244758
				22:[fc<-0.764050305] yes=35,no=36,missing=36
					35:[pressure<1.89490712] yes=57,no=58,missing=58
						57:[pressure<-0.245483786] yes=83,no=84,missing=84
							83:leaf=-0.146626547
							84:leaf=-0.591214955
						58:leaf=0.0327127501
					36:[c<0.81406498] yes=59,no=60,missing=60
						59:[lhv<0.272529244] yes=85,no=86,missing=86
							85:leaf=0.0891030133
							86:leaf=-0.310792118
						60:[pressure<-0.245483786] yes=87,no=88,missing=88
							87:leaf=0.181158051
							88:leaf=0.415192902
			12:[vm<-0.531690001] yes=23,no=24,missing=24
				23:[pressure<1.89490712] yes=37,no=38,missing=38
					37:[temperature<1.84579134] yes=61,no=62,missing=62
						61:[o<-0.139048338] yes=89,no=90,missing=90
							89:leaf=0.0843566358
							90:leaf=-0.0857033432
						62:[wc<0.352297157] yes=91,no=92,missing=92
							91:leaf=0.603269637
							92:leaf=0.173636213
					38:leaf=0.633517742
				24:[o<-0.424155921] yes=39,no=40,missing=40
					39:[lhv<0.263989836] yes=63,no=64,missing=64
						63:[wc<-0.374760091] yes=93,no=94,missing=94
							93:leaf=-0.221130848
							94:leaf=0.01233787
						64:[o<-0.816995502] yes=95,no=96,missing=96
							95:leaf=0.181446612
							96:leaf=0.359705657
					40:[s<-0.609077871] yes=65,no=66,missing=66
						65:[wc<0.428225547] yes=97,no=98,missing=98
							97:leaf=0.240147769
							98:leaf=0.0555658974
						66:[vm<0.0521663204] yes=99,no=100,missing=100
							99:leaf=0.523595154
							100:leaf=0.350786716
		6:[wc<-0.521624029] yes=13,no=14,missing=14
			13:[pressure<-0.245483786] yes=25,no=26,missing=26
				25:[temperature<0.989995837] yes=41,no=42,missing=42
					41:[fuel_type_ebs2<3.56709099] yes=67,no=68,missing=68
						67:[c<0.886999249] yes=101,no=102,missing=102
							101:leaf=0.0403067768
							102:leaf=-0.0649737865
						68:leaf=0.110522099
					42:[fuel_type_ebs1<5.33680439] yes=69,no=70,missing=70
						69:leaf=0.46805796
						70:[heat_rate<-1.69092429] yes=103,no=104,missing=104
							103:leaf=0.221957713
							104:leaf=0.0179289673
				26:[fuel_type_ebs1<5.33680439] yes=43,no=44,missing=44
					43:leaf=0.398239076
					44:leaf=0.852634609
			14:[pressure<0.635853648] yes=27,no=28,missing=28
				27:[temperature<0.989995837] yes=45,no=46,missing=46
					45:[wc<-0.325809658] yes=71,no=72,missing=72
						71:leaf=0.655326903
						72:leaf=0.382938802
					46:[heat_rate<-1.69092429] yes=73,no=74,missing=74
						73:leaf=0.490128249
						74:leaf=0.779416323
				28:[temperature<0.989995837] yes=47,no=48,missing=48
					47:leaf=0.628694534
					48:[pressure<4.41301394] yes=75,no=76,missing=76
						75:[pressure<1.89490712] yes=105,no=106,missing=106
							105:leaf=0.148249596
							106:leaf=0.329436421
						76:leaf=-0.013106944
booster[23]:
0:[temperature<-0.520231605] yes=1,no=2,missing=2
	1:[temperature<-1.5270499] yes=3,no=4,missing=4
		3:[c<-0.441331476] yes=7,no=8,missing=8
			7:[temperature<-2.03045917] yes=15,no=16,missing=16
				15:leaf=-1.04579294
				16:[vm<-0.544691265] yes=27,no=28,missing=28
					27:[vm<-0.874633372] yes=39,no=40,missing=40
						39:leaf=-0.255298495
						40:leaf=-0.542704403
					28:[h<-0.715970933] yes=41,no=42,missing=42
						41:leaf=0.09068349
						42:leaf=-0.0966272578
			8:[n<0.14772962] yes=17,no=18,missing=18
				17:leaf=-1.11739361
				18:leaf=-0.597744167
		4:[vm<1.92272258] yes=9,no=10,missing=10
			9:[vm<-1.0596174] yes=19,no=20,missing=20
				19:leaf=-0.655424237
				20:[c<0.886999249] yes=29,no=30,missing=30
					29:[s<-0.318128914] yes=43,no=44,missing=44
						43:[s<-0.432877123] yes=57,no=58,missing=58
							57:leaf=-0.279087514
							58:leaf=0.0846900269
						44:[ac<0.265935123] yes=59,no=60,missing=60
							59:leaf=-0.698697388
							60:leaf=-0.378165007
					30:[vm<0.982725859] yes=45,no=46,missing=46
						45:leaf=0.212549359
						46:[fuel_type_ebs1<5.33680439] yes=61,no=62,missing=62
							61:leaf=-0.073631987
							62:leaf=-0.410046786
			10:[vm<2.21111512] yes=21,no=22,missing=22
				21:leaf=0.418502539
				22:leaf=0.253165126
	2:[ac<-1.16533792] yes=5,no=6,missing=6
		5:[temperature<1.84579134] yes=11,no=12,missing=12
			11:leaf=0.546622276
			12:leaf=0.825361848
		6:[temperature<0.989995837] yes=13,no=14,missing=14
			13:[o<-0.865258217] yes=23,no=24,missing=24
				23:[fuel_type_ebs2<3.56709099] yes=31,no=32,missing=32
					31:leaf=0.491187453
					32:leaf=0.107881173
				24:[n<-0.397343934] yes=33,no=34,missing=34
					33:[vm<0.978966057] yes=47,no=48,missing=48
						47:leaf=-0.322730392
						48:[c<0.886999249] yes=63,no=64,missing=64
							63:leaf=-0.127302587
							64:leaf=0.0225596875
					34:[c<0.0419764407] yes=49,no=50,missing=50
						49:[s<-0.30720076] yes=65,no=66,missing=66
							65:leaf=0.00743725756
							66:leaf=-0.130696952
						50:[vm<-0.201610163] yes=67,no=68,missing=68
							67:leaf=0.409966975
							68:leaf=0.141578257
			14:[vm<-0.649043202] yes=25,no=26,missing=26
				25:[ac<1.63911116] yes=35,no=36,missing=36
					35:[heat_rate<0.307050586] yes=51,no=52,missing=52
						51:[vm<-1.0596174] yes=69,no=70,missing=70
							69:leaf=0.24303256
							70:leaf=0.0828921124
						52:[temperature<1.84579134] yes=71,no=72,missing=72
							71:leaf=-0.0564855225
							72:leaf=0.216688499
					36:leaf=0.270813227
				26:[n<-0.401109934] yes=37,no=38,missing=38
					37:[o<-0.855934739] yes=53,no=54,missing=54
						53:[fuel_type_ebs1<5.33680439] yes=73,no=74,missing=74
							73:leaf=0.155263066
							74:leaf=0.340393901
						54:leaf=0.600997686
					38:[o<-0.424155921] yes=55,no=56,missing=56
						55:[ac<0.263385415] yes=75,no=76,missing=76
							75:leaf=0.118090928
							76:leaf=-0.358197778
						56:[o<-0.141460329] yes=77,no=78,missing=78
							77:leaf=0.303628266
							78:leaf=-0.0154816322
booster[24]:
0:[temperature<-0.520231605] yes=1,no=2,missing=2
	1:[temperature<-1.5270499] yes=3,no=4,missing=4
		3:[c<0.0273470953] yes=7,no=8,missing=8
			7:[temperature<-2.03045917] yes=15,no=16,missing=16
				15:leaf=-1.02206564
				16:[vm<0.0892383084] yes=27,no=28,missing=28
					27:[vm<-0.874633372] yes=41,no=42,missing=42
						41:leaf=-0.322565258
						42:leaf=-0.657575965
					28:[vm<2.21111512] yes=43,no=44,missing=44
						43:leaf=0.0858828649
						44:leaf=-0.071030274
			8:[fuel_type_ebs2<3.56709099] yes=17,no=18,missing=18
				17:leaf=-1.11693537
				18:leaf=-0.409075439
		4:[vm<1.05311] yes=9,no=10,missing=10
			9:[ac<1.70564985] yes=19,no=20,missing=20
				19:[h<-0.612521708] yes=29,no=30,missing=30
					29:leaf=-0.487443924
					30:[lhv<0.244470134] yes=45,no=46,missing=46
						45:[h<-0.0390875302] yes=59,no=60,missing=60
							59:leaf=-0.190681875
							60:leaf=0.13777709
						46:[c<0.886999249] yes=61,no=62,missing=62
							61:leaf=-0.493000001
							62:leaf=0.0333488621
				20:leaf=-0.0659508929
			10:[cl<-0.568045676] yes=21,no=22,missing=22
				21:[cl<-0.568158984] yes=31,no=32,missing=32
					31:leaf=-0.409455836
					32:leaf=-1.02868724
				22:[cl<-0.566888273] yes=33,no=34,missing=34
					33:leaf=0.671895027
					34:[cl<-0.488783747] yes=47,no=48,missing=48
						47:[fuel_type_ebs2<3.56709099] yes=63,no=64,missing=64
							63:leaf=0.14125295
							64:leaf=-0.210706055
						48:[h<-0.715970933] yes=65,no=66,missing=66
							65:leaf=0.226595551
							66:leaf=0.457831681
	2:[n<-1.29252744] yes=5,no=6,missing=6
		5:[vm<1.01603806] yes=11,no=12,missing=12
			11:leaf=0.536265373
			12:leaf=0.986659229
		6:[temperature<0.989995837] yes=13,no=14,missing=14
			13:[h<1.9832257] yes=23,no=24,missing=24
				23:[h<0.509565115] yes=35,no=36,missing=36
					35:[c<0.0609400906] yes=49,no=50,missing=50
						49:[n<0.461207777] yes=67,no=68,missing=68
							67:leaf=0.122279368
							68:leaf=-0.0840064213
						50:[lhv<0.169515371] yes=69,no=70,missing=70
							69:leaf=-0.221843123
							70:leaf=-0.704131365
					36:[cl<-0.568134725] yes=51,no=52,missing=52
						51:[cl<-0.569308341] yes=71,no=72,missing=72
							71:leaf=0.144784898
							72:leaf=-0.750758529
						52:[cl<-0.567058265] yes=73,no=74,missing=74
							73:leaf=0.558063805
							74:leaf=0.135158315
				24:leaf=-0.404997975
			14:[vm<-0.211499929] yes=25,no=26,missing=26
				25:[fuel_type_wood<2.71642184] yes=37,no=38,missing=38
					37:[temperature<1.84579134] yes=53,no=54,missing=54
						53:[ac<1.70564985] yes=75,no=76,missing=76
							75:leaf=0.041494634
							76:leaf=0.229153782
						54:[vm<-0.649043202] yes=77,no=78,missing=78
							77:leaf=0.119614445
							78:leaf=0.611116469
					38:leaf=0.963720977
				26:[cl<-0.568134725] yes=39,no=40,missing=40
					39:[cl<-0.569340706] yes=55,no=56,missing=56
						55:[vm<0.978966057] yes=79,no=80,missing=80
							79:leaf=0.297041178
							80:leaf=0.581940413
						56:[cl<-0.568361342] yes=81,no=82,missing=82
							81:leaf=-0.402057379
							82:leaf=-0.0548746064
					40:[cl<-0.566831648] yes=57,no=58,missing=58
						57:[cl<-0.566888273] yes=83,no=84,missing=84
							83:leaf=0.431875557
							84:leaf=0.831747532
						58:[fuel_type_ebs1<5.33680439] yes=85,no=86,missing=86
							85:leaf=0.404248923
							86:leaf=-0.00718582235
booster[25]:
0:[temperature<-0.0168224666] yes=1,no=2,missing=2
	1:[residence_time<-0.0682274923] yes=3,no=4,missing=4
		3:[pressure<-0.245483786] yes=7,no=8,missing=8
			7:[temperature<-2.03045917] yes=15,no=16,missing=16
				15:leaf=-1.21994662
				16:[fuel_type_cellulose<7.09611416] yes=31,no=32,missing=32
					31:[cl<-0.570360482] yes=53,no=54,missing=54
						53:[o<-0.151012927] yes=77,no=78,missing=78
							77:leaf=-0.781745553
							78:leaf=-0.471585691
						54:[wc<-0.434492528] yes=79,no=80,missing=80
							79:leaf=-0.484012365
							80:leaf=-0.125559792
					32:[temperature<-1.5270499] yes=55,no=56,missing=56
						55:leaf=0.0813363865
						56:leaf=0.684792995
			8:[temperature<-1.02364075] yes=17,no=18,missing=18
				17:leaf=-0.491392463
				18:[vm<-0.221618876] yes=33,no=34,missing=34
					33:[pressure<1.89490712] yes=57,no=58,missing=58
						57:leaf=0.100211471
						58:leaf=0.334576577
					34:leaf=0.956472397
		4:[temperature<-1.02364075] yes=9,no=10,missing=10
			9:[vm<-0.531912446] yes=19,no=20,missing=20
				19:leaf=-0
				20:[wc<-1.2660203] yes=35,no=36,missing=36
					35:leaf=-0.386676133
					36:leaf=-0.755857527
			10:[vm<1.01603806] yes=21,no=22,missing=22
				21:[residence_time<1.07032776] yes=37,no=38,missing=38
					37:[lhv<-0.149906531] yes=59,no=60,missing=60
						59:[vm<-0.540935218] yes=81,no=82,missing=82
							81:leaf=-0.0279993489
							82:leaf=0.862790883
						60:[ac<-0.314240247] yes=83,no=84,missing=84
							83:leaf=-0.632582903
							84:leaf=-0.0891578496
					38:[o<-0.150671974] yes=61,no=62,missing=62
						61:[vm<-0.221618876] yes=85,no=86,missing=86
							85:leaf=0.225459024
							86:leaf=0.778312325
						62:[temperature<-0.520231605] yes=87,no=88,missing=88
							87:leaf=-0.213773906
							88:leaf=-0
				22:[fuel_type_cellulose<7.09611416] yes=39,no=40,missing=40
					39:leaf=0.856549859
					40:leaf=0.422462612
	2:[residence_time<-0.979071677] yes=5,no=6,missing=6
		5:[temperature<0.989995837] yes=11,no=12,missing=12
			11:[ac<0.429819494] yes=23,no=24,missing=24
				23:[o<-0.83646512] yes=41,no=42,missing=42
					41:leaf=-0.300902128
					42:leaf=-0.75398612
				24:[vm<-0.649043202] yes=43,no=44,missing=44
					43:leaf=0.326412529
					44:leaf=-0.222716033
			12:[wc<0.509702206] yes=25,no=26,missing=26
				25:[o<-0.430647403] yes=45,no=46,missing=46
					45:[o<-0.816995502] yes=63,no=64,missing=64
						63:leaf=-0.372701913
						64:leaf=-0.102573082
					46:[vm<-0.531690001] yes=65,no=66,missing=66
						65:[wc<0.482690126] yes=89,no=90,missing=90
							89:leaf=-0.0130938627
							90:leaf=0.100095555
						66:[lhv<0.268088758] yes=91,no=92,missing=92
							91:leaf=0.360773981
							92:leaf=0.0224873703
				26:leaf=-0.434196591
		6:[vm<0.978966057] yes=13,no=14,missing=14
			13:[fuel_type_sewage<2.80079365] yes=27,no=28,missing=28
				27:[residence_time<-0.0682274923] yes=47,no=48,missing=48
					47:[pressure<1.89490712] yes=67,no=68,missing=68
						67:[temperature<0.989995837] yes=93,no=94,missing=94
							93:leaf=-0.166843742
							94:leaf=0.139336631
						68:[o<-0.236837223] yes=95,no=96,missing=96
							95:leaf=0.287779897
							96:leaf=0.774000406
					48:[lhv<0.268088758] yes=69,no=70,missing=70
						69:[pressure<-0.245483786] yes=97,no=98,missing=98
							97:leaf=0.221037969
							98:leaf=-0.00690870499
						70:[temperature<1.84579134] yes=99,no=100,missing=100
							99:leaf=0.405269384
							100:leaf=0.147569835
				28:[temperature<0.989995837] yes=49,no=50,missing=50
					49:[residence_time<-0.865216136] yes=71,no=72,missing=72
						71:[pressure<-0.245483786] yes=101,no=102,missing=102
